<?xml version="1.0"?>
<MethodSetup Method="BDT::BDT">
  <GeneralInfo>
    <Info name="TMVA Release" value="4.2.1 [262657]"/>
    <Info name="ROOT Release" value="6.22/06 [398854]"/>
    <Info name="Creator" value="mettatonvm"/>
    <Info name="Date" value="Wed Sep 29 12:02:43 2021"/>
    <Info name="Host" value="Linux root-ubuntu-2004-1 5.4.0-54-generic #60-Ubuntu SMP Fri Nov 6 10:37:59 UTC 2020 x86_64 x86_64 x86_64 GNU/Linux"/>
    <Info name="Dir" value="/home/mettatonvm/LHCb/moore_upgrade"/>
    <Info name="Training events" value="239450"/>
    <Info name="TrainingTime" value="3.54605711e+01"/>
    <Info name="AnalysisType" value="Classification"/>
  </GeneralInfo>
  <Options>
    <Option name="V" modified="No">False</Option>
    <Option name="VerbosityLevel" modified="No">Default</Option>
    <Option name="VarTransform" modified="No">None</Option>
    <Option name="H" modified="No">False</Option>
    <Option name="CreateMVAPdfs" modified="Yes">True</Option>
    <Option name="IgnoreNegWeightsInTraining" modified="No">False</Option>
    <Option name="NTrees" modified="Yes">400</Option>
    <Option name="MaxDepth" modified="Yes">2</Option>
    <Option name="MinNodeSize" modified="No">5%</Option>
    <Option name="nCuts" modified="No">20</Option>
    <Option name="BoostType" modified="No">AdaBoost</Option>
    <Option name="AdaBoostR2Loss" modified="No">quadratic</Option>
    <Option name="UseBaggedBoost" modified="No">False</Option>
    <Option name="Shrinkage" modified="No">1.000000e+00</Option>
    <Option name="AdaBoostBeta" modified="No">5.000000e-01</Option>
    <Option name="UseRandomisedTrees" modified="No">False</Option>
    <Option name="UseNvars" modified="No">3</Option>
    <Option name="UsePoissonNvars" modified="No">True</Option>
    <Option name="BaggedSampleFraction" modified="No">6.000000e-01</Option>
    <Option name="UseYesNoLeaf" modified="No">True</Option>
    <Option name="NegWeightTreatment" modified="No">inverseboostnegweights</Option>
    <Option name="Css" modified="No">1.000000e+00</Option>
    <Option name="Cts_sb" modified="No">1.000000e+00</Option>
    <Option name="Ctb_ss" modified="No">1.000000e+00</Option>
    <Option name="Cbb" modified="No">1.000000e+00</Option>
    <Option name="NodePurityLimit" modified="No">5.000000e-01</Option>
    <Option name="SeparationType" modified="No">giniindex</Option>
    <Option name="RegressionLossFunctionBDTG" modified="No">huber</Option>
    <Option name="HuberQuantile" modified="No">7.000000e-01</Option>
    <Option name="DoBoostMonitor" modified="No">False</Option>
    <Option name="UseFisherCuts" modified="No">False</Option>
    <Option name="MinLinCorrForFisher" modified="No">8.000000e-01</Option>
    <Option name="UseExclusiveVars" modified="No">False</Option>
    <Option name="DoPreselection" modified="No">False</Option>
    <Option name="SigToBkgFraction" modified="No">1.000000e+00</Option>
    <Option name="PruneMethod" modified="No">nopruning</Option>
    <Option name="PruneStrength" modified="No">0.000000e+00</Option>
    <Option name="PruningValFraction" modified="No">5.000000e-01</Option>
    <Option name="SkipNormalization" modified="No">False</Option>
    <Option name="nEventsMin" modified="No">0</Option>
    <Option name="UseBaggedGrad" modified="No">False</Option>
    <Option name="GradBaggingFraction" modified="No">6.000000e-01</Option>
    <Option name="UseNTrainEvents" modified="No">0</Option>
    <Option name="NNodesMax" modified="No">0</Option>
  </Options>
  <Variables NVar="8">
    <Variable VarIndex="0" Expression="B_fdchi2" Label="B_fdchi2" Title="B_fdchi2" Unit="" Internal="B_fdchi2" Type="D" Min="8.68511498e-01" Max="8.05615330e+00"/>
    <Variable VarIndex="1" Expression="B_ipchi2" Label="B_ipchi2" Title="B_ipchi2" Unit="" Internal="B_ipchi2" Type="D" Min="-4.52783251e+00" Max="5.94574738e+00"/>
    <Variable VarIndex="2" Expression="B_ipchi2_min" Label="B_ipchi2_min" Title="B_ipchi2_min" Unit="" Internal="B_ipchi2_min" Type="D" Min="-4.58173275e+00" Max="5.85499620e+00"/>
    <Variable VarIndex="3" Expression="B_vtx_chi2" Label="B_vtx_chi2" Title="B_vtx_chi2" Unit="" Internal="B_vtx_chi2" Type="D" Min="-3.99872613e+00" Max="2.99998093e+00"/>
    <Variable VarIndex="4" Expression="B_m_corrected" Label="B_m_corrected" Title="B_m_corrected" Unit="" Internal="B_m_corrected" Type="D" Min="1.17716052e+03" Max="1.10032012e+04"/>
    <Variable VarIndex="5" Expression="B_vm_corrected" Label="B_vm_corrected" Title="B_vm_corrected" Unit="" Internal="B_vm_corrected" Type="D" Min="9.78116577e+02" Max="5.98983086e+04"/>
    <Variable VarIndex="6" Expression="B_doca" Label="B_doca" Title="B_doca" Unit="" Internal="B_doca" Type="D" Min="1.43695706e-05" Max="6.48713074e+01"/>
    <Variable VarIndex="7" Expression="B_gamma_pt" Label="B_gamma_pt" Title="B_gamma_pt" Unit="" Internal="B_gamma_pt" Type="D" Min="2.00000134e+03" Max="2.68302266e+04"/>
  </Variables>
  <Spectators NSpec="0"/>
  <Classes NClass="2">
    <Class Name="Signal" Index="0"/>
    <Class Name="Background" Index="1"/>
  </Classes>
  <Transformations NTransformations="0"/>
  <MVAPdfs>
    <PDF Name="BDT_PDFSig" MinNSmooth="0" MaxNSmooth="0" InterpolMethod="2" KDE_type="1" KDE_iter="1" KDE_border="1" KDE_finefactor="1.0000000000000000e+00">
      <Histogram Name="BDT_tr_S_original" NBins="4789" XMin="-7.5702041387557983e-01" XMax="5.6036442518234253e-01" HasEquidistantBins="1">
        0.00000000e+00 0.00000000e+00 0.00000000e+00 0.00000000e+00 0.00000000e+00 0.00000000e+00 0.00000000e+00 0.00000000e+00 0.00000000e+00 0.00000000e+00 0.00000000e+00 0.00000000e+00 0.00000000e+00 0.00000000e+00 0.00000000e+00 0.00000000e+00 0.00000000e+00 0.00000000e+00 0.00000000e+00 0.00000000e+00 0.00000000e+00 0.00000000e+00 0.00000000e+00 0.00000000e+00 0.00000000e+00 0.00000000e+00 0.00000000e+00 0.00000000e+00 0.00000000e+00 0.00000000e+00 0.00000000e+00 0.00000000e+00 0.00000000e+00 0.00000000e+00 0.00000000e+00 0.00000000e+00 0.00000000e+00 0.00000000e+00 0.00000000e+00 0.00000000e+00 0.00000000e+00 0.00000000e+00 0.00000000e+00 0.00000000e+00 0.00000000e+00 0.00000000e+00 0.00000000e+00 0.00000000e+00 0.00000000e+00 0.00000000e+00 0.00000000e+00 0.00000000e+00 0.00000000e+00 0.00000000e+00 0.00000000e+00 0.00000000e+00 0.00000000e+00 0.00000000e+00 0.00000000e+00 0.00000000e+00 0.00000000e+00 0.00000000e+00 0.00000000e+00 0.00000000e+00 0.00000000e+00 0.00000000e+00 0.00000000e+00 0.00000000e+00 0.00000000e+00 0.00000000e+00 0.00000000e+00 0.00000000e+00 0.00000000e+00 0.00000000e+00 0.00000000e+00 0.00000000e+00 0.00000000e+00 0.00000000e+00 0.00000000e+00 0.00000000e+00 0.00000000e+00 0.00000000e+00 0.00000000e+00 0.00000000e+00 0.00000000e+00 0.00000000e+00 0.00000000e+00 0.00000000e+00 0.00000000e+00 0.00000000e+00 0.00000000e+00 0.00000000e+00 0.00000000e+00 0.00000000e+00 0.00000000e+00 0.00000000e+00 0.00000000e+00 0.00000000e+00 0.00000000e+00 0.00000000e+00 0.00000000e+00 0.00000000e+00 0.00000000e+00 0.00000000e+00 0.00000000e+00 0.00000000e+00 0.00000000e+00 0.00000000e+00 0.00000000e+00 0.00000000e+00 0.00000000e+00 0.00000000e+00 0.00000000e+00 0.00000000e+00 0.00000000e+00 0.00000000e+00 0.00000000e+00 0.00000000e+00 0.00000000e+00 0.00000000e+00 0.00000000e+00 0.00000000e+00 0.00000000e+00 0.00000000e+00 0.00000000e+00 0.00000000e+00 0.00000000e+00 0.00000000e+00 0.00000000e+00 0.00000000e+00 0.00000000e+00 0.00000000e+00 0.00000000e+00 0.00000000e+00 0.00000000e+00 0.00000000e+00 0.00000000e+00 0.00000000e+00 0.00000000e+00 0.00000000e+00 0.00000000e+00 0.00000000e+00 0.00000000e+00 0.00000000e+00 0.00000000e+00 0.00000000e+00 0.00000000e+00 0.00000000e+00 0.00000000e+00 0.00000000e+00 0.00000000e+00 0.00000000e+00 0.00000000e+00 0.00000000e+00 0.00000000e+00 0.00000000e+00 0.00000000e+00 0.00000000e+00 0.00000000e+00 0.00000000e+00 0.00000000e+00 0.00000000e+00 0.00000000e+00 0.00000000e+00 0.00000000e+00 0.00000000e+00 0.00000000e+00 0.00000000e+00 0.00000000e+00 0.00000000e+00 0.00000000e+00 0.00000000e+00 0.00000000e+00 0.00000000e+00 0.00000000e+00 0.00000000e+00 0.00000000e+00 0.00000000e+00 0.00000000e+00 0.00000000e+00 0.00000000e+00 0.00000000e+00 0.00000000e+00 0.00000000e+00 0.00000000e+00 0.00000000e+00 0.00000000e+00 0.00000000e+00 0.00000000e+00 0.00000000e+00 0.00000000e+00 0.00000000e+00 0.00000000e+00 0.00000000e+00 0.00000000e+00 0.00000000e+00 0.00000000e+00 0.00000000e+00 0.00000000e+00 0.00000000e+00 0.00000000e+00 0.00000000e+00 0.00000000e+00 0.00000000e+00 0.00000000e+00 0.00000000e+00 0.00000000e+00 0.00000000e+00 0.00000000e+00 0.00000000e+00 0.00000000e+00 0.00000000e+00 0.00000000e+00 0.00000000e+00 0.00000000e+00 0.00000000e+00 0.00000000e+00 0.00000000e+00 0.00000000e+00 0.00000000e+00 0.00000000e+00 0.00000000e+00 0.00000000e+00 0.00000000e+00 0.00000000e+00 0.00000000e+00 0.00000000e+00 0.00000000e+00 0.00000000e+00 0.00000000e+00 0.00000000e+00 0.00000000e+00 0.00000000e+00 0.00000000e+00 0.00000000e+00 0.00000000e+00 0.00000000e+00 0.00000000e+00 0.00000000e+00 0.00000000e+00 0.00000000e+00 0.00000000e+00 0.00000000e+00 0.00000000e+00 0.00000000e+00 0.00000000e+00 0.00000000e+00 0.00000000e+00 0.00000000e+00 0.00000000e+00 0.00000000e+00 0.00000000e+00 0.00000000e+00 0.00000000e+00 0.00000000e+00 0.00000000e+00 0.00000000e+00 0.00000000e+00 0.00000000e+00 0.00000000e+00 0.00000000e+00 0.00000000e+00 0.00000000e+00 0.00000000e+00 0.00000000e+00 0.00000000e+00 0.00000000e+00 0.00000000e+00 0.00000000e+00 0.00000000e+00 0.00000000e+00 0.00000000e+00 0.00000000e+00 0.00000000e+00 0.00000000e+00 0.00000000e+00 0.00000000e+00 0.00000000e+00 0.00000000e+00 0.00000000e+00 0.00000000e+00 0.00000000e+00 0.00000000e+00 0.00000000e+00 0.00000000e+00 0.00000000e+00 0.00000000e+00 0.00000000e+00 0.00000000e+00 0.00000000e+00 0.00000000e+00 0.00000000e+00 0.00000000e+00 0.00000000e+00 0.00000000e+00 0.00000000e+00 0.00000000e+00 0.00000000e+00 0.00000000e+00 0.00000000e+00 0.00000000e+00 0.00000000e+00 0.00000000e+00 0.00000000e+00 0.00000000e+00 0.00000000e+00 0.00000000e+00 0.00000000e+00 0.00000000e+00 0.00000000e+00 0.00000000e+00 0.00000000e+00 0.00000000e+00 0.00000000e+00 0.00000000e+00 0.00000000e+00 0.00000000e+00 0.00000000e+00 0.00000000e+00 0.00000000e+00 0.00000000e+00 0.00000000e+00 0.00000000e+00 0.00000000e+00 0.00000000e+00 0.00000000e+00 0.00000000e+00 0.00000000e+00 0.00000000e+00 0.00000000e+00 0.00000000e+00 0.00000000e+00 0.00000000e+00 0.00000000e+00 0.00000000e+00 0.00000000e+00 0.00000000e+00 0.00000000e+00 0.00000000e+00 0.00000000e+00 0.00000000e+00 0.00000000e+00 0.00000000e+00 0.00000000e+00 0.00000000e+00 0.00000000e+00 0.00000000e+00 0.00000000e+00 0.00000000e+00 0.00000000e+00 0.00000000e+00 0.00000000e+00 0.00000000e+00 0.00000000e+00 0.00000000e+00 0.00000000e+00 0.00000000e+00 0.00000000e+00 0.00000000e+00 0.00000000e+00 0.00000000e+00 0.00000000e+00 0.00000000e+00 0.00000000e+00 0.00000000e+00 0.00000000e+00 0.00000000e+00 0.00000000e+00 0.00000000e+00 0.00000000e+00 0.00000000e+00 0.00000000e+00 0.00000000e+00 0.00000000e+00 0.00000000e+00 0.00000000e+00 0.00000000e+00 0.00000000e+00 0.00000000e+00 0.00000000e+00 0.00000000e+00 0.00000000e+00 0.00000000e+00 0.00000000e+00 0.00000000e+00 0.00000000e+00 0.00000000e+00 0.00000000e+00 0.00000000e+00 0.00000000e+00 0.00000000e+00 0.00000000e+00 0.00000000e+00 0.00000000e+00 0.00000000e+00 0.00000000e+00 0.00000000e+00 0.00000000e+00 0.00000000e+00 0.00000000e+00 0.00000000e+00 0.00000000e+00 0.00000000e+00 0.00000000e+00 0.00000000e+00 0.00000000e+00 0.00000000e+00 0.00000000e+00 0.00000000e+00 0.00000000e+00 0.00000000e+00 0.00000000e+00 0.00000000e+00 0.00000000e+00 0.00000000e+00 0.00000000e+00 0.00000000e+00 0.00000000e+00 0.00000000e+00 0.00000000e+00 0.00000000e+00 0.00000000e+00 0.00000000e+00 0.00000000e+00 0.00000000e+00 0.00000000e+00 0.00000000e+00 0.00000000e+00 0.00000000e+00 0.00000000e+00 0.00000000e+00 0.00000000e+00 0.00000000e+00 0.00000000e+00 0.00000000e+00 0.00000000e+00 0.00000000e+00 0.00000000e+00 0.00000000e+00 0.00000000e+00 0.00000000e+00 0.00000000e+00 0.00000000e+00 0.00000000e+00 0.00000000e+00 0.00000000e+00 0.00000000e+00 0.00000000e+00 0.00000000e+00 0.00000000e+00 0.00000000e+00 0.00000000e+00 0.00000000e+00 0.00000000e+00 0.00000000e+00 0.00000000e+00 0.00000000e+00 0.00000000e+00 0.00000000e+00 0.00000000e+00 0.00000000e+00 0.00000000e+00 0.00000000e+00 0.00000000e+00 0.00000000e+00 0.00000000e+00 0.00000000e+00 0.00000000e+00 0.00000000e+00 0.00000000e+00 0.00000000e+00 0.00000000e+00 0.00000000e+00 0.00000000e+00 0.00000000e+00 0.00000000e+00 0.00000000e+00 0.00000000e+00 0.00000000e+00 0.00000000e+00 0.00000000e+00 0.00000000e+00 0.00000000e+00 0.00000000e+00 0.00000000e+00 0.00000000e+00 0.00000000e+00 0.00000000e+00 0.00000000e+00 0.00000000e+00 0.00000000e+00 0.00000000e+00 0.00000000e+00 0.00000000e+00 0.00000000e+00 0.00000000e+00 0.00000000e+00 0.00000000e+00 0.00000000e+00 0.00000000e+00 0.00000000e+00 0.00000000e+00 0.00000000e+00 0.00000000e+00 0.00000000e+00 0.00000000e+00 0.00000000e+00 0.00000000e+00 0.00000000e+00 0.00000000e+00 0.00000000e+00 0.00000000e+00 0.00000000e+00 0.00000000e+00 0.00000000e+00 0.00000000e+00 0.00000000e+00 0.00000000e+00 0.00000000e+00 0.00000000e+00 0.00000000e+00 0.00000000e+00 0.00000000e+00 0.00000000e+00 0.00000000e+00 0.00000000e+00 0.00000000e+00 0.00000000e+00 0.00000000e+00 0.00000000e+00 0.00000000e+00 0.00000000e+00 0.00000000e+00 0.00000000e+00 0.00000000e+00 0.00000000e+00 0.00000000e+00 0.00000000e+00 0.00000000e+00 0.00000000e+00 0.00000000e+00 0.00000000e+00 0.00000000e+00 0.00000000e+00 0.00000000e+00 0.00000000e+00 0.00000000e+00 0.00000000e+00 0.00000000e+00 0.00000000e+00 0.00000000e+00 0.00000000e+00 0.00000000e+00 0.00000000e+00 0.00000000e+00 0.00000000e+00 0.00000000e+00 0.00000000e+00 0.00000000e+00 0.00000000e+00 0.00000000e+00 0.00000000e+00 0.00000000e+00 0.00000000e+00 0.00000000e+00 0.00000000e+00 0.00000000e+00 0.00000000e+00 0.00000000e+00 0.00000000e+00 0.00000000e+00 0.00000000e+00 0.00000000e+00 0.00000000e+00 0.00000000e+00 0.00000000e+00 0.00000000e+00 0.00000000e+00 0.00000000e+00 0.00000000e+00 0.00000000e+00 0.00000000e+00 0.00000000e+00 0.00000000e+00 0.00000000e+00 0.00000000e+00 0.00000000e+00 0.00000000e+00 0.00000000e+00 0.00000000e+00 0.00000000e+00 0.00000000e+00 0.00000000e+00 0.00000000e+00 0.00000000e+00 0.00000000e+00 0.00000000e+00 0.00000000e+00 0.00000000e+00 0.00000000e+00 0.00000000e+00 0.00000000e+00 0.00000000e+00 0.00000000e+00 0.00000000e+00 0.00000000e+00 0.00000000e+00 0.00000000e+00 0.00000000e+00 0.00000000e+00 0.00000000e+00 0.00000000e+00 0.00000000e+00 0.00000000e+00 0.00000000e+00 0.00000000e+00 0.00000000e+00 0.00000000e+00 0.00000000e+00 0.00000000e+00 0.00000000e+00 0.00000000e+00 0.00000000e+00 0.00000000e+00 0.00000000e+00 0.00000000e+00 0.00000000e+00 0.00000000e+00 0.00000000e+00 0.00000000e+00 0.00000000e+00 0.00000000e+00 0.00000000e+00 0.00000000e+00 0.00000000e+00 0.00000000e+00 0.00000000e+00 0.00000000e+00 0.00000000e+00 0.00000000e+00 0.00000000e+00 0.00000000e+00 0.00000000e+00 0.00000000e+00 0.00000000e+00 0.00000000e+00 0.00000000e+00 0.00000000e+00 0.00000000e+00 0.00000000e+00 0.00000000e+00 0.00000000e+00 0.00000000e+00 0.00000000e+00 0.00000000e+00 0.00000000e+00 0.00000000e+00 0.00000000e+00 0.00000000e+00 0.00000000e+00 0.00000000e+00 0.00000000e+00 0.00000000e+00 0.00000000e+00 0.00000000e+00 0.00000000e+00 0.00000000e+00 0.00000000e+00 0.00000000e+00 0.00000000e+00 0.00000000e+00 0.00000000e+00 0.00000000e+00 0.00000000e+00 0.00000000e+00 0.00000000e+00 0.00000000e+00 0.00000000e+00 0.00000000e+00 0.00000000e+00 0.00000000e+00 0.00000000e+00 0.00000000e+00 0.00000000e+00 0.00000000e+00 0.00000000e+00 0.00000000e+00 0.00000000e+00 0.00000000e+00 0.00000000e+00 0.00000000e+00 0.00000000e+00 0.00000000e+00 0.00000000e+00 0.00000000e+00 0.00000000e+00 0.00000000e+00 0.00000000e+00 0.00000000e+00 0.00000000e+00 0.00000000e+00 0.00000000e+00 0.00000000e+00 0.00000000e+00 0.00000000e+00 0.00000000e+00 0.00000000e+00 0.00000000e+00 0.00000000e+00 0.00000000e+00 0.00000000e+00 0.00000000e+00 0.00000000e+00 0.00000000e+00 0.00000000e+00 0.00000000e+00 0.00000000e+00 0.00000000e+00 0.00000000e+00 0.00000000e+00 0.00000000e+00 0.00000000e+00 0.00000000e+00 0.00000000e+00 0.00000000e+00 0.00000000e+00 0.00000000e+00 0.00000000e+00 0.00000000e+00 0.00000000e+00 0.00000000e+00 0.00000000e+00 0.00000000e+00 0.00000000e+00 0.00000000e+00 0.00000000e+00 0.00000000e+00 0.00000000e+00 0.00000000e+00 0.00000000e+00 0.00000000e+00 0.00000000e+00 0.00000000e+00 0.00000000e+00 0.00000000e+00 0.00000000e+00 0.00000000e+00 0.00000000e+00 0.00000000e+00 0.00000000e+00 0.00000000e+00 0.00000000e+00 0.00000000e+00 0.00000000e+00 0.00000000e+00 0.00000000e+00 0.00000000e+00 0.00000000e+00 0.00000000e+00 0.00000000e+00 0.00000000e+00 0.00000000e+00 0.00000000e+00 0.00000000e+00 0.00000000e+00 0.00000000e+00 0.00000000e+00 0.00000000e+00 0.00000000e+00 0.00000000e+00 0.00000000e+00 0.00000000e+00 0.00000000e+00 0.00000000e+00 0.00000000e+00 0.00000000e+00 0.00000000e+00 0.00000000e+00 0.00000000e+00 0.00000000e+00 0.00000000e+00 0.00000000e+00 0.00000000e+00 0.00000000e+00 0.00000000e+00 0.00000000e+00 0.00000000e+00 0.00000000e+00 0.00000000e+00 0.00000000e+00 0.00000000e+00 0.00000000e+00 0.00000000e+00 0.00000000e+00 0.00000000e+00 0.00000000e+00 0.00000000e+00 0.00000000e+00 0.00000000e+00 0.00000000e+00 0.00000000e+00 0.00000000e+00 0.00000000e+00 0.00000000e+00 0.00000000e+00 0.00000000e+00 0.00000000e+00 0.00000000e+00 0.00000000e+00 0.00000000e+00 0.00000000e+00 0.00000000e+00 0.00000000e+00 0.00000000e+00 0.00000000e+00 0.00000000e+00 0.00000000e+00 0.00000000e+00 0.00000000e+00 0.00000000e+00 0.00000000e+00 0.00000000e+00 0.00000000e+00 0.00000000e+00 0.00000000e+00 0.00000000e+00 0.00000000e+00 0.00000000e+00 0.00000000e+00 0.00000000e+00 0.00000000e+00 0.00000000e+00 0.00000000e+00 0.00000000e+00 0.00000000e+00 0.00000000e+00 0.00000000e+00 0.00000000e+00 0.00000000e+00 0.00000000e+00 0.00000000e+00 0.00000000e+00 0.00000000e+00 0.00000000e+00 0.00000000e+00 0.00000000e+00 0.00000000e+00 0.00000000e+00 0.00000000e+00 0.00000000e+00 0.00000000e+00 0.00000000e+00 0.00000000e+00 0.00000000e+00 0.00000000e+00 0.00000000e+00 0.00000000e+00 0.00000000e+00 0.00000000e+00 0.00000000e+00 0.00000000e+00 0.00000000e+00 0.00000000e+00 0.00000000e+00 0.00000000e+00 0.00000000e+00 0.00000000e+00 0.00000000e+00 0.00000000e+00 0.00000000e+00 0.00000000e+00 0.00000000e+00 0.00000000e+00 0.00000000e+00 0.00000000e+00 0.00000000e+00 0.00000000e+00 0.00000000e+00 0.00000000e+00 0.00000000e+00 0.00000000e+00 0.00000000e+00 0.00000000e+00 0.00000000e+00 0.00000000e+00 0.00000000e+00 0.00000000e+00 0.00000000e+00 0.00000000e+00 0.00000000e+00 0.00000000e+00 0.00000000e+00 0.00000000e+00 0.00000000e+00 0.00000000e+00 0.00000000e+00 0.00000000e+00 0.00000000e+00 0.00000000e+00 0.00000000e+00 0.00000000e+00 0.00000000e+00 0.00000000e+00 0.00000000e+00 0.00000000e+00 0.00000000e+00 0.00000000e+00 0.00000000e+00 0.00000000e+00 0.00000000e+00 0.00000000e+00 0.00000000e+00 0.00000000e+00 0.00000000e+00 0.00000000e+00 0.00000000e+00 0.00000000e+00 0.00000000e+00 0.00000000e+00 0.00000000e+00 0.00000000e+00 0.00000000e+00 0.00000000e+00 0.00000000e+00 0.00000000e+00 0.00000000e+00 0.00000000e+00 0.00000000e+00 0.00000000e+00 0.00000000e+00 0.00000000e+00 0.00000000e+00 0.00000000e+00 0.00000000e+00 0.00000000e+00 0.00000000e+00 0.00000000e+00 0.00000000e+00 0.00000000e+00 0.00000000e+00 0.00000000e+00 0.00000000e+00 0.00000000e+00 0.00000000e+00 0.00000000e+00 0.00000000e+00 0.00000000e+00 0.00000000e+00 0.00000000e+00 0.00000000e+00 0.00000000e+00 0.00000000e+00 0.00000000e+00 0.00000000e+00 0.00000000e+00 0.00000000e+00 0.00000000e+00 0.00000000e+00 0.00000000e+00 0.00000000e+00 0.00000000e+00 0.00000000e+00 0.00000000e+00 0.00000000e+00 0.00000000e+00 0.00000000e+00 0.00000000e+00 0.00000000e+00 0.00000000e+00 0.00000000e+00 0.00000000e+00 0.00000000e+00 0.00000000e+00 0.00000000e+00 0.00000000e+00 0.00000000e+00 0.00000000e+00 0.00000000e+00 0.00000000e+00 0.00000000e+00 0.00000000e+00 0.00000000e+00 0.00000000e+00 0.00000000e+00 0.00000000e+00 0.00000000e+00 0.00000000e+00 0.00000000e+00 0.00000000e+00 0.00000000e+00 0.00000000e+00 0.00000000e+00 0.00000000e+00 0.00000000e+00 0.00000000e+00 0.00000000e+00 0.00000000e+00 0.00000000e+00 0.00000000e+00 0.00000000e+00 0.00000000e+00 0.00000000e+00 0.00000000e+00 0.00000000e+00 0.00000000e+00 0.00000000e+00 0.00000000e+00 0.00000000e+00 0.00000000e+00 0.00000000e+00 0.00000000e+00 0.00000000e+00 0.00000000e+00 0.00000000e+00 0.00000000e+00 0.00000000e+00 0.00000000e+00 0.00000000e+00 0.00000000e+00 0.00000000e+00 0.00000000e+00 0.00000000e+00 0.00000000e+00 0.00000000e+00 0.00000000e+00 0.00000000e+00 0.00000000e+00 0.00000000e+00 0.00000000e+00 0.00000000e+00 0.00000000e+00 0.00000000e+00 0.00000000e+00 0.00000000e+00 0.00000000e+00 0.00000000e+00 0.00000000e+00 0.00000000e+00 0.00000000e+00 0.00000000e+00 0.00000000e+00 0.00000000e+00 0.00000000e+00 0.00000000e+00 0.00000000e+00 0.00000000e+00 0.00000000e+00 0.00000000e+00 0.00000000e+00 0.00000000e+00 0.00000000e+00 0.00000000e+00 0.00000000e+00 0.00000000e+00 0.00000000e+00 0.00000000e+00 0.00000000e+00 0.00000000e+00 0.00000000e+00 0.00000000e+00 0.00000000e+00 0.00000000e+00 0.00000000e+00 0.00000000e+00 0.00000000e+00 0.00000000e+00 0.00000000e+00 0.00000000e+00 0.00000000e+00 0.00000000e+00 0.00000000e+00 0.00000000e+00 0.00000000e+00 0.00000000e+00 0.00000000e+00 0.00000000e+00 0.00000000e+00 0.00000000e+00 0.00000000e+00 0.00000000e+00 0.00000000e+00 0.00000000e+00 0.00000000e+00 0.00000000e+00 0.00000000e+00 0.00000000e+00 0.00000000e+00 0.00000000e+00 0.00000000e+00 0.00000000e+00 0.00000000e+00 0.00000000e+00 0.00000000e+00 0.00000000e+00 0.00000000e+00 0.00000000e+00 0.00000000e+00 0.00000000e+00 0.00000000e+00 0.00000000e+00 0.00000000e+00 0.00000000e+00 0.00000000e+00 0.00000000e+00 0.00000000e+00 0.00000000e+00 0.00000000e+00 0.00000000e+00 0.00000000e+00 0.00000000e+00 0.00000000e+00 0.00000000e+00 0.00000000e+00 0.00000000e+00 0.00000000e+00 0.00000000e+00 0.00000000e+00 0.00000000e+00 0.00000000e+00 0.00000000e+00 0.00000000e+00 0.00000000e+00 0.00000000e+00 0.00000000e+00 0.00000000e+00 0.00000000e+00 0.00000000e+00 0.00000000e+00 0.00000000e+00 0.00000000e+00 0.00000000e+00 0.00000000e+00 0.00000000e+00 0.00000000e+00 0.00000000e+00 0.00000000e+00 0.00000000e+00 0.00000000e+00 0.00000000e+00 0.00000000e+00 0.00000000e+00 0.00000000e+00 0.00000000e+00 0.00000000e+00 0.00000000e+00 0.00000000e+00 0.00000000e+00 0.00000000e+00 0.00000000e+00 0.00000000e+00 0.00000000e+00 0.00000000e+00 0.00000000e+00 0.00000000e+00 0.00000000e+00 0.00000000e+00 0.00000000e+00 0.00000000e+00 0.00000000e+00 0.00000000e+00 0.00000000e+00 0.00000000e+00 0.00000000e+00 0.00000000e+00 0.00000000e+00 0.00000000e+00 0.00000000e+00 0.00000000e+00 0.00000000e+00 0.00000000e+00 0.00000000e+00 0.00000000e+00 0.00000000e+00 0.00000000e+00 0.00000000e+00 0.00000000e+00 0.00000000e+00 0.00000000e+00 0.00000000e+00 0.00000000e+00 0.00000000e+00 0.00000000e+00 0.00000000e+00 0.00000000e+00 0.00000000e+00 0.00000000e+00 0.00000000e+00 0.00000000e+00 0.00000000e+00 0.00000000e+00 0.00000000e+00 0.00000000e+00 0.00000000e+00 0.00000000e+00 0.00000000e+00 0.00000000e+00 0.00000000e+00 0.00000000e+00 0.00000000e+00 0.00000000e+00 0.00000000e+00 0.00000000e+00 0.00000000e+00 0.00000000e+00 0.00000000e+00 0.00000000e+00 0.00000000e+00 0.00000000e+00 0.00000000e+00 0.00000000e+00 0.00000000e+00 0.00000000e+00 0.00000000e+00 0.00000000e+00 0.00000000e+00 0.00000000e+00 0.00000000e+00 0.00000000e+00 0.00000000e+00 0.00000000e+00 0.00000000e+00 0.00000000e+00 0.00000000e+00 0.00000000e+00 0.00000000e+00 0.00000000e+00 0.00000000e+00 0.00000000e+00 0.00000000e+00 0.00000000e+00 0.00000000e+00 0.00000000e+00 0.00000000e+00 0.00000000e+00 0.00000000e+00 0.00000000e+00 0.00000000e+00 0.00000000e+00 0.00000000e+00 0.00000000e+00 0.00000000e+00 0.00000000e+00 0.00000000e+00 0.00000000e+00 0.00000000e+00 0.00000000e+00 0.00000000e+00 0.00000000e+00 0.00000000e+00 0.00000000e+00 0.00000000e+00 0.00000000e+00 0.00000000e+00 0.00000000e+00 0.00000000e+00 0.00000000e+00 0.00000000e+00 0.00000000e+00 0.00000000e+00 0.00000000e+00 0.00000000e+00 0.00000000e+00 0.00000000e+00 0.00000000e+00 0.00000000e+00 0.00000000e+00 0.00000000e+00 0.00000000e+00 0.00000000e+00 0.00000000e+00 0.00000000e+00 0.00000000e+00 0.00000000e+00 0.00000000e+00 0.00000000e+00 0.00000000e+00 0.00000000e+00 0.00000000e+00 0.00000000e+00 0.00000000e+00 0.00000000e+00 0.00000000e+00 0.00000000e+00 0.00000000e+00 0.00000000e+00 0.00000000e+00 0.00000000e+00 0.00000000e+00 0.00000000e+00 0.00000000e+00 0.00000000e+00 0.00000000e+00 0.00000000e+00 0.00000000e+00 0.00000000e+00 0.00000000e+00 0.00000000e+00 0.00000000e+00 0.00000000e+00 0.00000000e+00 0.00000000e+00 0.00000000e+00 0.00000000e+00 0.00000000e+00 0.00000000e+00 0.00000000e+00 0.00000000e+00 0.00000000e+00 0.00000000e+00 0.00000000e+00 0.00000000e+00 0.00000000e+00 0.00000000e+00 0.00000000e+00 0.00000000e+00 0.00000000e+00 0.00000000e+00 0.00000000e+00 0.00000000e+00 0.00000000e+00 0.00000000e+00 0.00000000e+00 0.00000000e+00 0.00000000e+00 0.00000000e+00 0.00000000e+00 0.00000000e+00 0.00000000e+00 0.00000000e+00 0.00000000e+00 0.00000000e+00 0.00000000e+00 0.00000000e+00 0.00000000e+00 0.00000000e+00 0.00000000e+00 0.00000000e+00 0.00000000e+00 0.00000000e+00 0.00000000e+00 0.00000000e+00 0.00000000e+00 0.00000000e+00 0.00000000e+00 0.00000000e+00 0.00000000e+00 0.00000000e+00 0.00000000e+00 0.00000000e+00 0.00000000e+00 0.00000000e+00 0.00000000e+00 0.00000000e+00 0.00000000e+00 0.00000000e+00 0.00000000e+00 0.00000000e+00 0.00000000e+00 0.00000000e+00 0.00000000e+00 0.00000000e+00 0.00000000e+00 0.00000000e+00 0.00000000e+00 0.00000000e+00 0.00000000e+00 0.00000000e+00 0.00000000e+00 0.00000000e+00 0.00000000e+00 0.00000000e+00 0.00000000e+00 0.00000000e+00 0.00000000e+00 0.00000000e+00 0.00000000e+00 0.00000000e+00 0.00000000e+00 0.00000000e+00 0.00000000e+00 0.00000000e+00 0.00000000e+00 0.00000000e+00 0.00000000e+00 0.00000000e+00 0.00000000e+00 0.00000000e+00 0.00000000e+00 0.00000000e+00 0.00000000e+00 0.00000000e+00 0.00000000e+00 0.00000000e+00 0.00000000e+00 0.00000000e+00 0.00000000e+00 0.00000000e+00 0.00000000e+00 0.00000000e+00 0.00000000e+00 0.00000000e+00 0.00000000e+00 0.00000000e+00 0.00000000e+00 0.00000000e+00 0.00000000e+00 0.00000000e+00 0.00000000e+00 0.00000000e+00 0.00000000e+00 0.00000000e+00 0.00000000e+00 0.00000000e+00 0.00000000e+00 0.00000000e+00 0.00000000e+00 0.00000000e+00 0.00000000e+00 0.00000000e+00 0.00000000e+00 0.00000000e+00 0.00000000e+00 0.00000000e+00 0.00000000e+00 0.00000000e+00 0.00000000e+00 0.00000000e+00 0.00000000e+00 0.00000000e+00 0.00000000e+00 0.00000000e+00 0.00000000e+00 0.00000000e+00 0.00000000e+00 0.00000000e+00 0.00000000e+00 0.00000000e+00 0.00000000e+00 0.00000000e+00 0.00000000e+00 0.00000000e+00 0.00000000e+00 0.00000000e+00 0.00000000e+00 0.00000000e+00 0.00000000e+00 0.00000000e+00 0.00000000e+00 0.00000000e+00 0.00000000e+00 0.00000000e+00 0.00000000e+00 0.00000000e+00 0.00000000e+00 0.00000000e+00 0.00000000e+00 0.00000000e+00 0.00000000e+00 0.00000000e+00 0.00000000e+00 0.00000000e+00 0.00000000e+00 0.00000000e+00 0.00000000e+00 0.00000000e+00 0.00000000e+00 0.00000000e+00 0.00000000e+00 0.00000000e+00 0.00000000e+00 0.00000000e+00 0.00000000e+00 0.00000000e+00 0.00000000e+00 0.00000000e+00 0.00000000e+00 0.00000000e+00 0.00000000e+00 0.00000000e+00 0.00000000e+00 0.00000000e+00 0.00000000e+00 0.00000000e+00 0.00000000e+00 0.00000000e+00 0.00000000e+00 0.00000000e+00 0.00000000e+00 0.00000000e+00 0.00000000e+00 0.00000000e+00 0.00000000e+00 0.00000000e+00 0.00000000e+00 0.00000000e+00 0.00000000e+00 0.00000000e+00 0.00000000e+00 0.00000000e+00 0.00000000e+00 0.00000000e+00 0.00000000e+00 0.00000000e+00 0.00000000e+00 0.00000000e+00 0.00000000e+00 0.00000000e+00 0.00000000e+00 0.00000000e+00 0.00000000e+00 0.00000000e+00 0.00000000e+00 0.00000000e+00 0.00000000e+00 0.00000000e+00 0.00000000e+00 0.00000000e+00 0.00000000e+00 0.00000000e+00 0.00000000e+00 0.00000000e+00 0.00000000e+00 0.00000000e+00 0.00000000e+00 0.00000000e+00 0.00000000e+00 0.00000000e+00 0.00000000e+00 0.00000000e+00 0.00000000e+00 0.00000000e+00 0.00000000e+00 0.00000000e+00 0.00000000e+00 0.00000000e+00 0.00000000e+00 0.00000000e+00 0.00000000e+00 0.00000000e+00 0.00000000e+00 0.00000000e+00 0.00000000e+00 0.00000000e+00 0.00000000e+00 0.00000000e+00 0.00000000e+00 0.00000000e+00 0.00000000e+00 0.00000000e+00 0.00000000e+00 0.00000000e+00 0.00000000e+00 0.00000000e+00 0.00000000e+00 0.00000000e+00 0.00000000e+00 0.00000000e+00 0.00000000e+00 0.00000000e+00 0.00000000e+00 0.00000000e+00 0.00000000e+00 0.00000000e+00 0.00000000e+00 0.00000000e+00 0.00000000e+00 0.00000000e+00 0.00000000e+00 0.00000000e+00 0.00000000e+00 0.00000000e+00 0.00000000e+00 0.00000000e+00 0.00000000e+00 0.00000000e+00 0.00000000e+00 0.00000000e+00 0.00000000e+00 0.00000000e+00 0.00000000e+00 0.00000000e+00 0.00000000e+00 0.00000000e+00 0.00000000e+00 0.00000000e+00 0.00000000e+00 0.00000000e+00 0.00000000e+00 0.00000000e+00 0.00000000e+00 0.00000000e+00 0.00000000e+00 0.00000000e+00 0.00000000e+00 0.00000000e+00 0.00000000e+00 0.00000000e+00 0.00000000e+00 0.00000000e+00 0.00000000e+00 0.00000000e+00 0.00000000e+00 0.00000000e+00 0.00000000e+00 0.00000000e+00 0.00000000e+00 0.00000000e+00 0.00000000e+00 0.00000000e+00 0.00000000e+00 0.00000000e+00 0.00000000e+00 0.00000000e+00 0.00000000e+00 0.00000000e+00 0.00000000e+00 0.00000000e+00 0.00000000e+00 0.00000000e+00 0.00000000e+00 0.00000000e+00 0.00000000e+00 0.00000000e+00 0.00000000e+00 0.00000000e+00 0.00000000e+00 0.00000000e+00 0.00000000e+00 0.00000000e+00 0.00000000e+00 0.00000000e+00 0.00000000e+00 0.00000000e+00 0.00000000e+00 0.00000000e+00 0.00000000e+00 0.00000000e+00 0.00000000e+00 0.00000000e+00 0.00000000e+00 0.00000000e+00 0.00000000e+00 0.00000000e+00 0.00000000e+00 0.00000000e+00 0.00000000e+00 0.00000000e+00 0.00000000e+00 0.00000000e+00 0.00000000e+00 0.00000000e+00 0.00000000e+00 0.00000000e+00 0.00000000e+00 0.00000000e+00 0.00000000e+00 0.00000000e+00 0.00000000e+00 0.00000000e+00 0.00000000e+00 0.00000000e+00 0.00000000e+00 0.00000000e+00 0.00000000e+00 0.00000000e+00 0.00000000e+00 0.00000000e+00 0.00000000e+00 0.00000000e+00 0.00000000e+00 0.00000000e+00 0.00000000e+00 0.00000000e+00 0.00000000e+00 0.00000000e+00 0.00000000e+00 0.00000000e+00 0.00000000e+00 0.00000000e+00 0.00000000e+00 0.00000000e+00 0.00000000e+00 0.00000000e+00 0.00000000e+00 0.00000000e+00 0.00000000e+00 0.00000000e+00 0.00000000e+00 0.00000000e+00 0.00000000e+00 0.00000000e+00 0.00000000e+00 0.00000000e+00 0.00000000e+00 0.00000000e+00 0.00000000e+00 0.00000000e+00 0.00000000e+00 0.00000000e+00 0.00000000e+00 0.00000000e+00 0.00000000e+00 0.00000000e+00 0.00000000e+00 0.00000000e+00 0.00000000e+00 0.00000000e+00 0.00000000e+00 0.00000000e+00 0.00000000e+00 0.00000000e+00 0.00000000e+00 0.00000000e+00 0.00000000e+00 0.00000000e+00 0.00000000e+00 0.00000000e+00 0.00000000e+00 0.00000000e+00 0.00000000e+00 0.00000000e+00 0.00000000e+00 0.00000000e+00 0.00000000e+00 0.00000000e+00 0.00000000e+00 0.00000000e+00 0.00000000e+00 0.00000000e+00 0.00000000e+00 0.00000000e+00 0.00000000e+00 0.00000000e+00 0.00000000e+00 0.00000000e+00 0.00000000e+00 0.00000000e+00 0.00000000e+00 0.00000000e+00 0.00000000e+00 0.00000000e+00 0.00000000e+00 0.00000000e+00 0.00000000e+00 0.00000000e+00 0.00000000e+00 0.00000000e+00 0.00000000e+00 0.00000000e+00 0.00000000e+00 0.00000000e+00 0.00000000e+00 0.00000000e+00 0.00000000e+00 0.00000000e+00 0.00000000e+00 0.00000000e+00 0.00000000e+00 0.00000000e+00 0.00000000e+00 0.00000000e+00 0.00000000e+00 0.00000000e+00 0.00000000e+00 0.00000000e+00 0.00000000e+00 0.00000000e+00 0.00000000e+00 0.00000000e+00 0.00000000e+00 0.00000000e+00 0.00000000e+00 0.00000000e+00 0.00000000e+00 0.00000000e+00 0.00000000e+00 0.00000000e+00 0.00000000e+00 0.00000000e+00 0.00000000e+00 0.00000000e+00 0.00000000e+00 0.00000000e+00 0.00000000e+00 0.00000000e+00 0.00000000e+00 0.00000000e+00 0.00000000e+00 0.00000000e+00 0.00000000e+00 0.00000000e+00 0.00000000e+00 0.00000000e+00 0.00000000e+00 0.00000000e+00 0.00000000e+00 2.93874888e-01 0.00000000e+00 0.00000000e+00 0.00000000e+00 0.00000000e+00 0.00000000e+00 0.00000000e+00 0.00000000e+00 0.00000000e+00 0.00000000e+00 0.00000000e+00 2.93874888e-01 0.00000000e+00 0.00000000e+00 0.00000000e+00 0.00000000e+00 0.00000000e+00 0.00000000e+00 0.00000000e+00 2.93874888e-01 0.00000000e+00 0.00000000e+00 0.00000000e+00 0.00000000e+00 0.00000000e+00 0.00000000e+00 0.00000000e+00 0.00000000e+00 0.00000000e+00 0.00000000e+00 0.00000000e+00 0.00000000e+00 0.00000000e+00 0.00000000e+00 0.00000000e+00 0.00000000e+00 0.00000000e+00 0.00000000e+00 0.00000000e+00 0.00000000e+00 0.00000000e+00 0.00000000e+00 0.00000000e+00 2.93874888e-01 0.00000000e+00 0.00000000e+00 0.00000000e+00 0.00000000e+00 0.00000000e+00 0.00000000e+00 0.00000000e+00 0.00000000e+00 0.00000000e+00 0.00000000e+00 0.00000000e+00 0.00000000e+00 0.00000000e+00 0.00000000e+00 2.93874888e-01 0.00000000e+00 0.00000000e+00 0.00000000e+00 0.00000000e+00 2.93874888e-01 0.00000000e+00 0.00000000e+00 0.00000000e+00 0.00000000e+00 0.00000000e+00 0.00000000e+00 0.00000000e+00 0.00000000e+00 0.00000000e+00 0.00000000e+00 0.00000000e+00 0.00000000e+00 0.00000000e+00 0.00000000e+00 0.00000000e+00 0.00000000e+00 0.00000000e+00 0.00000000e+00 0.00000000e+00 0.00000000e+00 2.93874888e-01 0.00000000e+00 0.00000000e+00 0.00000000e+00 0.00000000e+00 0.00000000e+00 0.00000000e+00 0.00000000e+00 2.93874888e-01 0.00000000e+00 0.00000000e+00 2.93874888e-01 0.00000000e+00 0.00000000e+00 0.00000000e+00 0.00000000e+00 0.00000000e+00 0.00000000e+00 0.00000000e+00 0.00000000e+00 0.00000000e+00 0.00000000e+00 0.00000000e+00 0.00000000e+00 0.00000000e+00 0.00000000e+00 0.00000000e+00 2.93874888e-01 0.00000000e+00 2.93874888e-01 0.00000000e+00 0.00000000e+00 0.00000000e+00 0.00000000e+00 0.00000000e+00 2.93874888e-01 0.00000000e+00 2.93874888e-01 0.00000000e+00 0.00000000e+00 0.00000000e+00 0.00000000e+00 0.00000000e+00 0.00000000e+00 0.00000000e+00 0.00000000e+00 0.00000000e+00 0.00000000e+00 0.00000000e+00 0.00000000e+00 0.00000000e+00 0.00000000e+00 0.00000000e+00 0.00000000e+00 0.00000000e+00 0.00000000e+00 0.00000000e+00 2.93874888e-01 0.00000000e+00 0.00000000e+00 0.00000000e+00 0.00000000e+00 0.00000000e+00 0.00000000e+00 0.00000000e+00 0.00000000e+00 0.00000000e+00 0.00000000e+00 0.00000000e+00 0.00000000e+00 0.00000000e+00 0.00000000e+00 0.00000000e+00 0.00000000e+00 0.00000000e+00 0.00000000e+00 0.00000000e+00 0.00000000e+00 0.00000000e+00 2.93874888e-01 0.00000000e+00 0.00000000e+00 0.00000000e+00 0.00000000e+00 0.00000000e+00 0.00000000e+00 0.00000000e+00 2.93874888e-01 0.00000000e+00 0.00000000e+00 0.00000000e+00 0.00000000e+00 0.00000000e+00 0.00000000e+00 0.00000000e+00 0.00000000e+00 0.00000000e+00 0.00000000e+00 0.00000000e+00 0.00000000e+00 0.00000000e+00 0.00000000e+00 0.00000000e+00 0.00000000e+00 0.00000000e+00 0.00000000e+00 0.00000000e+00 0.00000000e+00 2.93874888e-01 0.00000000e+00 0.00000000e+00 0.00000000e+00 2.93874888e-01 0.00000000e+00 0.00000000e+00 2.93874888e-01 0.00000000e+00 0.00000000e+00 0.00000000e+00 0.00000000e+00 0.00000000e+00 0.00000000e+00 0.00000000e+00 0.00000000e+00 0.00000000e+00 0.00000000e+00 0.00000000e+00 0.00000000e+00 0.00000000e+00 2.93874888e-01 0.00000000e+00 0.00000000e+00 0.00000000e+00 0.00000000e+00 0.00000000e+00 0.00000000e+00 0.00000000e+00 0.00000000e+00 0.00000000e+00 0.00000000e+00 0.00000000e+00 0.00000000e+00 0.00000000e+00 0.00000000e+00 0.00000000e+00 0.00000000e+00 0.00000000e+00 0.00000000e+00 0.00000000e+00 0.00000000e+00 2.93874888e-01 0.00000000e+00 2.93874888e-01 0.00000000e+00 0.00000000e+00 0.00000000e+00 0.00000000e+00 0.00000000e+00 0.00000000e+00 0.00000000e+00 0.00000000e+00 0.00000000e+00 0.00000000e+00 2.93874888e-01 0.00000000e+00 2.93874888e-01 0.00000000e+00 0.00000000e+00 0.00000000e+00 0.00000000e+00 0.00000000e+00 0.00000000e+00 2.93874888e-01 0.00000000e+00 0.00000000e+00 0.00000000e+00 0.00000000e+00 0.00000000e+00 0.00000000e+00 0.00000000e+00 0.00000000e+00 0.00000000e+00 0.00000000e+00 0.00000000e+00 0.00000000e+00 0.00000000e+00 0.00000000e+00 0.00000000e+00 0.00000000e+00 0.00000000e+00 0.00000000e+00 0.00000000e+00 0.00000000e+00 0.00000000e+00 0.00000000e+00 2.93874888e-01 0.00000000e+00 2.93874888e-01 2.93874888e-01 0.00000000e+00 0.00000000e+00 0.00000000e+00 0.00000000e+00 0.00000000e+00 2.93874888e-01 0.00000000e+00 0.00000000e+00 2.93874888e-01 0.00000000e+00 0.00000000e+00 0.00000000e+00 0.00000000e+00 0.00000000e+00 0.00000000e+00 0.00000000e+00 0.00000000e+00 0.00000000e+00 2.93874888e-01 0.00000000e+00 2.93874888e-01 0.00000000e+00 0.00000000e+00 0.00000000e+00 2.93874888e-01 0.00000000e+00 2.93874888e-01 0.00000000e+00 0.00000000e+00 0.00000000e+00 2.93874888e-01 0.00000000e+00 0.00000000e+00 0.00000000e+00 0.00000000e+00 0.00000000e+00 2.93874888e-01 0.00000000e+00 0.00000000e+00 0.00000000e+00 0.00000000e+00 0.00000000e+00 0.00000000e+00 0.00000000e+00 0.00000000e+00 0.00000000e+00 0.00000000e+00 0.00000000e+00 0.00000000e+00 2.93874888e-01 2.93874888e-01 2.93874888e-01 0.00000000e+00 0.00000000e+00 0.00000000e+00 0.00000000e+00 0.00000000e+00 0.00000000e+00 0.00000000e+00 0.00000000e+00 0.00000000e+00 0.00000000e+00 0.00000000e+00 0.00000000e+00 0.00000000e+00 0.00000000e+00 0.00000000e+00 0.00000000e+00 0.00000000e+00 0.00000000e+00 0.00000000e+00 0.00000000e+00 0.00000000e+00 2.93874888e-01 2.93874888e-01 0.00000000e+00 0.00000000e+00 0.00000000e+00 0.00000000e+00 2.93874888e-01 2.93874888e-01 0.00000000e+00 0.00000000e+00 0.00000000e+00 0.00000000e+00 0.00000000e+00 2.93874888e-01 0.00000000e+00 0.00000000e+00 0.00000000e+00 0.00000000e+00 0.00000000e+00 0.00000000e+00 0.00000000e+00 0.00000000e+00 0.00000000e+00 0.00000000e+00 0.00000000e+00 0.00000000e+00 0.00000000e+00 0.00000000e+00 2.93874888e-01 0.00000000e+00 0.00000000e+00 0.00000000e+00 0.00000000e+00 2.93874888e-01 0.00000000e+00 2.93874888e-01 0.00000000e+00 0.00000000e+00 2.93874888e-01 2.93874888e-01 0.00000000e+00 0.00000000e+00 5.87749776e-01 0.00000000e+00 0.00000000e+00 0.00000000e+00 0.00000000e+00 0.00000000e+00 0.00000000e+00 0.00000000e+00 0.00000000e+00 0.00000000e+00 0.00000000e+00 2.93874888e-01 0.00000000e+00 2.93874888e-01 0.00000000e+00 0.00000000e+00 0.00000000e+00 0.00000000e+00 0.00000000e+00 0.00000000e+00 0.00000000e+00 0.00000000e+00 0.00000000e+00 2.93874888e-01 0.00000000e+00 0.00000000e+00 0.00000000e+00 2.93874888e-01 0.00000000e+00 2.93874888e-01 0.00000000e+00 0.00000000e+00 0.00000000e+00 0.00000000e+00 2.93874888e-01 2.93874888e-01 0.00000000e+00 5.87749776e-01 0.00000000e+00 0.00000000e+00 0.00000000e+00 0.00000000e+00 2.93874888e-01 2.93874888e-01 0.00000000e+00 2.93874888e-01 5.87749776e-01 2.93874888e-01 0.00000000e+00 0.00000000e+00 2.93874888e-01 2.93874888e-01 0.00000000e+00 0.00000000e+00 0.00000000e+00 5.87749776e-01 0.00000000e+00 0.00000000e+00 0.00000000e+00 0.00000000e+00 0.00000000e+00 0.00000000e+00 0.00000000e+00 0.00000000e+00 0.00000000e+00 0.00000000e+00 0.00000000e+00 0.00000000e+00 2.93874888e-01 0.00000000e+00 2.93874888e-01 0.00000000e+00 0.00000000e+00 0.00000000e+00 0.00000000e+00 0.00000000e+00 2.93874888e-01 2.93874888e-01 2.93874888e-01 0.00000000e+00 0.00000000e+00 0.00000000e+00 0.00000000e+00 0.00000000e+00 2.93874888e-01 0.00000000e+00 0.00000000e+00 0.00000000e+00 0.00000000e+00 2.93874888e-01 5.87749776e-01 0.00000000e+00 0.00000000e+00 2.93874888e-01 0.00000000e+00 2.93874888e-01 0.00000000e+00 0.00000000e+00 2.93874888e-01 2.93874888e-01 0.00000000e+00 0.00000000e+00 0.00000000e+00 0.00000000e+00 0.00000000e+00 0.00000000e+00 5.87749776e-01 0.00000000e+00 0.00000000e+00 0.00000000e+00 0.00000000e+00 0.00000000e+00 2.93874888e-01 0.00000000e+00 0.00000000e+00 0.00000000e+00 0.00000000e+00 0.00000000e+00 2.93874888e-01 5.87749776e-01 0.00000000e+00 0.00000000e+00 0.00000000e+00 0.00000000e+00 0.00000000e+00 2.93874888e-01 2.93874888e-01 0.00000000e+00 0.00000000e+00 0.00000000e+00 8.81624663e-01 0.00000000e+00 0.00000000e+00 0.00000000e+00 0.00000000e+00 2.93874888e-01 2.93874888e-01 0.00000000e+00 0.00000000e+00 0.00000000e+00 0.00000000e+00 0.00000000e+00 2.93874888e-01 0.00000000e+00 0.00000000e+00 0.00000000e+00 2.93874888e-01 2.93874888e-01 0.00000000e+00 0.00000000e+00 0.00000000e+00 2.93874888e-01 0.00000000e+00 2.93874888e-01 0.00000000e+00 0.00000000e+00 2.93874888e-01 2.93874888e-01 2.93874888e-01 2.93874888e-01 2.93874888e-01 0.00000000e+00 0.00000000e+00 0.00000000e+00 0.00000000e+00 2.93874888e-01 2.93874888e-01 2.93874888e-01 0.00000000e+00 0.00000000e+00 2.93874888e-01 0.00000000e+00 0.00000000e+00 0.00000000e+00 0.00000000e+00 0.00000000e+00 2.93874888e-01 0.00000000e+00 0.00000000e+00 2.93874888e-01 0.00000000e+00 0.00000000e+00 0.00000000e+00 0.00000000e+00 0.00000000e+00 0.00000000e+00 5.87749776e-01 5.87749776e-01 0.00000000e+00 0.00000000e+00 0.00000000e+00 0.00000000e+00 2.93874888e-01 0.00000000e+00 2.93874888e-01 5.87749776e-01 0.00000000e+00 2.93874888e-01 2.93874888e-01 2.93874888e-01 0.00000000e+00 2.93874888e-01 0.00000000e+00 8.81624663e-01 2.93874888e-01 0.00000000e+00 5.87749776e-01 0.00000000e+00 0.00000000e+00 0.00000000e+00 2.93874888e-01 0.00000000e+00 2.93874888e-01 0.00000000e+00 0.00000000e+00 2.93874888e-01 0.00000000e+00 0.00000000e+00 0.00000000e+00 0.00000000e+00 2.93874888e-01 2.93874888e-01 0.00000000e+00 8.81624663e-01 0.00000000e+00 2.93874888e-01 0.00000000e+00 0.00000000e+00 2.93874888e-01 0.00000000e+00 2.93874888e-01 0.00000000e+00 0.00000000e+00 0.00000000e+00 0.00000000e+00 2.93874888e-01 2.93874888e-01 2.93874888e-01 2.93874888e-01 2.93874888e-01 5.87749776e-01 8.81624663e-01 5.87749776e-01 2.93874888e-01 2.93874888e-01 2.93874888e-01 5.87749776e-01 0.00000000e+00 0.00000000e+00 2.93874888e-01 2.93874888e-01 0.00000000e+00 2.93874888e-01 0.00000000e+00 0.00000000e+00 5.87749776e-01 2.93874888e-01 2.93874888e-01 2.93874888e-01 1.46937444e+00 8.81624663e-01 2.93874888e-01 0.00000000e+00 8.81624663e-01 2.93874888e-01 5.87749776e-01 0.00000000e+00 0.00000000e+00 2.93874888e-01 8.81624663e-01 0.00000000e+00 2.93874888e-01 5.87749776e-01 2.93874888e-01 0.00000000e+00 0.00000000e+00 5.87749776e-01 0.00000000e+00 5.87749776e-01 1.17549955e+00 0.00000000e+00 0.00000000e+00 2.93874888e-01 2.93874888e-01 2.93874888e-01 5.87749776e-01 5.87749776e-01 0.00000000e+00 0.00000000e+00 0.00000000e+00 8.81624663e-01 2.93874888e-01 1.17549955e+00 2.93874888e-01 2.93874888e-01 5.87749776e-01 5.87749776e-01 8.81624663e-01 0.00000000e+00 2.93874888e-01 2.93874888e-01 2.93874888e-01 0.00000000e+00 2.93874888e-01 1.17549955e+00 5.87749776e-01 5.87749776e-01 5.87749776e-01 2.93874888e-01 2.93874888e-01 2.93874888e-01 2.93874888e-01 2.93874888e-01 2.93874888e-01 2.93874888e-01 2.93874888e-01 2.93874888e-01 1.17549955e+00 2.93874888e-01 2.93874888e-01 5.87749776e-01 8.81624663e-01 2.93874888e-01 0.00000000e+00 1.46937444e+00 5.87749776e-01 5.87749776e-01 5.87749776e-01 5.87749776e-01 8.81624663e-01 2.93874888e-01 2.93874888e-01 5.87749776e-01 8.81624663e-01 2.93874888e-01 2.93874888e-01 0.00000000e+00 2.93874888e-01 5.87749776e-01 5.87749776e-01 5.87749776e-01 5.87749776e-01 5.87749776e-01 2.93874888e-01 5.87749776e-01 8.81624663e-01 2.93874888e-01 2.93874888e-01 5.87749776e-01 5.87749776e-01 1.17549955e+00 2.93874888e-01 8.81624663e-01 5.87749776e-01 8.81624663e-01 2.93874888e-01 5.87749776e-01 1.17549955e+00 2.93874888e-01 5.87749776e-01 8.81624663e-01 8.81624663e-01 0.00000000e+00 2.93874888e-01 2.93874888e-01 2.93874888e-01 0.00000000e+00 8.81624663e-01 5.87749776e-01 5.87749776e-01 2.93874888e-01 0.00000000e+00 2.93874888e-01 0.00000000e+00 5.87749776e-01 8.81624663e-01 2.93874888e-01 1.17549955e+00 0.00000000e+00 2.93874888e-01 2.93874888e-01 2.93874888e-01 8.81624663e-01 8.81624663e-01 1.46937444e+00 2.93874888e-01 5.87749776e-01 5.87749776e-01 2.93874888e-01 8.81624663e-01 0.00000000e+00 8.81624663e-01 2.93874888e-01 8.81624663e-01 5.87749776e-01 1.76324933e+00 5.87749776e-01 8.81624663e-01 1.17549955e+00 1.17549955e+00 2.93874888e-01 5.87749776e-01 1.17549955e+00 2.05712421e+00 2.93874888e-01 5.87749776e-01 2.93874888e-01 5.87749776e-01 5.87749776e-01 5.87749776e-01 1.76324933e+00 1.17549955e+00 8.81624663e-01 8.81624663e-01 5.87749776e-01 8.81624663e-01 5.87749776e-01 0.00000000e+00 1.76324933e+00 1.17549955e+00 1.76324933e+00 0.00000000e+00 8.81624663e-01 1.17549955e+00 1.17549955e+00 1.76324933e+00 8.81624663e-01 1.46937444e+00 5.87749776e-01 5.87749776e-01 8.81624663e-01 2.93874888e-01 2.93874888e-01 1.17549955e+00 2.93874888e-01 1.46937444e+00 1.46937444e+00 8.81624663e-01 1.76324933e+00 2.35099910e+00 5.87749776e-01 5.87749776e-01 5.87749776e-01 1.17549955e+00 1.17549955e+00 0.00000000e+00 8.81624663e-01 8.81624663e-01 2.93874888e-01 2.93874888e-01 0.00000000e+00 1.17549955e+00 5.87749776e-01 1.17549955e+00 8.81624663e-01 1.46937444e+00 2.93874888e-01 5.87749776e-01 5.87749776e-01 8.81624663e-01 8.81624663e-01 5.87749776e-01 1.17549955e+00 8.81624663e-01 5.87749776e-01 0.00000000e+00 5.87749776e-01 5.87749776e-01 5.87749776e-01 2.93874888e-01 8.81624663e-01 1.46937444e+00 2.93874888e-01 5.87749776e-01 2.93874888e-01 1.46937444e+00 1.46937444e+00 1.76324933e+00 5.87749776e-01 5.87749776e-01 8.81624663e-01 2.93874888e-01 5.87749776e-01 2.93874888e-01 1.46937444e+00 8.81624663e-01 5.87749776e-01 1.46937444e+00 5.87749776e-01 2.93874888e-01 2.93874888e-01 1.46937444e+00 5.87749776e-01 2.05712421e+00 1.17549955e+00 5.87749776e-01 5.87749776e-01 2.93874888e-01 5.87749776e-01 8.81624663e-01 5.87749776e-01 8.81624663e-01 1.46937444e+00 0.00000000e+00 0.00000000e+00 5.87749776e-01 1.17549955e+00 8.81624663e-01 2.93874888e-01 8.81624663e-01 1.46937444e+00 5.87749776e-01 2.93874888e-01 8.81624663e-01 8.81624663e-01 5.87749776e-01 5.87749776e-01 8.81624663e-01 2.93874888e-01 8.81624663e-01 2.05712421e+00 8.81624663e-01 1.76324933e+00 1.17549955e+00 8.81624663e-01 2.93874888e-01 8.81624663e-01 5.87749776e-01 5.87749776e-01 8.81624663e-01 1.46937444e+00 2.93874888e-01 8.81624663e-01 1.46937444e+00 2.05712421e+00 8.81624663e-01 0.00000000e+00 5.87749776e-01 1.76324933e+00 5.87749776e-01 8.81624663e-01 8.81624663e-01 8.81624663e-01 2.93874888e-01 2.93874888e-01 1.46937444e+00 5.87749776e-01 2.93874888e-01 5.87749776e-01 8.81624663e-01 1.46937444e+00 5.87749776e-01 5.87749776e-01 1.17549955e+00 1.17549955e+00 8.81624663e-01 5.87749776e-01 2.93874888e-01 1.17549955e+00 5.87749776e-01 8.81624663e-01 5.87749776e-01 5.87749776e-01 8.81624663e-01 2.93874888e-01 8.81624663e-01 5.87749776e-01 5.87749776e-01 1.17549955e+00 5.87749776e-01 5.87749776e-01 5.87749776e-01 8.81624663e-01 8.81624663e-01 1.17549955e+00 1.17549955e+00 2.93874888e-01 5.87749776e-01 8.81624663e-01 5.87749776e-01 8.81624663e-01 2.93874888e-01 8.81624663e-01 1.17549955e+00 8.81624663e-01 8.81624663e-01 1.17549955e+00 1.17549955e+00 8.81624663e-01 8.81624663e-01 2.93874888e-01 0.00000000e+00 1.46937444e+00 1.17549955e+00 2.93874888e-01 1.17549955e+00 8.81624663e-01 8.81624663e-01 1.17549955e+00 8.81624663e-01 1.17549955e+00 5.87749776e-01 2.93874888e-01 0.00000000e+00 8.81624663e-01 0.00000000e+00 0.00000000e+00 1.46937444e+00 2.93874888e-01 8.81624663e-01 1.46937444e+00 1.17549955e+00 5.87749776e-01 8.81624663e-01 8.81624663e-01 8.81624663e-01 1.17549955e+00 1.17549955e+00 5.87749776e-01 5.87749776e-01 5.87749776e-01 8.81624663e-01 0.00000000e+00 2.93874888e-01 2.05712421e+00 1.17549955e+00 2.93874888e-01 8.81624663e-01 1.46937444e+00 2.93874888e-01 0.00000000e+00 0.00000000e+00 5.87749776e-01 8.81624663e-01 2.93874888e-01 5.87749776e-01 8.81624663e-01 2.93874888e-01 2.93874888e-01 2.93874888e-01 5.87749776e-01 5.87749776e-01 5.87749776e-01 8.81624663e-01 8.81624663e-01 8.81624663e-01 1.46937444e+00 8.81624663e-01 8.81624663e-01 1.76324933e+00 2.93874888e-01 8.81624663e-01 8.81624663e-01 1.17549955e+00 0.00000000e+00 8.81624663e-01 5.87749776e-01 2.93874888e-01 2.93874888e-01 2.93874888e-01 8.81624663e-01 1.46937444e+00 1.17549955e+00 5.87749776e-01 5.87749776e-01 1.17549955e+00 2.93874888e-01 1.17549955e+00 2.93874888e-01 2.93874888e-01 2.93874888e-01 2.93874888e-01 8.81624663e-01 1.17549955e+00 5.87749776e-01 1.46937444e+00 5.87749776e-01 8.81624663e-01 2.93874888e-01 0.00000000e+00 0.00000000e+00 2.93874888e-01 2.05712421e+00 1.76324933e+00 5.87749776e-01 2.93874888e-01 8.81624663e-01 1.76324933e+00 5.87749776e-01 1.46937444e+00 5.87749776e-01 1.17549955e+00 2.93874888e-01 5.87749776e-01 2.05712421e+00 0.00000000e+00 0.00000000e+00 2.93874888e-01 0.00000000e+00 0.00000000e+00 5.87749776e-01 5.87749776e-01 5.87749776e-01 8.81624663e-01 1.76324933e+00 2.93874888e-01 1.17549955e+00 2.93874888e-01 2.93874888e-01 1.17549955e+00 0.00000000e+00 5.87749776e-01 2.93874888e-01 1.17549955e+00 5.87749776e-01 2.93874888e-01 2.93874888e-01 5.87749776e-01 2.93874888e-01 0.00000000e+00 2.93874888e-01 5.87749776e-01 5.87749776e-01 1.46937444e+00 2.93874888e-01 8.81624663e-01 1.17549955e+00 8.81624663e-01 2.93874888e-01 2.93874888e-01 8.81624663e-01 5.87749776e-01 2.93874888e-01 0.00000000e+00 8.81624663e-01 1.46937444e+00 5.87749776e-01 2.93874888e-01 1.17549955e+00 2.93874888e-01 8.81624663e-01 2.93874888e-01 8.81624663e-01 8.81624663e-01 1.46937444e+00 2.05712421e+00 1.76324933e+00 8.81624663e-01 5.87749776e-01 0.00000000e+00 8.81624663e-01 5.87749776e-01 2.93874888e-01 1.17549955e+00 0.00000000e+00 2.93874888e-01 0.00000000e+00 1.17549955e+00 1.46937444e+00 2.93874888e-01 1.17549955e+00 5.87749776e-01 0.00000000e+00 1.46937444e+00 5.87749776e-01 2.93874888e-01 5.87749776e-01 0.00000000e+00 8.81624663e-01 8.81624663e-01 5.87749776e-01 1.76324933e+00 1.17549955e+00 1.17549955e+00 2.93874888e-01 0.00000000e+00 0.00000000e+00 5.87749776e-01 5.87749776e-01 2.93874888e-01 0.00000000e+00 8.81624663e-01 2.93874888e-01 8.81624663e-01 2.93874888e-01 0.00000000e+00 0.00000000e+00 5.87749776e-01 0.00000000e+00 2.93874888e-01 5.87749776e-01 8.81624663e-01 2.93874888e-01 2.93874888e-01 5.87749776e-01 2.93874888e-01 5.87749776e-01 2.93874888e-01 1.17549955e+00 0.00000000e+00 2.93874888e-01 0.00000000e+00 0.00000000e+00 5.87749776e-01 5.87749776e-01 0.00000000e+00 2.93874888e-01 1.46937444e+00 8.81624663e-01 2.93874888e-01 1.17549955e+00 8.81624663e-01 5.87749776e-01 5.87749776e-01 5.87749776e-01 8.81624663e-01 2.93874888e-01 5.87749776e-01 8.81624663e-01 0.00000000e+00 5.87749776e-01 5.87749776e-01 2.93874888e-01 5.87749776e-01 2.93874888e-01 2.93874888e-01 1.46937444e+00 2.93874888e-01 2.93874888e-01 5.87749776e-01 2.93874888e-01 0.00000000e+00 0.00000000e+00 2.93874888e-01 0.00000000e+00 2.93874888e-01 1.76324933e+00 2.93874888e-01 2.93874888e-01 5.87749776e-01 5.87749776e-01 2.93874888e-01 1.17549955e+00 8.81624663e-01 2.93874888e-01 2.93874888e-01 8.81624663e-01 8.81624663e-01 8.81624663e-01 1.46937444e+00 8.81624663e-01 8.81624663e-01 1.17549955e+00 5.87749776e-01 8.81624663e-01 1.46937444e+00 2.93874888e-01 5.87749776e-01 5.87749776e-01 8.81624663e-01 8.81624663e-01 5.87749776e-01 1.17549955e+00 8.81624663e-01 5.87749776e-01 5.87749776e-01 1.17549955e+00 5.87749776e-01 2.93874888e-01 2.93874888e-01 1.17549955e+00 8.81624663e-01 5.87749776e-01 8.81624663e-01 1.17549955e+00 5.87749776e-01 2.93874888e-01 1.17549955e+00 5.87749776e-01 2.93874888e-01 0.00000000e+00 1.76324933e+00 8.81624663e-01 5.87749776e-01 2.93874888e-01 5.87749776e-01 0.00000000e+00 2.93874888e-01 5.87749776e-01 8.81624663e-01 8.81624663e-01 5.87749776e-01 5.87749776e-01 8.81624663e-01 2.93874888e-01 8.81624663e-01 5.87749776e-01 2.93874888e-01 5.87749776e-01 8.81624663e-01 8.81624663e-01 8.81624663e-01 5.87749776e-01 0.00000000e+00 8.81624663e-01 5.87749776e-01 5.87749776e-01 0.00000000e+00 2.93874888e-01 2.93874888e-01 2.93874888e-01 5.87749776e-01 2.93874888e-01 2.93874888e-01 8.81624663e-01 1.46937444e+00 5.87749776e-01 2.93874888e-01 8.81624663e-01 5.87749776e-01 5.87749776e-01 5.87749776e-01 8.81624663e-01 1.46937444e+00 1.46937444e+00 5.87749776e-01 1.76324933e+00 0.00000000e+00 5.87749776e-01 2.93874888e-01 2.93874888e-01 2.93874888e-01 2.05712421e+00 0.00000000e+00 5.87749776e-01 0.00000000e+00 0.00000000e+00 5.87749776e-01 0.00000000e+00 8.81624663e-01 2.93874888e-01 0.00000000e+00 8.81624663e-01 1.46937444e+00 1.17549955e+00 1.17549955e+00 8.81624663e-01 2.93874888e-01 0.00000000e+00 2.93874888e-01 8.81624663e-01 1.17549955e+00 5.87749776e-01 5.87749776e-01 5.87749776e-01 8.81624663e-01 2.93874888e-01 1.17549955e+00 8.81624663e-01 5.87749776e-01 8.81624663e-01 1.17549955e+00 5.87749776e-01 8.81624663e-01 1.17549955e+00 1.17549955e+00 5.87749776e-01 1.17549955e+00 0.00000000e+00 1.17549955e+00 8.81624663e-01 5.87749776e-01 5.87749776e-01 1.17549955e+00 0.00000000e+00 2.93874888e-01 2.93874888e-01 1.46937444e+00 0.00000000e+00 8.81624663e-01 8.81624663e-01 1.17549955e+00 8.81624663e-01 8.81624663e-01 2.93874888e-01 8.81624663e-01 2.93874888e-01 8.81624663e-01 1.76324933e+00 1.17549955e+00 8.81624663e-01 2.93874888e-01 1.17549955e+00 1.17549955e+00 1.17549955e+00 0.00000000e+00 8.81624663e-01 1.17549955e+00 8.81624663e-01 1.17549955e+00 2.93874888e-01 5.87749776e-01 1.17549955e+00 5.87749776e-01 5.87749776e-01 8.81624663e-01 0.00000000e+00 2.93874888e-01 2.93874888e-01 2.93874888e-01 1.17549955e+00 8.81624663e-01 2.93874888e-01 8.81624663e-01 2.93874888e-01 8.81624663e-01 2.93874888e-01 1.46937444e+00 8.81624663e-01 8.81624663e-01 2.35099910e+00 8.81624663e-01 8.81624663e-01 1.17549955e+00 5.87749776e-01 5.87749776e-01 2.93874888e-01 1.46937444e+00 8.81624663e-01 8.81624663e-01 8.81624663e-01 5.87749776e-01 8.81624663e-01 2.35099910e+00 1.46937444e+00 5.87749776e-01 5.87749776e-01 1.76324933e+00 0.00000000e+00 5.87749776e-01 8.81624663e-01 8.81624663e-01 2.93874888e-01 2.93874888e-01 2.93874888e-01 5.87749776e-01 8.81624663e-01 5.87749776e-01 2.93874888e-01 8.81624663e-01 2.05712421e+00 8.81624663e-01 8.81624663e-01 8.81624663e-01 1.17549955e+00 1.17549955e+00 1.17549955e+00 5.87749776e-01 0.00000000e+00 8.81624663e-01 2.35099910e+00 8.81624663e-01 2.93874888e-01 2.93874888e-01 1.46937444e+00 2.93874888e-01 8.81624663e-01 1.17549955e+00 1.17549955e+00 8.81624663e-01 5.87749776e-01 8.81624663e-01 2.93874888e-01 0.00000000e+00 0.00000000e+00 2.93874888e-01 5.87749776e-01 2.93874888e-01 2.93874888e-01 1.17549955e+00 8.81624663e-01 0.00000000e+00 2.93874888e-01 0.00000000e+00 1.17549955e+00 8.81624663e-01 8.81624663e-01 1.17549955e+00 1.17549955e+00 8.81624663e-01 5.87749776e-01 1.17549955e+00 8.81624663e-01 2.05712421e+00 8.81624663e-01 2.05712421e+00 1.17549955e+00 8.81624663e-01 5.87749776e-01 5.87749776e-01 8.81624663e-01 2.93874888e-01 1.46937444e+00 1.46937444e+00 8.81624663e-01 8.81624663e-01 1.17549955e+00 1.17549955e+00 8.81624663e-01 0.00000000e+00 1.17549955e+00 8.81624663e-01 8.81624663e-01 2.93874888e-01 8.81624663e-01 1.17549955e+00 1.46937444e+00 1.17549955e+00 1.17549955e+00 5.87749776e-01 8.81624663e-01 5.87749776e-01 2.93874888e-01 8.81624663e-01 1.17549955e+00 1.17549955e+00 5.87749776e-01 1.17549955e+00 2.64487399e+00 5.87749776e-01 1.46937444e+00 1.76324933e+00 1.17549955e+00 8.81624663e-01 8.81624663e-01 1.17549955e+00 5.87749776e-01 1.17549955e+00 0.00000000e+00 1.17549955e+00 2.93874888e-01 5.87749776e-01 0.00000000e+00 1.76324933e+00 2.93874888e-01 5.87749776e-01 1.17549955e+00 1.17549955e+00 5.87749776e-01 8.81624663e-01 8.81624663e-01 1.17549955e+00 1.46937444e+00 1.46937444e+00 8.81624663e-01 1.76324933e+00 5.87749776e-01 8.81624663e-01 0.00000000e+00 8.81624663e-01 5.87749776e-01 2.93874888e-01 8.81624663e-01 8.81624663e-01 8.81624663e-01 8.81624663e-01 1.17549955e+00 1.46937444e+00 1.17549955e+00 8.81624663e-01 1.76324933e+00 1.76324933e+00 2.93874888e-01 1.17549955e+00 5.87749776e-01 1.17549955e+00 5.87749776e-01 1.17549955e+00 8.81624663e-01 5.87749776e-01 1.17549955e+00 2.05712421e+00 2.93874888e-01 1.46937444e+00 2.93874888e-01 0.00000000e+00 1.17549955e+00 2.35099910e+00 8.81624663e-01 1.17549955e+00 2.93874888e-01 1.46937444e+00 1.46937444e+00 1.17549955e+00 8.81624663e-01 8.81624663e-01 5.87749776e-01 8.81624663e-01 8.81624663e-01 1.17549955e+00 0.00000000e+00 5.87749776e-01 5.87749776e-01 1.46937444e+00 1.76324933e+00 1.17549955e+00 5.87749776e-01 1.76324933e+00 1.17549955e+00 8.81624663e-01 8.81624663e-01 1.17549955e+00 8.81624663e-01 8.81624663e-01 1.17549955e+00 1.46937444e+00 1.46937444e+00 2.93874888e-01 8.81624663e-01 1.17549955e+00 8.81624663e-01 5.87749776e-01 1.17549955e+00 8.81624663e-01 8.81624663e-01 1.46937444e+00 1.76324933e+00 5.87749776e-01 1.46937444e+00 1.17549955e+00 1.17549955e+00 8.81624663e-01 1.17549955e+00 1.17549955e+00 1.17549955e+00 1.76324933e+00 2.05712421e+00 5.87749776e-01 2.35099910e+00 1.17549955e+00 1.17549955e+00 2.93874888e-01 8.81624663e-01 1.17549955e+00 1.46937444e+00 8.81624663e-01 5.87749776e-01 1.17549955e+00 2.93874888e-01 1.76324933e+00 8.81624663e-01 1.17549955e+00 1.17549955e+00 8.81624663e-01 1.46937444e+00 8.81624663e-01 5.87749776e-01 8.81624663e-01 1.46937444e+00 8.81624663e-01 1.46937444e+00 2.93874888e-01 1.17549955e+00 1.17549955e+00 5.87749776e-01 8.81624663e-01 1.76324933e+00 2.05712421e+00 1.17549955e+00 2.93874888e-01 1.76324933e+00 1.46937444e+00 5.87749776e-01 1.46937444e+00 1.17549955e+00 2.35099910e+00 2.93874888e+00 1.46937444e+00 1.46937444e+00 8.81624663e-01 2.05712421e+00 8.81624663e-01 1.46937444e+00 1.17549955e+00 1.17549955e+00 1.17549955e+00 1.17549955e+00 5.87749776e-01 0.00000000e+00 5.87749776e-01 2.05712421e+00 1.76324933e+00 2.93874888e+00 2.64487399e+00 8.81624663e-01 1.17549955e+00 2.05712421e+00 2.64487399e+00 1.17549955e+00 1.17549955e+00 1.17549955e+00 2.93874888e+00 1.17549955e+00 1.17549955e+00 1.17549955e+00 1.76324933e+00 2.05712421e+00 2.35099910e+00 2.93874888e+00 2.05712421e+00 8.81624663e-01 1.76324933e+00 1.46937444e+00 1.76324933e+00 8.81624663e-01 5.87749776e-01 1.17549955e+00 5.87749776e-01 1.17549955e+00 5.87749776e-01 5.87749776e-01 1.17549955e+00 2.05712421e+00 8.81624663e-01 8.81624663e-01 8.81624663e-01 1.17549955e+00 2.93874888e-01 8.81624663e-01 5.87749776e-01 1.17549955e+00 1.76324933e+00 1.17549955e+00 8.81624663e-01 1.46937444e+00 1.46937444e+00 1.46937444e+00 2.05712421e+00 1.46937444e+00 1.17549955e+00 1.17549955e+00 8.81624663e-01 2.93874888e-01 8.81624663e-01 1.76324933e+00 1.17549955e+00 1.76324933e+00 1.17549955e+00 2.05712421e+00 5.87749776e-01 1.46937444e+00 1.46937444e+00 8.81624663e-01 1.17549955e+00 1.76324933e+00 2.05712421e+00 1.76324933e+00 1.76324933e+00 1.46937444e+00 1.17549955e+00 2.05712421e+00 1.46937444e+00 1.17549955e+00 2.35099910e+00 1.46937444e+00 2.05712421e+00 2.35099910e+00 2.05712421e+00 5.87749776e-01 2.05712421e+00 1.17549955e+00 1.76324933e+00 5.87749776e-01 1.17549955e+00 1.17549955e+00 1.76324933e+00 5.87749776e-01 1.46937444e+00 1.76324933e+00 2.05712421e+00 1.76324933e+00 2.05712421e+00 2.35099910e+00 2.93874888e-01 3.52649865e+00 8.81624663e-01 1.17549955e+00 1.17549955e+00 1.76324933e+00 1.46937444e+00 1.17549955e+00 1.46937444e+00 2.93874888e+00 2.05712421e+00 1.46937444e+00 2.35099910e+00 2.05712421e+00 5.87749776e-01 2.64487399e+00 1.17549955e+00 1.76324933e+00 2.05712421e+00 1.76324933e+00 8.81624663e-01 5.87749776e-01 5.87749776e-01 1.76324933e+00 2.05712421e+00 2.64487399e+00 1.46937444e+00 2.05712421e+00 8.81624663e-01 1.46937444e+00 1.17549955e+00 1.76324933e+00 1.46937444e+00 2.93874888e-01 2.93874888e+00 1.17549955e+00 5.87749776e-01 1.17549955e+00 1.76324933e+00 4.11424843e+00 1.17549955e+00 2.64487399e+00 1.46937444e+00 1.76324933e+00 2.93874888e-01 1.76324933e+00 2.35099910e+00 2.93874888e+00 2.05712421e+00 2.05712421e+00 2.05712421e+00 1.76324933e+00 2.35099910e+00 1.46937444e+00 1.46937444e+00 1.46937444e+00 2.93874888e+00 2.93874888e-01 2.35099910e+00 2.05712421e+00 2.05712421e+00 8.81624663e-01 2.05712421e+00 2.93874888e+00 1.76324933e+00 1.46937444e+00 1.17549955e+00 1.76324933e+00 1.76324933e+00 1.46937444e+00 2.93874888e+00 8.81624663e-01 2.35099910e+00 1.17549955e+00 2.35099910e+00 2.35099910e+00 5.87749776e-01 1.46937444e+00 1.46937444e+00 2.05712421e+00 2.05712421e+00 1.76324933e+00 1.46937444e+00 2.35099910e+00 2.64487399e+00 1.46937444e+00 2.05712421e+00 2.93874888e-01 5.87749776e-01 2.05712421e+00 1.17549955e+00 1.17549955e+00 1.76324933e+00 2.35099910e+00 8.81624663e-01 2.93874888e+00 1.17549955e+00 2.05712421e+00 2.64487399e+00 2.35099910e+00 2.35099910e+00 2.35099910e+00 2.35099910e+00 2.35099910e+00 8.81624663e-01 2.93874888e-01 1.76324933e+00 2.35099910e+00 5.87749776e-01 2.05712421e+00 1.46937444e+00 3.23262377e+00 1.17549955e+00 1.46937444e+00 1.46937444e+00 2.35099910e+00 1.76324933e+00 2.64487399e+00 1.17549955e+00 1.17549955e+00 3.82037354e+00 2.05712421e+00 3.23262377e+00 2.93874888e+00 2.64487399e+00 2.64487399e+00 1.76324933e+00 2.93874888e+00 3.82037354e+00 2.64487399e+00 3.23262377e+00 2.05712421e+00 1.46937444e+00 2.35099910e+00 1.46937444e+00 3.23262377e+00 3.23262377e+00 2.64487399e+00 8.81624663e-01 3.23262377e+00 1.46937444e+00 1.46937444e+00 2.64487399e+00 2.05712421e+00 3.23262377e+00 1.76324933e+00 1.76324933e+00 2.93874888e+00 1.46937444e+00 2.93874888e+00 2.35099910e+00 1.76324933e+00 2.05712421e+00 1.17549955e+00 2.05712421e+00 1.46937444e+00 1.46937444e+00 5.87749776e-01 1.17549955e+00 1.46937444e+00 8.81624663e-01 2.93874888e+00 2.64487399e+00 5.87749776e-01 2.05712421e+00 1.76324933e+00 2.35099910e+00 1.46937444e+00 3.23262377e+00 2.35099910e+00 2.05712421e+00 3.23262377e+00 2.93874888e-01 2.93874888e+00 8.81624663e-01 1.76324933e+00 2.64487399e+00 1.76324933e+00 2.05712421e+00 1.17549955e+00 1.76324933e+00 1.17549955e+00 3.52649865e+00 2.64487399e+00 1.76324933e+00 8.81624663e-01 2.05712421e+00 2.35099910e+00 1.17549955e+00 2.35099910e+00 5.87749776e-01 8.81624663e-01 2.05712421e+00 1.76324933e+00 3.23262377e+00 2.35099910e+00 3.23262377e+00 3.52649865e+00 1.76324933e+00 1.17549955e+00 2.64487399e+00 2.93874888e+00 1.17549955e+00 2.05712421e+00 8.81624663e-01 1.46937444e+00 2.05712421e+00 1.76324933e+00 2.64487399e+00 2.05712421e+00 1.17549955e+00 8.81624663e-01 2.35099910e+00 1.46937444e+00 1.76324933e+00 1.76324933e+00 4.11424843e+00 3.82037354e+00 1.46937444e+00 2.35099910e+00 1.76324933e+00 2.05712421e+00 8.81624663e-01 2.35099910e+00 2.35099910e+00 3.23262377e+00 1.46937444e+00 1.46937444e+00 2.64487399e+00 1.17549955e+00 3.23262377e+00 1.76324933e+00 2.05712421e+00 2.05712421e+00 2.05712421e+00 2.05712421e+00 1.76324933e+00 3.23262377e+00 1.17549955e+00 1.76324933e+00 2.05712421e+00 3.52649865e+00 5.87749776e-01 1.76324933e+00 2.05712421e+00 1.76324933e+00 2.05712421e+00 1.76324933e+00 2.64487399e+00 2.35099910e+00 1.17549955e+00 2.35099910e+00 2.64487399e+00 1.76324933e+00 2.05712421e+00 3.23262377e+00 2.35099910e+00 2.35099910e+00 2.35099910e+00 2.35099910e+00 1.76324933e+00 1.46937444e+00 2.64487399e+00 3.52649865e+00 1.76324933e+00 1.76324933e+00 3.52649865e+00 3.23262377e+00 3.52649865e+00 3.23262377e+00 4.11424843e+00 3.23262377e+00 1.17549955e+00 2.05712421e+00 1.76324933e+00 2.64487399e+00 8.81624663e-01 1.46937444e+00 2.64487399e+00 2.05712421e+00 2.64487399e+00 2.35099910e+00 3.52649865e+00 1.17549955e+00 2.64487399e+00 2.64487399e+00 2.35099910e+00 1.17549955e+00 3.23262377e+00 1.17549955e+00 1.76324933e+00 3.52649865e+00 1.17549955e+00 2.05712421e+00 3.23262377e+00 3.82037354e+00 1.76324933e+00 3.52649865e+00 2.93874888e+00 1.46937444e+00 1.76324933e+00 1.46937444e+00 2.64487399e+00 3.52649865e+00 3.23262377e+00 2.35099910e+00 2.93874888e+00 2.35099910e+00 2.64487399e+00 2.93874888e+00 2.05712421e+00 1.76324933e+00 2.93874888e+00 1.17549955e+00 2.35099910e+00 3.82037354e+00 2.64487399e+00 2.05712421e+00 1.76324933e+00 3.23262377e+00 1.46937444e+00 3.23262377e+00 2.05712421e+00 3.82037354e+00 3.23262377e+00 2.93874888e+00 1.17549955e+00 2.93874888e+00 2.93874888e+00 2.64487399e+00 2.35099910e+00 2.64487399e+00 1.76324933e+00 1.17549955e+00 2.05712421e+00 8.81624663e-01 3.52649865e+00 1.76324933e+00 2.64487399e+00 2.05712421e+00 1.46937444e+00 1.46937444e+00 1.46937444e+00 2.93874888e+00 2.64487399e+00 2.64487399e+00 2.05712421e+00 2.64487399e+00 1.76324933e+00 8.81624663e-01 2.05712421e+00 2.05712421e+00 3.23262377e+00 2.93874888e+00 2.64487399e+00 4.40812332e+00 1.46937444e+00 2.93874888e+00 2.64487399e+00 1.76324933e+00 2.35099910e+00 3.52649865e+00 2.93874888e+00 2.93874888e+00 1.76324933e+00 3.23262377e+00 2.05712421e+00 3.23262377e+00 2.64487399e+00 2.93874888e+00 1.76324933e+00 3.23262377e+00 2.05712421e+00 2.35099910e+00 3.23262377e+00 1.46937444e+00 1.76324933e+00 2.05712421e+00 1.76324933e+00 3.52649865e+00 2.93874888e+00 2.93874888e+00 1.76324933e+00 1.76324933e+00 3.52649865e+00 2.05712421e+00 1.17549955e+00 2.64487399e+00 3.23262377e+00 3.82037354e+00 3.82037354e+00 2.93874888e+00 1.76324933e+00 5.87749776e-01 2.93874888e+00 3.23262377e+00 1.46937444e+00 3.82037354e+00 2.93874888e+00 2.35099910e+00 4.11424843e+00 2.64487399e+00 2.64487399e+00 3.23262377e+00 1.76324933e+00 3.82037354e+00 1.76324933e+00 3.23262377e+00 1.46937444e+00 2.93874888e+00 3.82037354e+00 3.23262377e+00 3.23262377e+00 1.46937444e+00 2.93874888e+00 6.46524753e+00 8.81624663e-01 2.93874888e+00 2.05712421e+00 2.64487399e+00 2.05712421e+00 2.05712421e+00 2.35099910e+00 2.35099910e+00 2.64487399e+00 4.40812332e+00 2.93874888e+00 2.05712421e+00 2.35099910e+00 3.52649865e+00 2.64487399e+00 1.76324933e+00 2.35099910e+00 3.23262377e+00 2.35099910e+00 3.52649865e+00 2.35099910e+00 5.28974798e+00 6.17137264e+00 4.99587309e+00 2.93874888e+00 3.23262377e+00 4.40812332e+00 3.23262377e+00 2.35099910e+00 2.35099910e+00 2.35099910e+00 2.93874888e+00 2.64487399e+00 3.52649865e+00 3.52649865e+00 1.76324933e+00 3.52649865e+00 3.23262377e+00 2.93874888e+00 3.52649865e+00 8.81624663e-01 2.64487399e+00 2.93874888e+00 5.28974798e+00 2.64487399e+00 2.05712421e+00 2.35099910e+00 3.82037354e+00 4.70199820e+00 2.93874888e+00 2.05712421e+00 2.93874888e+00 1.76324933e+00 3.23262377e+00 2.35099910e+00 4.11424843e+00 1.17549955e+00 4.99587309e+00 2.93874888e+00 2.64487399e+00 3.23262377e+00 2.35099910e+00 3.52649865e+00 2.35099910e+00 1.46937444e+00 3.52649865e+00 1.46937444e+00 2.64487399e+00 4.40812332e+00 2.05712421e+00 6.17137264e+00 1.17549955e+00 3.23262377e+00 2.64487399e+00 3.23262377e+00 3.52649865e+00 1.76324933e+00 1.76324933e+00 2.64487399e+00 2.05712421e+00 2.64487399e+00 2.93874888e+00 8.81624663e-01 4.11424843e+00 3.82037354e+00 3.52649865e+00 3.52649865e+00 3.82037354e+00 3.23262377e+00 3.52649865e+00 2.64487399e+00 2.35099910e+00 2.93874888e+00 2.05712421e+00 4.99587309e+00 3.52649865e+00 4.40812332e+00 2.64487399e+00 2.35099910e+00 3.23262377e+00 3.23262377e+00 1.76324933e+00 3.82037354e+00 2.05712421e+00 2.35099910e+00 2.93874888e+00 3.52649865e+00 4.70199820e+00 1.76324933e+00 4.99587309e+00 2.35099910e+00 2.64487399e+00 3.82037354e+00 2.93874888e+00 3.23262377e+00 2.64487399e+00 2.93874888e+00 2.64487399e+00 2.64487399e+00 2.64487399e+00 2.93874888e+00 5.87749776e+00 2.05712421e+00 2.93874888e+00 2.64487399e+00 2.35099910e+00 2.05712421e+00 1.76324933e+00 3.52649865e+00 4.40812332e+00 2.93874888e+00 3.52649865e+00 1.46937444e+00 3.82037354e+00 3.52649865e+00 1.76324933e+00 3.23262377e+00 4.70199820e+00 3.82037354e+00 3.23262377e+00 2.35099910e+00 2.64487399e+00 1.46937444e+00 3.52649865e+00 4.70199820e+00 2.64487399e+00 4.99587309e+00 2.35099910e+00 2.64487399e+00 4.99587309e+00 3.52649865e+00 2.93874888e+00 2.64487399e+00 2.64487399e+00 2.93874888e+00 4.11424843e+00 2.05712421e+00 1.76324933e+00 5.58362287e+00 2.64487399e+00 2.93874888e+00 3.23262377e+00 4.99587309e+00 3.52649865e+00 1.46937444e+00 2.64487399e+00 3.52649865e+00 2.64487399e+00 5.87749776e+00 4.99587309e+00 4.11424843e+00 1.76324933e+00 1.46937444e+00 2.35099910e+00 5.87749776e-01 1.76324933e+00 2.93874888e+00 2.05712421e+00 3.82037354e+00 3.23262377e+00 3.52649865e+00 3.23262377e+00 4.11424843e+00 8.81624663e-01 3.82037354e+00 4.11424843e+00 2.93874888e+00 3.52649865e+00 2.05712421e+00 2.35099910e+00 2.64487399e+00 2.35099910e+00 3.23262377e+00 3.82037354e+00 1.76324933e+00 3.52649865e+00 3.23262377e+00 2.64487399e+00 3.23262377e+00 4.70199820e+00 3.23262377e+00 3.82037354e+00 2.64487399e+00 4.99587309e+00 4.99587309e+00 3.23262377e+00 3.23262377e+00 2.35099910e+00 1.76324933e+00 2.93874888e+00 2.05712421e+00 4.40812332e+00 4.11424843e+00 8.81624663e-01 2.93874888e+00 2.64487399e+00 4.11424843e+00 3.82037354e+00 4.70199820e+00 4.70199820e+00 2.93874888e+00 2.35099910e+00 2.05712421e+00 2.64487399e+00 1.76324933e+00 2.93874888e+00 4.99587309e+00 4.99587309e+00 3.23262377e+00 3.23262377e+00 3.23262377e+00 3.82037354e+00 2.93874888e+00 4.11424843e+00 2.35099910e+00 2.05712421e+00 2.05712421e+00 3.23262377e+00 2.64487399e+00 3.82037354e+00 1.17549955e+00 1.76324933e+00 2.93874888e+00 4.40812332e+00 1.76324933e+00 2.64487399e+00 4.40812332e+00 2.93874888e+00 1.76324933e+00 3.23262377e+00 3.82037354e+00 8.81624663e-01 3.52649865e+00 4.40812332e+00 1.76324933e+00 3.82037354e+00 1.17549955e+00 2.05712421e+00 3.23262377e+00 3.52649865e+00 2.93874888e+00 2.64487399e+00 1.76324933e+00 2.05712421e+00 4.99587309e+00 2.35099910e+00 3.82037354e+00 2.05712421e+00 1.46937444e+00 3.52649865e+00 3.52649865e+00 4.70199820e+00 8.81624663e-01 1.46937444e+00 2.93874888e+00 1.76324933e+00 3.52649865e+00 3.52649865e+00 4.11424843e+00 2.05712421e+00 3.82037354e+00 3.23262377e+00 3.52649865e+00 3.52649865e+00 4.11424843e+00 2.35099910e+00 3.52649865e+00 3.23262377e+00 2.64487399e+00 3.82037354e+00 2.93874888e+00 5.28974798e+00 3.82037354e+00 1.17549955e+00 2.93874888e+00 1.76324933e+00 4.11424843e+00 5.87749776e+00 2.93874888e+00 1.76324933e+00 4.11424843e+00 4.40812332e+00 4.99587309e+00 2.93874888e+00 4.70199820e+00 8.81624663e-01 3.23262377e+00 3.23262377e+00 2.35099910e+00 2.93874888e+00 4.11424843e+00 5.28974798e+00 2.93874888e+00 4.40812332e+00 2.35099910e+00 4.70199820e+00 2.35099910e+00 4.11424843e+00 3.82037354e+00 3.23262377e+00 4.40812332e+00 2.64487399e+00 4.11424843e+00 4.70199820e+00 1.76324933e+00 2.35099910e+00 2.05712421e+00 2.05712421e+00 4.70199820e+00 5.87749776e+00 4.11424843e+00 4.40812332e+00 4.40812332e+00 3.82037354e+00 3.23262377e+00 4.11424843e+00 6.17137264e+00 3.52649865e+00 7.93462197e+00 3.23262377e+00 4.70199820e+00 1.76324933e+00 4.11424843e+00 3.52649865e+00 3.52649865e+00 6.17137264e+00 3.23262377e+00 2.35099910e+00 1.76324933e+00 4.40812332e+00 4.11424843e+00 7.93462197e+00 7.34687219e+00 3.82037354e+00 3.82037354e+00 3.52649865e+00 3.82037354e+00 2.64487399e+00 2.93874888e+00 1.46937444e+00 3.82037354e+00 3.52649865e+00 3.82037354e+00 3.23262377e+00 4.99587309e+00 5.87749776e+00 2.64487399e+00 4.11424843e+00 4.40812332e+00 3.23262377e+00 4.99587309e+00 2.93874888e+00 2.35099910e+00 4.40812332e+00 3.23262377e+00 8.81624663e-01 5.28974798e+00 1.76324933e+00 2.93874888e+00 5.58362287e+00 1.76324933e+00 8.81624663e-01 5.87749776e-01 2.64487399e+00 3.82037354e+00 3.52649865e+00 3.23262377e+00 3.52649865e+00 2.05712421e+00 4.40812332e+00 1.76324933e+00 2.05712421e+00 4.70199820e+00 2.64487399e+00 1.46937444e+00 1.17549955e+00 2.64487399e+00 2.93874888e+00 3.23262377e+00 1.17549955e+00 2.64487399e+00 1.17549955e+00 3.23262377e+00 1.76324933e+00 5.87749776e-01 1.46937444e+00 2.64487399e+00 3.52649865e+00 1.76324933e+00 3.23262377e+00 1.17549955e+00 2.64487399e+00 2.64487399e+00 3.52649865e+00 2.93874888e+00 2.35099910e+00 4.70199820e+00 2.64487399e+00 3.82037354e+00 2.05712421e+00 1.17549955e+00 2.64487399e+00 3.82037354e+00 2.64487399e+00 4.11424843e+00 2.35099910e+00 3.23262377e+00 2.93874888e+00 1.17549955e+00 2.05712421e+00 2.35099910e+00 3.52649865e+00 2.64487399e+00 2.05712421e+00 4.70199820e+00 2.05712421e+00 2.05712421e+00 4.11424843e+00 1.46937444e+00 2.64487399e+00 2.93874888e+00 2.35099910e+00 8.81624663e-01 1.76324933e+00 4.11424843e+00 2.93874888e+00 3.23262377e+00 2.93874888e+00 3.23262377e+00 2.64487399e+00 2.05712421e+00 1.46937444e+00 2.05712421e+00 1.46937444e+00 2.64487399e+00 2.35099910e+00 8.81624663e-01 2.05712421e+00 2.05712421e+00 4.99587309e+00 2.05712421e+00 2.93874888e+00 2.93874888e-01 5.28974798e+00 1.46937444e+00 1.76324933e+00 5.87749776e-01 2.93874888e+00 1.46937444e+00 3.82037354e+00 2.35099910e+00 4.11424843e+00 2.93874888e+00 3.52649865e+00 2.93874888e+00 2.93874888e+00 2.64487399e+00 3.82037354e+00 2.05712421e+00 2.05712421e+00 1.17549955e+00 3.52649865e+00 4.40812332e+00 2.93874888e+00 1.76324933e+00 3.23262377e+00 5.87749776e-01 3.23262377e+00 2.35099910e+00 4.70199820e+00 1.17549955e+00 1.46937444e+00 2.64487399e+00 4.11424843e+00 2.05712421e+00 3.52649865e+00 1.17549955e+00 3.23262377e+00 3.52649865e+00 1.46937444e+00 2.05712421e+00 3.82037354e+00 2.35099910e+00 3.23262377e+00 5.87749776e-01 8.81624663e-01 1.76324933e+00 2.05712421e+00 2.05712421e+00 4.99587309e+00 8.81624663e-01 4.11424843e+00 1.46937444e+00 2.93874888e-01 2.64487399e+00 1.76324933e+00 3.23262377e+00 2.64487399e+00 1.76324933e+00 3.82037354e+00 2.93874888e-01 3.23262377e+00 1.17549955e+00 4.40812332e+00 1.46937444e+00 4.11424843e+00 5.87749776e-01 2.64487399e+00 1.17549955e+00 1.76324933e+00 2.05712421e+00 2.64487399e+00 1.46937444e+00 1.76324933e+00 2.93874888e-01 2.35099910e+00 2.93874888e-01 1.17549955e+00 4.11424843e+00 2.93874888e-01 1.76324933e+00 1.46937444e+00 5.87749776e-01 5.87749776e-01 2.93874888e+00 2.35099910e+00 1.17549955e+00 0.00000000e+00 0.00000000e+00 1.46937444e+00 1.17549955e+00 2.93874888e-01 5.87749776e-01 1.76324933e+00 0.00000000e+00 1.17549955e+00 1.76324933e+00 1.76324933e+00 2.93874888e-01 2.05712421e+00 2.05712421e+00 1.76324933e+00 5.87749776e-01 8.81624663e-01 2.64487399e+00 2.93874888e-01 1.17549955e+00 2.05712421e+00 5.87749776e-01 1.46937444e+00 8.81624663e-01 3.23262377e+00 1.76324933e+00 2.93874888e-01 2.05712421e+00 1.46937444e+00 1.76324933e+00 1.76324933e+00 1.46937444e+00 1.46937444e+00 0.00000000e+00 2.64487399e+00 8.81624663e-01 3.23262377e+00 2.64487399e+00 2.93874888e+00 2.05712421e+00 1.76324933e+00 2.93874888e+00 2.35099910e+00 3.52649865e+00 2.64487399e+00 1.17549955e+00 2.64487399e+00 8.81624663e-01 1.76324933e+00 1.17549955e+00 2.93874888e+00 8.81624663e-01 3.23262377e+00 2.64487399e+00 8.81624663e-01 1.46937444e+00 1.46937444e+00 8.81624663e-01 5.87749776e-01 8.81624663e-01 2.35099910e+00 8.81624663e-01 1.46937444e+00 5.87749776e-01 8.81624663e-01 5.87749776e-01 3.52649865e+00 1.17549955e+00 8.81624663e-01 1.17549955e+00 8.81624663e-01 2.93874888e-01 2.35099910e+00 8.81624663e-01 1.76324933e+00 2.93874888e-01 1.76324933e+00 8.81624663e-01 3.23262377e+00 8.81624663e-01 1.46937444e+00 8.81624663e-01 2.93874888e+00 8.81624663e-01 3.23262377e+00 2.93874888e-01 1.46937444e+00 2.93874888e+00 2.05712421e+00 2.05712421e+00 1.76324933e+00 0.00000000e+00 1.46937444e+00 1.17549955e+00 8.81624663e-01 0.00000000e+00 2.05712421e+00 0.00000000e+00 8.81624663e-01 2.93874888e-01 5.87749776e-01 0.00000000e+00 5.87749776e-01 5.87749776e-01 5.87749776e-01 2.93874888e-01 2.93874888e-01 1.17549955e+00 8.81624663e-01 5.87749776e-01 0.00000000e+00 0.00000000e+00 2.93874888e-01 0.00000000e+00 4.40812332e+00 0.00000000e+00 0.00000000e+00 2.93874888e-01 0.00000000e+00 0.00000000e+00 2.93874888e-01 5.87749776e-01 0.00000000e+00 0.00000000e+00 0.00000000e+00 0.00000000e+00 5.87749776e-01 5.87749776e-01 5.87749776e-01 8.81624663e-01 2.93874888e-01 2.93874888e-01 2.93874888e-01 0.00000000e+00 2.93874888e-01 2.93874888e-01 0.00000000e+00 0.00000000e+00 2.93874888e-01 0.00000000e+00 5.87749776e-01 0.00000000e+00 0.00000000e+00 0.00000000e+00 0.00000000e+00 2.93874888e-01 0.00000000e+00 2.93874888e-01 0.00000000e+00 0.00000000e+00 0.00000000e+00 0.00000000e+00 2.93874888e-01 0.00000000e+00 2.93874888e-01 0.00000000e+00 0.00000000e+00 0.00000000e+00 0.00000000e+00 0.00000000e+00 0.00000000e+00 0.00000000e+00 0.00000000e+00 0.00000000e+00 0.00000000e+00 0.00000000e+00 0.00000000e+00 0.00000000e+00 0.00000000e+00 0.00000000e+00 0.00000000e+00 0.00000000e+00 0.00000000e+00 0.00000000e+00 0.00000000e+00 0.00000000e+00 0.00000000e+00 0.00000000e+00 0.00000000e+00 0.00000000e+00 0.00000000e+00 0.00000000e+00 0.00000000e+00 0.00000000e+00 0.00000000e+00 0.00000000e+00 0.00000000e+00 0.00000000e+00 0.00000000e+00 0.00000000e+00 0.00000000e+00 0.00000000e+00 0.00000000e+00 0.00000000e+00 0.00000000e+00 0.00000000e+00 0.00000000e+00 0.00000000e+00 0.00000000e+00 0.00000000e+00 0.00000000e+00 0.00000000e+00 0.00000000e+00 0.00000000e+00 0.00000000e+00 0.00000000e+00 0.00000000e+00 0.00000000e+00 0.00000000e+00 2.93874888e-01 0.00000000e+00 0.00000000e+00 0.00000000e+00 0.00000000e+00 0.00000000e+00 0.00000000e+00 0.00000000e+00 0.00000000e+00 0.00000000e+00 0.00000000e+00 0.00000000e+00 0.00000000e+00 0.00000000e+00 0.00000000e+00 0.00000000e+00 0.00000000e+00 0.00000000e+00 0.00000000e+00 0.00000000e+00 0.00000000e+00 0.00000000e+00 0.00000000e+00 0.00000000e+00 0.00000000e+00 0.00000000e+00 0.00000000e+00 0.00000000e+00 0.00000000e+00 0.00000000e+00 0.00000000e+00 0.00000000e+00 0.00000000e+00 0.00000000e+00 0.00000000e+00 0.00000000e+00 0.00000000e+00 0.00000000e+00 0.00000000e+00 0.00000000e+00 
      </Histogram>
    </PDF>
    <PDF Name="BDT_PDFBkg" MinNSmooth="0" MaxNSmooth="0" InterpolMethod="2" KDE_type="1" KDE_iter="1" KDE_border="1" KDE_finefactor="1.0000000000000000e+00">
      <Histogram Name="BDT_tr_B_original" NBins="4789" XMin="-7.5702041387557983e-01" XMax="5.6036442518234253e-01" HasEquidistantBins="1">
        1.60086682e-02 0.00000000e+00 0.00000000e+00 0.00000000e+00 3.20173364e-02 1.60086682e-02 0.00000000e+00 0.00000000e+00 0.00000000e+00 0.00000000e+00 0.00000000e+00 0.00000000e+00 0.00000000e+00 3.20173364e-02 0.00000000e+00 1.60086682e-02 0.00000000e+00 0.00000000e+00 0.00000000e+00 0.00000000e+00 1.60086682e-02 0.00000000e+00 0.00000000e+00 0.00000000e+00 0.00000000e+00 0.00000000e+00 0.00000000e+00 0.00000000e+00 0.00000000e+00 0.00000000e+00 0.00000000e+00 0.00000000e+00 0.00000000e+00 0.00000000e+00 0.00000000e+00 0.00000000e+00 0.00000000e+00 0.00000000e+00 0.00000000e+00 0.00000000e+00 0.00000000e+00 0.00000000e+00 0.00000000e+00 0.00000000e+00 0.00000000e+00 0.00000000e+00 3.20173364e-02 0.00000000e+00 0.00000000e+00 0.00000000e+00 1.60086682e-02 0.00000000e+00 1.60086682e-02 0.00000000e+00 0.00000000e+00 0.00000000e+00 0.00000000e+00 0.00000000e+00 0.00000000e+00 1.60086682e-02 4.80260045e-02 0.00000000e+00 0.00000000e+00 0.00000000e+00 6.40346727e-02 0.00000000e+00 0.00000000e+00 0.00000000e+00 0.00000000e+00 0.00000000e+00 0.00000000e+00 0.00000000e+00 0.00000000e+00 3.20173364e-02 1.60086682e-02 0.00000000e+00 0.00000000e+00 0.00000000e+00 3.20173364e-02 1.60086682e-02 3.20173364e-02 0.00000000e+00 0.00000000e+00 1.60086682e-02 4.80260045e-02 0.00000000e+00 1.60086682e-02 0.00000000e+00 0.00000000e+00 0.00000000e+00 0.00000000e+00 0.00000000e+00 0.00000000e+00 6.40346727e-02 0.00000000e+00 3.20173364e-02 0.00000000e+00 1.60086682e-02 0.00000000e+00 1.60086682e-02 0.00000000e+00 0.00000000e+00 0.00000000e+00 1.60086682e-02 0.00000000e+00 0.00000000e+00 1.60086682e-02 0.00000000e+00 0.00000000e+00 1.60086682e-02 0.00000000e+00 0.00000000e+00 0.00000000e+00 0.00000000e+00 0.00000000e+00 0.00000000e+00 1.60086682e-02 1.60086682e-02 3.20173364e-02 4.80260045e-02 1.60086682e-02 1.60086682e-02 0.00000000e+00 0.00000000e+00 1.60086682e-02 0.00000000e+00 1.60086682e-02 0.00000000e+00 1.60086682e-02 1.60086682e-02 0.00000000e+00 0.00000000e+00 0.00000000e+00 8.00433409e-02 0.00000000e+00 0.00000000e+00 1.60086682e-02 1.60086682e-02 1.60086682e-02 3.20173364e-02 0.00000000e+00 6.40346727e-02 1.60086682e-02 1.60086682e-02 1.60086682e-02 1.60086682e-02 0.00000000e+00 8.00433409e-02 0.00000000e+00 0.00000000e+00 1.60086682e-02 1.60086682e-02 1.60086682e-02 1.60086682e-02 0.00000000e+00 9.60520091e-02 0.00000000e+00 4.80260045e-02 3.20173364e-02 1.60086682e-02 1.60086682e-02 4.80260045e-02 0.00000000e+00 0.00000000e+00 0.00000000e+00 3.20173364e-02 3.20173364e-02 1.60086682e-02 1.60086682e-02 4.80260045e-02 0.00000000e+00 0.00000000e+00 4.80260045e-02 1.60086682e-02 0.00000000e+00 0.00000000e+00 0.00000000e+00 4.80260045e-02 0.00000000e+00 4.80260045e-02 6.40346727e-02 3.20173364e-02 3.20173364e-02 4.80260045e-02 6.40346727e-02 4.80260045e-02 0.00000000e+00 0.00000000e+00 0.00000000e+00 0.00000000e+00 6.40346727e-02 1.60086682e-02 3.20173364e-02 1.60086682e-02 1.12060677e-01 4.80260045e-02 8.00433409e-02 3.20173364e-02 1.12060677e-01 3.20173364e-02 4.80260045e-02 9.60520091e-02 4.80260045e-02 3.20173364e-02 6.40346727e-02 9.60520091e-02 3.20173364e-02 3.20173364e-02 1.60086682e-02 3.20173364e-02 6.40346727e-02 1.60086682e-02 1.12060677e-01 1.60086682e-02 1.92104018e-01 4.80260045e-02 6.40346727e-02 6.40346727e-02 1.12060677e-01 6.40346727e-02 1.44078014e-01 4.80260045e-02 8.00433409e-02 0.00000000e+00 1.60086682e-02 1.60086682e-02 4.80260045e-02 8.00433409e-02 6.40346727e-02 1.60086682e-02 9.60520091e-02 6.40346727e-02 1.76095350e-01 4.80260045e-02 1.60086682e-01 1.60086682e-02 2.08112686e-01 9.60520091e-02 4.80260045e-02 6.40346727e-02 4.80260045e-02 0.00000000e+00 8.00433409e-02 4.80260045e-02 1.76095350e-01 8.00433409e-02 8.00433409e-02 6.40346727e-02 8.00433409e-02 1.60086682e-02 9.60520091e-02 3.20173364e-02 4.80260045e-02 0.00000000e+00 8.00433409e-02 1.76095350e-01 4.80260045e-02 8.00433409e-02 6.40346727e-02 1.12060677e-01 2.40130023e-01 1.76095350e-01 3.20173364e-02 1.28069345e-01 6.40346727e-02 1.44078014e-01 3.20173364e-02 1.12060677e-01 8.00433409e-02 1.60086682e-01 2.24121355e-01 1.60086682e-01 3.20173364e-02 8.00433409e-02 3.20173364e-02 1.28069345e-01 8.00433409e-02 1.28069345e-01 9.60520091e-02 3.04164695e-01 1.76095350e-01 1.92104018e-01 3.20173364e-02 8.00433409e-02 4.80260045e-02 8.00433409e-02 1.60086682e-01 1.44078014e-01 9.60520091e-02 1.12060677e-01 6.40346727e-02 3.20173364e-02 8.00433409e-02 1.76095350e-01 1.76095350e-01 1.92104018e-01 2.08112686e-01 2.40130023e-01 1.76095350e-01 8.00433409e-02 1.28069345e-01 1.28069345e-01 1.60086682e-01 1.76095350e-01 3.20173364e-02 4.80260045e-02 1.44078014e-01 2.08112686e-01 8.00433409e-02 1.60086682e-01 6.40346727e-02 1.12060677e-01 9.60520091e-02 9.60520091e-02 9.60520091e-02 6.40346727e-02 2.24121355e-01 1.28069345e-01 1.28069345e-01 9.60520091e-02 1.60086682e-01 6.40346727e-02 1.92104018e-01 1.44078014e-01 2.24121355e-01 2.08112686e-01 2.08112686e-01 2.40130023e-01 9.60520091e-02 3.20173364e-01 9.60520091e-02 1.12060677e-01 1.12060677e-01 3.04164695e-01 1.92104018e-01 2.24121355e-01 1.92104018e-01 2.24121355e-01 2.56138691e-01 1.28069345e-01 2.88156027e-01 1.60086682e-01 3.04164695e-01 1.76095350e-01 2.08112686e-01 2.40130023e-01 2.88156027e-01 2.24121355e-01 1.92104018e-01 8.00433409e-02 8.00433409e-02 1.60086682e-01 1.76095350e-01 3.20173364e-01 6.40346727e-02 3.04164695e-01 1.60086682e-01 2.40130023e-01 1.12060677e-01 1.92104018e-01 1.76095350e-01 1.76095350e-01 1.60086682e-01 9.60520091e-02 1.12060677e-01 1.92104018e-01 1.92104018e-01 1.92104018e-01 1.92104018e-01 1.44078014e-01 2.40130023e-01 2.08112686e-01 1.92104018e-01 2.24121355e-01 1.76095350e-01 2.24121355e-01 1.28069345e-01 1.92104018e-01 2.08112686e-01 1.60086682e-01 2.24121355e-01 1.76095350e-01 1.92104018e-01 6.40346727e-02 1.76095350e-01 2.40130023e-01 1.60086682e-01 2.72147359e-01 9.60520091e-02 2.72147359e-01 1.44078014e-01 2.40130023e-01 3.04164695e-01 9.60520091e-02 2.08112686e-01 9.60520091e-02 2.40130023e-01 8.00433409e-02 2.24121355e-01 1.28069345e-01 4.00216705e-01 8.00433409e-02 2.40130023e-01 1.92104018e-01 1.76095350e-01 2.56138691e-01 1.92104018e-01 3.04164695e-01 3.52190700e-01 2.08112686e-01 2.56138691e-01 2.24121355e-01 2.88156027e-01 2.56138691e-01 1.28069345e-01 3.52190700e-01 2.72147359e-01 2.24121355e-01 2.56138691e-01 2.24121355e-01 2.08112686e-01 3.04164695e-01 1.12060677e-01 2.88156027e-01 2.08112686e-01 1.76095350e-01 1.28069345e-01 2.08112686e-01 1.12060677e-01 3.52190700e-01 2.08112686e-01 3.04164695e-01 2.40130023e-01 2.56138691e-01 2.56138691e-01 1.92104018e-01 3.36182032e-01 8.00433409e-02 2.24121355e-01 1.44078014e-01 2.24121355e-01 1.92104018e-01 2.40130023e-01 2.40130023e-01 2.72147359e-01 3.36182032e-01 2.40130023e-01 2.24121355e-01 2.40130023e-01 1.76095350e-01 4.00216705e-01 1.76095350e-01 2.56138691e-01 2.24121355e-01 2.08112686e-01 3.84208036e-01 4.64251377e-01 2.56138691e-01 2.40130023e-01 2.08112686e-01 2.72147359e-01 2.08112686e-01 2.72147359e-01 2.56138691e-01 2.40130023e-01 2.56138691e-01 2.72147359e-01 3.20173364e-01 3.68199368e-01 2.88156027e-01 3.36182032e-01 2.88156027e-01 3.84208036e-01 4.96268714e-01 2.56138691e-01 3.36182032e-01 3.52190700e-01 3.52190700e-01 2.08112686e-01 3.20173364e-01 2.24121355e-01 3.20173364e-01 1.92104018e-01 1.92104018e-01 4.16225373e-01 3.20173364e-01 1.76095350e-01 4.16225373e-01 4.80260045e-01 3.68199368e-01 3.68199368e-01 2.56138691e-01 2.56138691e-01 3.36182032e-01 1.76095350e-01 4.64251377e-01 1.76095350e-01 1.76095350e-01 3.20173364e-01 2.40130023e-01 1.92104018e-01 3.04164695e-01 2.88156027e-01 3.84208036e-01 2.72147359e-01 3.84208036e-01 2.88156027e-01 1.76095350e-01 2.72147359e-01 1.28069345e-01 3.20173364e-01 3.52190700e-01 1.76095350e-01 4.00216705e-01 3.36182032e-01 2.40130023e-01 2.56138691e-01 4.48242709e-01 2.56138691e-01 3.84208036e-01 4.16225373e-01 3.36182032e-01 4.48242709e-01 3.52190700e-01 3.36182032e-01 4.32234041e-01 3.68199368e-01 3.52190700e-01 3.68199368e-01 6.88372732e-01 4.00216705e-01 3.04164695e-01 2.88156027e-01 4.16225373e-01 3.84208036e-01 5.12277382e-01 4.32234041e-01 3.36182032e-01 3.36182032e-01 4.96268714e-01 3.20173364e-01 6.08329391e-01 4.16225373e-01 3.52190700e-01 3.36182032e-01 3.52190700e-01 5.12277382e-01 7.84424741e-01 4.48242709e-01 3.20173364e-01 3.68199368e-01 3.04164695e-01 1.76095350e-01 7.52407405e-01 3.04164695e-01 4.32234041e-01 2.72147359e-01 4.80260045e-01 3.52190700e-01 7.04381400e-01 4.00216705e-01 6.24338059e-01 5.76312055e-01 4.48242709e-01 4.96268714e-01 5.44294718e-01 2.88156027e-01 5.76312055e-01 5.92320723e-01 8.32450745e-01 4.48242709e-01 5.44294718e-01 4.80260045e-01 4.48242709e-01 4.48242709e-01 3.68199368e-01 5.12277382e-01 5.28286050e-01 8.64468082e-01 6.24338059e-01 5.12277382e-01 4.48242709e-01 9.60520091e-01 5.44294718e-01 5.92320723e-01 4.32234041e-01 5.28286050e-01 4.32234041e-01 6.08329391e-01 5.76312055e-01 7.20390068e-01 6.72364064e-01 6.72364064e-01 9.44511423e-01 8.96485418e-01 5.44294718e-01 4.96268714e-01 3.68199368e-01 1.10459810e+00 8.00433409e-01 4.96268714e-01 4.80260045e-01 6.72364064e-01 7.84424741e-01 5.76312055e-01 4.96268714e-01 6.24338059e-01 5.92320723e-01 8.32450745e-01 6.40346727e-01 6.72364064e-01 5.76312055e-01 1.58485815e+00 6.24338059e-01 9.12494086e-01 6.40346727e-01 7.36398736e-01 4.96268714e-01 1.02455476e+00 5.28286050e-01 4.48242709e-01 5.44294718e-01 7.84424741e-01 3.52190700e-01 4.48242709e-01 4.64251377e-01 1.85700551e+00 6.72364064e-01 1.13661544e+00 4.00216705e-01 6.08329391e-01 4.48242709e-01 1.20065011e+00 5.28286050e-01 6.56355395e-01 5.76312055e-01 4.96268714e-01 7.36398736e-01 5.28286050e-01 6.08329391e-01 4.16225373e-01 7.36398736e-01 1.16863278e+00 6.56355395e-01 7.52407405e-01 4.48242709e-01 6.56355395e-01 6.40346727e-01 7.52407405e-01 8.32450745e-01 7.04381400e-01 6.08329391e-01 8.96485418e-01 4.80260045e-01 7.04381400e-01 5.12277382e-01 9.28502755e-01 5.76312055e-01 5.12277382e-01 5.60303386e-01 8.48459414e-01 5.92320723e-01 8.16442077e-01 1.02455476e+00 7.36398736e-01 6.72364064e-01 7.20390068e-01 6.72364064e-01 6.40346727e-01 9.28502755e-01 7.36398736e-01 6.40346727e-01 8.80476750e-01 5.44294718e-01 5.60303386e-01 7.20390068e-01 9.12494086e-01 5.92320723e-01 8.16442077e-01 7.20390068e-01 7.36398736e-01 4.48242709e-01 4.80260045e-01 6.56355395e-01 8.48459414e-01 1.42477147e+00 5.92320723e-01 4.80260045e-01 6.88372732e-01 5.12277382e-01 7.36398736e-01 4.32234041e-01 1.15262411e+00 5.76312055e-01 7.20390068e-01 7.36398736e-01 4.48242709e-01 4.96268714e-01 7.52407405e-01 8.64468082e-01 1.04056343e+00 5.44294718e-01 7.04381400e-01 5.44294718e-01 5.76312055e-01 8.64468082e-01 5.92320723e-01 6.08329391e-01 5.76312055e-01 8.00433409e-01 6.88372732e-01 6.40346727e-01 7.68416073e-01 7.52407405e-01 6.88372732e-01 7.20390068e-01 7.68416073e-01 7.84424741e-01 9.12494086e-01 5.92320723e-01 5.44294718e-01 8.48459414e-01 9.28502755e-01 8.48459414e-01 8.48459414e-01 6.56355395e-01 7.36398736e-01 7.04381400e-01 9.60520091e-01 7.20390068e-01 8.80476750e-01 7.20390068e-01 1.02455476e+00 6.40346727e-01 7.68416073e-01 5.60303386e-01 1.04056343e+00 7.20390068e-01 8.16442077e-01 6.24338059e-01 8.64468082e-01 5.44294718e-01 6.08329391e-01 1.02455476e+00 9.12494086e-01 7.20390068e-01 6.88372732e-01 6.24338059e-01 7.20390068e-01 8.96485418e-01 6.24338059e-01 8.80476750e-01 6.72364064e-01 7.68416073e-01 9.12494086e-01 6.72364064e-01 8.64468082e-01 6.88372732e-01 7.68416073e-01 8.48459414e-01 7.68416073e-01 6.88372732e-01 8.96485418e-01 8.64468082e-01 8.16442077e-01 6.40346727e-01 7.20390068e-01 5.92320723e-01 8.16442077e-01 8.80476750e-01 5.60303386e-01 5.92320723e-01 8.00433409e-01 6.72364064e-01 8.16442077e-01 4.48242709e-01 8.80476750e-01 6.56355395e-01 5.44294718e-01 8.00433409e-01 6.24338059e-01 5.60303386e-01 5.44294718e-01 8.00433409e-01 6.56355395e-01 5.76312055e-01 9.60520091e-01 5.28286050e-01 8.00433409e-01 6.40346727e-01 7.36398736e-01 7.68416073e-01 7.68416073e-01 7.04381400e-01 5.12277382e-01 5.28286050e-01 8.64468082e-01 7.20390068e-01 8.48459414e-01 8.00433409e-01 8.00433409e-01 6.88372732e-01 7.04381400e-01 7.04381400e-01 8.48459414e-01 1.12060677e+00 1.13661544e+00 6.56355395e-01 7.68416073e-01 8.48459414e-01 7.84424741e-01 8.64468082e-01 6.88372732e-01 7.68416073e-01 9.28502755e-01 8.00433409e-01 7.36398736e-01 9.60520091e-01 6.08329391e-01 9.12494086e-01 6.40346727e-01 9.76528759e-01 7.52407405e-01 9.60520091e-01 8.48459414e-01 7.68416073e-01 6.56355395e-01 9.76528759e-01 7.84424741e-01 5.28286050e-01 8.00433409e-01 7.04381400e-01 7.20390068e-01 8.16442077e-01 8.16442077e-01 7.04381400e-01 7.36398736e-01 8.16442077e-01 8.32450745e-01 7.84424741e-01 7.68416073e-01 8.96485418e-01 7.36398736e-01 5.60303386e-01 6.24338059e-01 6.08329391e-01 5.60303386e-01 7.36398736e-01 7.52407405e-01 5.76312055e-01 7.84424741e-01 7.52407405e-01 5.76312055e-01 7.04381400e-01 8.80476750e-01 7.52407405e-01 6.88372732e-01 8.00433409e-01 7.04381400e-01 7.20390068e-01 7.20390068e-01 7.84424741e-01 8.32450745e-01 9.76528759e-01 7.20390068e-01 8.16442077e-01 7.04381400e-01 8.96485418e-01 6.56355395e-01 8.64468082e-01 6.88372732e-01 5.44294718e-01 1.00854610e+00 6.72364064e-01 8.96485418e-01 7.68416073e-01 5.92320723e-01 9.60520091e-01 7.36398736e-01 8.48459414e-01 6.08329391e-01 6.56355395e-01 7.84424741e-01 6.24338059e-01 6.40346727e-01 7.20390068e-01 7.20390068e-01 6.24338059e-01 9.28502755e-01 6.72364064e-01 7.36398736e-01 8.64468082e-01 8.16442077e-01 1.08858944e+00 8.00433409e-01 1.08858944e+00 9.60520091e-01 8.80476750e-01 8.80476750e-01 9.60520091e-01 6.40346727e-01 9.44511423e-01 7.36398736e-01 7.84424741e-01 7.68416073e-01 7.20390068e-01 1.05657210e+00 8.64468082e-01 1.04056343e+00 9.44511423e-01 6.88372732e-01 8.96485418e-01 9.76528759e-01 7.04381400e-01 9.28502755e-01 7.04381400e-01 8.32450745e-01 7.52407405e-01 9.12494086e-01 9.76528759e-01 8.64468082e-01 8.64468082e-01 1.02455476e+00 6.40346727e-01 8.48459414e-01 8.16442077e-01 8.00433409e-01 6.56355395e-01 1.00854610e+00 8.16442077e-01 1.13661544e+00 7.84424741e-01 7.20390068e-01 6.72364064e-01 1.05657210e+00 8.16442077e-01 1.21665878e+00 1.02455476e+00 1.07258077e+00 9.92537427e-01 1.05657210e+00 1.02455476e+00 1.02455476e+00 9.44511423e-01 1.04056343e+00 9.92537427e-01 1.31271079e+00 9.12494086e-01 1.18464145e+00 8.48459414e-01 8.96485418e-01 1.10459810e+00 8.32450745e-01 8.48459414e-01 1.05657210e+00 8.32450745e-01 1.05657210e+00 1.00854610e+00 1.02455476e+00 9.28502755e-01 1.04056343e+00 1.05657210e+00 9.44511423e-01 8.96485418e-01 1.08858944e+00 1.02455476e+00 8.32450745e-01 1.02455476e+00 8.96485418e-01 1.00854610e+00 9.76528759e-01 1.13661544e+00 9.12494086e-01 8.64468082e-01 1.20065011e+00 8.96485418e-01 1.00854610e+00 8.32450745e-01 1.02455476e+00 1.16863278e+00 1.10459810e+00 1.29670212e+00 1.15262411e+00 9.28502755e-01 1.07258077e+00 1.02455476e+00 1.05657210e+00 7.52407405e-01 7.52407405e-01 1.05657210e+00 1.00854610e+00 1.00854610e+00 9.60520091e-01 1.32871946e+00 1.40876280e+00 1.12060677e+00 8.64468082e-01 9.44511423e-01 1.42477147e+00 9.92537427e-01 1.05657210e+00 1.16863278e+00 1.13661544e+00 1.26468479e+00 1.16863278e+00 1.12060677e+00 1.08858944e+00 9.44511423e-01 1.12060677e+00 1.16863278e+00 1.18464145e+00 9.60520091e-01 1.16863278e+00 1.00854610e+00 1.05657210e+00 8.00433409e-01 1.39275413e+00 1.20065011e+00 1.21665878e+00 1.05657210e+00 8.64468082e-01 1.45678880e+00 1.04056343e+00 1.15262411e+00 1.00854610e+00 9.12494086e-01 1.07258077e+00 1.10459810e+00 9.92537427e-01 1.34472813e+00 1.34472813e+00 1.07258077e+00 1.08858944e+00 1.29670212e+00 1.15262411e+00 1.26468479e+00 8.32450745e-01 1.12060677e+00 1.29670212e+00 1.24867612e+00 1.07258077e+00 1.26468479e+00 1.08858944e+00 1.36073680e+00 1.20065011e+00 1.07258077e+00 1.08858944e+00 1.55284081e+00 1.10459810e+00 1.16863278e+00 8.96485418e-01 1.26468479e+00 9.76528759e-01 1.23266745e+00 1.15262411e+00 1.16863278e+00 1.02455476e+00 1.21665878e+00 1.08858944e+00 1.44078014e+00 7.52407405e-01 1.21665878e+00 1.07258077e+00 1.44078014e+00 1.23266745e+00 1.18464145e+00 1.04056343e+00 1.32871946e+00 1.15262411e+00 1.18464145e+00 9.28502755e-01 1.37674546e+00 1.39275413e+00 1.20065011e+00 1.04056343e+00 1.26468479e+00 1.28069345e+00 1.24867612e+00 1.55284081e+00 1.31271079e+00 1.20065011e+00 1.28069345e+00 1.36073680e+00 1.16863278e+00 9.12494086e-01 1.13661544e+00 1.47279747e+00 9.28502755e-01 1.29670212e+00 1.52082348e+00 1.23266745e+00 1.20065011e+00 1.15262411e+00 1.10459810e+00 1.21665878e+00 1.21665878e+00 1.10459810e+00 1.13661544e+00 1.37674546e+00 1.16863278e+00 1.56884948e+00 1.15262411e+00 1.28069345e+00 1.02455476e+00 1.24867612e+00 1.04056343e+00 1.34472813e+00 1.37674546e+00 1.13661544e+00 9.44511423e-01 1.45678880e+00 1.20065011e+00 1.05657210e+00 1.23266745e+00 1.05657210e+00 1.23266745e+00 1.23266745e+00 1.29670212e+00 1.12060677e+00 1.28069345e+00 1.42477147e+00 1.23266745e+00 1.23266745e+00 1.28069345e+00 1.45678880e+00 1.53683215e+00 1.24867612e+00 1.36073680e+00 1.29670212e+00 1.16863278e+00 1.02455476e+00 1.24867612e+00 1.34472813e+00 1.12060677e+00 1.36073680e+00 1.50481481e+00 1.21665878e+00 1.34472813e+00 1.45678880e+00 1.39275413e+00 1.29670212e+00 1.31271079e+00 1.29670212e+00 1.05657210e+00 1.53683215e+00 1.26468479e+00 1.45678880e+00 1.08858944e+00 1.20065011e+00 1.28069345e+00 1.40876280e+00 1.20065011e+00 1.52082348e+00 1.39275413e+00 1.05657210e+00 1.23266745e+00 1.12060677e+00 1.23266745e+00 1.36073680e+00 1.40876280e+00 1.50481481e+00 1.64889282e+00 1.18464145e+00 1.18464145e+00 1.23266745e+00 1.21665878e+00 1.04056343e+00 1.31271079e+00 1.64889282e+00 1.60086682e+00 1.52082348e+00 1.20065011e+00 1.52082348e+00 1.24867612e+00 1.42477147e+00 1.45678880e+00 1.32871946e+00 1.23266745e+00 1.44078014e+00 1.58485815e+00 1.39275413e+00 1.31271079e+00 1.53683215e+00 1.29670212e+00 1.10459810e+00 1.12060677e+00 1.39275413e+00 1.47279747e+00 1.15262411e+00 1.26468479e+00 1.53683215e+00 1.47279747e+00 1.48880614e+00 1.39275413e+00 1.63288415e+00 1.48880614e+00 1.61687549e+00 1.52082348e+00 1.20065011e+00 1.52082348e+00 1.42477147e+00 1.45678880e+00 1.31271079e+00 1.36073680e+00 1.32871946e+00 1.48880614e+00 1.55284081e+00 1.53683215e+00 1.16863278e+00 1.68091016e+00 1.61687549e+00 1.40876280e+00 1.31271079e+00 1.69691883e+00 1.34472813e+00 1.32871946e+00 1.45678880e+00 1.37674546e+00 1.55284081e+00 1.45678880e+00 1.29670212e+00 1.55284081e+00 1.45678880e+00 1.76095350e+00 1.29670212e+00 1.42477147e+00 1.28069345e+00 1.32871946e+00 1.34472813e+00 1.74494483e+00 1.21665878e+00 1.08858944e+00 1.47279747e+00 1.42477147e+00 1.47279747e+00 1.44078014e+00 1.55284081e+00 1.44078014e+00 1.68091016e+00 1.50481481e+00 1.47279747e+00 1.53683215e+00 1.50481481e+00 1.39275413e+00 1.39275413e+00 1.37674546e+00 1.42477147e+00 1.36073680e+00 1.52082348e+00 1.48880614e+00 1.20065011e+00 1.48880614e+00 1.39275413e+00 1.63288415e+00 1.82498817e+00 1.45678880e+00 1.31271079e+00 1.52082348e+00 1.53683215e+00 1.23266745e+00 1.68091016e+00 1.42477147e+00 1.31271079e+00 1.58485815e+00 1.45678880e+00 1.63288415e+00 1.20065011e+00 1.47279747e+00 1.37674546e+00 1.60086682e+00 1.36073680e+00 1.39275413e+00 9.92537427e-01 1.44078014e+00 1.20065011e+00 1.55284081e+00 1.39275413e+00 1.29670212e+00 1.44078014e+00 1.48880614e+00 1.84099684e+00 1.28069345e+00 1.53683215e+00 1.29670212e+00 1.58485815e+00 1.77696217e+00 1.21665878e+00 1.53683215e+00 1.76095350e+00 1.56884948e+00 1.40876280e+00 1.44078014e+00 1.55284081e+00 1.50481481e+00 1.52082348e+00 1.58485815e+00 1.76095350e+00 1.76095350e+00 1.18464145e+00 1.45678880e+00 1.48880614e+00 1.50481481e+00 1.39275413e+00 1.68091016e+00 1.50481481e+00 1.45678880e+00 1.12060677e+00 1.50481481e+00 1.44078014e+00 1.37674546e+00 1.34472813e+00 1.52082348e+00 1.74494483e+00 1.55284081e+00 1.55284081e+00 1.55284081e+00 1.61687549e+00 1.37674546e+00 1.71292750e+00 1.61687549e+00 1.58485815e+00 1.16863278e+00 1.61687549e+00 1.72893616e+00 1.69691883e+00 1.45678880e+00 1.72893616e+00 1.68091016e+00 1.36073680e+00 1.50481481e+00 1.32871946e+00 1.68091016e+00 1.34472813e+00 1.82498817e+00 1.61687549e+00 1.37674546e+00 1.52082348e+00 1.40876280e+00 1.63288415e+00 1.64889282e+00 1.45678880e+00 1.55284081e+00 1.87301418e+00 1.56884948e+00 1.55284081e+00 1.28069345e+00 1.60086682e+00 1.52082348e+00 1.66490149e+00 1.50481481e+00 1.71292750e+00 1.52082348e+00 1.56884948e+00 1.76095350e+00 1.55284081e+00 1.61687549e+00 1.63288415e+00 1.66490149e+00 1.55284081e+00 1.87301418e+00 1.68091016e+00 1.40876280e+00 1.68091016e+00 1.74494483e+00 1.45678880e+00 1.29670212e+00 1.52082348e+00 1.72893616e+00 1.32871946e+00 1.53683215e+00 1.69691883e+00 1.74494483e+00 1.61687549e+00 1.32871946e+00 1.40876280e+00 1.79297084e+00 1.45678880e+00 1.74494483e+00 1.84099684e+00 1.84099684e+00 1.56884948e+00 1.48880614e+00 1.47279747e+00 1.76095350e+00 1.74494483e+00 1.37674546e+00 1.71292750e+00 1.66490149e+00 1.58485815e+00 1.39275413e+00 1.90503151e+00 1.50481481e+00 1.44078014e+00 1.52082348e+00 1.61687549e+00 1.60086682e+00 1.87301418e+00 1.29670212e+00 1.68091016e+00 1.80897950e+00 1.96906619e+00 1.53683215e+00 1.60086682e+00 1.82498817e+00 1.74494483e+00 1.79297084e+00 1.42477147e+00 1.93704885e+00 1.63288415e+00 1.79297084e+00 1.72893616e+00 1.68091016e+00 1.64889282e+00 1.84099684e+00 1.80897950e+00 1.72893616e+00 1.77696217e+00 1.71292750e+00 1.77696217e+00 1.61687549e+00 1.66490149e+00 1.45678880e+00 1.74494483e+00 1.53683215e+00 1.79297084e+00 1.47279747e+00 1.69691883e+00 1.79297084e+00 1.52082348e+00 1.72893616e+00 1.53683215e+00 1.76095350e+00 1.96906619e+00 1.90503151e+00 1.84099684e+00 1.64889282e+00 1.74494483e+00 1.66490149e+00 1.58485815e+00 2.30524822e+00 1.63288415e+00 1.56884948e+00 2.06511820e+00 1.71292750e+00 2.04910953e+00 1.76095350e+00 1.66490149e+00 1.95305752e+00 2.04910953e+00 2.08112686e+00 1.58485815e+00 1.84099684e+00 1.66490149e+00 1.96906619e+00 1.47279747e+00 1.79297084e+00 1.87301418e+00 1.88902285e+00 2.25722221e+00 1.95305752e+00 1.60086682e+00 1.64889282e+00 1.71292750e+00 2.01709219e+00 1.84099684e+00 1.98507485e+00 1.36073680e+00 1.55284081e+00 1.50481481e+00 1.63288415e+00 2.06511820e+00 1.63288415e+00 1.92104018e+00 1.77696217e+00 1.74494483e+00 1.68091016e+00 1.61687549e+00 1.85700551e+00 1.88902285e+00 1.79297084e+00 2.16117020e+00 1.84099684e+00 1.87301418e+00 1.69691883e+00 2.03310086e+00 1.64889282e+00 1.82498817e+00 1.72893616e+00 1.77696217e+00 1.92104018e+00 1.87301418e+00 1.87301418e+00 1.90503151e+00 