<?xml version="1.0"?>
<MethodSetup Method="BDT::BDT">
  <GeneralInfo>
    <Info name="TMVA Release" value="4.2.1 [262657]"/>
    <Info name="ROOT Release" value="6.22/06 [398854]"/>
    <Info name="Creator" value="mettatonvm"/>
    <Info name="Date" value="Tue Sep 28 15:40:15 2021"/>
    <Info name="Host" value="Linux root-ubuntu-2004-1 5.4.0-54-generic #60-Ubuntu SMP Fri Nov 6 10:37:59 UTC 2020 x86_64 x86_64 x86_64 GNU/Linux"/>
    <Info name="Dir" value="/home/mettatonvm/LHCb/moore_upgrade"/>
    <Info name="Training events" value="104025"/>
    <Info name="TrainingTime" value="1.87973480e+01"/>
    <Info name="AnalysisType" value="Classification"/>
  </GeneralInfo>
  <Options>
    <Option name="V" modified="No">False</Option>
    <Option name="VerbosityLevel" modified="No">Default</Option>
    <Option name="VarTransform" modified="No">None</Option>
    <Option name="H" modified="No">False</Option>
    <Option name="CreateMVAPdfs" modified="Yes">True</Option>
    <Option name="IgnoreNegWeightsInTraining" modified="No">False</Option>
    <Option name="NTrees" modified="Yes">400</Option>
    <Option name="MaxDepth" modified="Yes">2</Option>
    <Option name="MinNodeSize" modified="No">5%</Option>
    <Option name="nCuts" modified="No">20</Option>
    <Option name="BoostType" modified="No">AdaBoost</Option>
    <Option name="AdaBoostR2Loss" modified="No">quadratic</Option>
    <Option name="UseBaggedBoost" modified="No">False</Option>
    <Option name="Shrinkage" modified="No">1.000000e+00</Option>
    <Option name="AdaBoostBeta" modified="No">5.000000e-01</Option>
    <Option name="UseRandomisedTrees" modified="No">False</Option>
    <Option name="UseNvars" modified="No">3</Option>
    <Option name="UsePoissonNvars" modified="No">True</Option>
    <Option name="BaggedSampleFraction" modified="No">6.000000e-01</Option>
    <Option name="UseYesNoLeaf" modified="No">True</Option>
    <Option name="NegWeightTreatment" modified="No">inverseboostnegweights</Option>
    <Option name="Css" modified="No">1.000000e+00</Option>
    <Option name="Cts_sb" modified="No">1.000000e+00</Option>
    <Option name="Ctb_ss" modified="No">1.000000e+00</Option>
    <Option name="Cbb" modified="No">1.000000e+00</Option>
    <Option name="NodePurityLimit" modified="No">5.000000e-01</Option>
    <Option name="SeparationType" modified="No">giniindex</Option>
    <Option name="RegressionLossFunctionBDTG" modified="No">huber</Option>
    <Option name="HuberQuantile" modified="No">7.000000e-01</Option>
    <Option name="DoBoostMonitor" modified="No">False</Option>
    <Option name="UseFisherCuts" modified="No">False</Option>
    <Option name="MinLinCorrForFisher" modified="No">8.000000e-01</Option>
    <Option name="UseExclusiveVars" modified="No">False</Option>
    <Option name="DoPreselection" modified="No">False</Option>
    <Option name="SigToBkgFraction" modified="No">1.000000e+00</Option>
    <Option name="PruneMethod" modified="No">nopruning</Option>
    <Option name="PruneStrength" modified="No">0.000000e+00</Option>
    <Option name="PruningValFraction" modified="No">5.000000e-01</Option>
    <Option name="SkipNormalization" modified="No">False</Option>
    <Option name="nEventsMin" modified="No">0</Option>
    <Option name="UseBaggedGrad" modified="No">False</Option>
    <Option name="GradBaggingFraction" modified="No">6.000000e-01</Option>
    <Option name="UseNTrainEvents" modified="No">0</Option>
    <Option name="NNodesMax" modified="No">0</Option>
  </Options>
  <Variables NVar="8">
    <Variable VarIndex="0" Expression="B_ipchi2" Label="B_ipchi2" Title="B_ipchi2" Unit="" Internal="B_ipchi2" Type="D" Min="-3.01603794e+00" Max="5.66475010e+00"/>
    <Variable VarIndex="1" Expression="B_ipchi2_min" Label="B_ipchi2_min" Title="B_ipchi2_min" Unit="" Internal="B_ipchi2_min" Type="D" Min="-3.67276049e+00" Max="4.75476742e+00"/>
    <Variable VarIndex="2" Expression="B_gamma_pt" Label="B_gamma_pt" Title="B_gamma_pt" Unit="" Internal="B_gamma_pt" Type="D" Min="2.00001489e+03" Max="2.56717070e+04"/>
    <Variable VarIndex="3" Expression="B_gamma_p" Label="B_gamma_p" Title="B_gamma_p" Unit="" Internal="B_gamma_p" Type="D" Min="5.71201611e+03" Max="5.73399188e+05"/>
    <Variable VarIndex="4" Expression="B_m_corrected" Label="B_m_corrected" Title="B_m_corrected" Unit="" Internal="B_m_corrected" Type="D" Min="1.97068787e+03" Max="1.09999697e+04"/>
    <Variable VarIndex="5" Expression="B_fdchi2" Label="B_fdchi2" Title="B_fdchi2" Unit="" Internal="B_fdchi2" Type="D" Min="9.77336347e-01" Max="7.76795483e+00"/>
    <Variable VarIndex="6" Expression="B_vtx_chi2" Label="B_vtx_chi2" Title="B_vtx_chi2" Unit="" Internal="B_vtx_chi2" Type="D" Min="-2.73863649e+00" Max="2.99999428e+00"/>
    <Variable VarIndex="7" Expression="B_chi2dof_max" Label="B_chi2dof_max" Title="B_chi2dof_max" Unit="" Internal="B_chi2dof_max" Type="D" Min="1.92160621e-01" Max="2.90892148e+00"/>
  </Variables>
  <Spectators NSpec="0"/>
  <Classes NClass="2">
    <Class Name="Signal" Index="0"/>
    <Class Name="Background" Index="1"/>
  </Classes>
  <Transformations NTransformations="0"/>
  <MVAPdfs>
    <PDF Name="BDT_PDFSig" MinNSmooth="0" MaxNSmooth="0" InterpolMethod="2" KDE_type="1" KDE_iter="1" KDE_border="1" KDE_finefactor="1.0000000000000000e+00">
      <Histogram Name="BDT_tr_S_original" NBins="2080" XMin="-7.2629690170288086e-01" XMax="4.6402364969253540e-01" HasEquidistantBins="1">
        0.00000000e+00 0.00000000e+00 0.00000000e+00 0.00000000e+00 0.00000000e+00 0.00000000e+00 0.00000000e+00 0.00000000e+00 0.00000000e+00 0.00000000e+00 0.00000000e+00 0.00000000e+00 0.00000000e+00 0.00000000e+00 0.00000000e+00 0.00000000e+00 0.00000000e+00 0.00000000e+00 0.00000000e+00 0.00000000e+00 0.00000000e+00 0.00000000e+00 0.00000000e+00 0.00000000e+00 0.00000000e+00 0.00000000e+00 0.00000000e+00 0.00000000e+00 0.00000000e+00 0.00000000e+00 0.00000000e+00 0.00000000e+00 0.00000000e+00 0.00000000e+00 0.00000000e+00 0.00000000e+00 0.00000000e+00 0.00000000e+00 0.00000000e+00 0.00000000e+00 0.00000000e+00 0.00000000e+00 0.00000000e+00 0.00000000e+00 0.00000000e+00 0.00000000e+00 0.00000000e+00 0.00000000e+00 0.00000000e+00 0.00000000e+00 0.00000000e+00 0.00000000e+00 0.00000000e+00 0.00000000e+00 0.00000000e+00 0.00000000e+00 0.00000000e+00 0.00000000e+00 0.00000000e+00 0.00000000e+00 0.00000000e+00 0.00000000e+00 0.00000000e+00 0.00000000e+00 0.00000000e+00 0.00000000e+00 0.00000000e+00 0.00000000e+00 0.00000000e+00 0.00000000e+00 0.00000000e+00 0.00000000e+00 0.00000000e+00 0.00000000e+00 0.00000000e+00 0.00000000e+00 0.00000000e+00 0.00000000e+00 0.00000000e+00 0.00000000e+00 0.00000000e+00 0.00000000e+00 0.00000000e+00 0.00000000e+00 0.00000000e+00 0.00000000e+00 0.00000000e+00 0.00000000e+00 0.00000000e+00 0.00000000e+00 0.00000000e+00 0.00000000e+00 0.00000000e+00 0.00000000e+00 0.00000000e+00 0.00000000e+00 0.00000000e+00 0.00000000e+00 0.00000000e+00 0.00000000e+00 0.00000000e+00 0.00000000e+00 0.00000000e+00 0.00000000e+00 0.00000000e+00 0.00000000e+00 0.00000000e+00 0.00000000e+00 0.00000000e+00 0.00000000e+00 0.00000000e+00 0.00000000e+00 0.00000000e+00 0.00000000e+00 0.00000000e+00 0.00000000e+00 0.00000000e+00 0.00000000e+00 0.00000000e+00 0.00000000e+00 0.00000000e+00 0.00000000e+00 0.00000000e+00 0.00000000e+00 0.00000000e+00 0.00000000e+00 0.00000000e+00 0.00000000e+00 0.00000000e+00 0.00000000e+00 0.00000000e+00 0.00000000e+00 0.00000000e+00 0.00000000e+00 0.00000000e+00 0.00000000e+00 0.00000000e+00 0.00000000e+00 0.00000000e+00 0.00000000e+00 0.00000000e+00 0.00000000e+00 0.00000000e+00 0.00000000e+00 0.00000000e+00 0.00000000e+00 0.00000000e+00 0.00000000e+00 0.00000000e+00 0.00000000e+00 0.00000000e+00 0.00000000e+00 0.00000000e+00 0.00000000e+00 0.00000000e+00 0.00000000e+00 0.00000000e+00 0.00000000e+00 0.00000000e+00 0.00000000e+00 0.00000000e+00 0.00000000e+00 0.00000000e+00 0.00000000e+00 0.00000000e+00 0.00000000e+00 0.00000000e+00 0.00000000e+00 0.00000000e+00 0.00000000e+00 0.00000000e+00 0.00000000e+00 0.00000000e+00 0.00000000e+00 0.00000000e+00 0.00000000e+00 0.00000000e+00 0.00000000e+00 0.00000000e+00 0.00000000e+00 0.00000000e+00 0.00000000e+00 0.00000000e+00 0.00000000e+00 0.00000000e+00 0.00000000e+00 0.00000000e+00 0.00000000e+00 0.00000000e+00 0.00000000e+00 0.00000000e+00 0.00000000e+00 0.00000000e+00 0.00000000e+00 0.00000000e+00 0.00000000e+00 0.00000000e+00 0.00000000e+00 0.00000000e+00 0.00000000e+00 0.00000000e+00 0.00000000e+00 0.00000000e+00 0.00000000e+00 0.00000000e+00 0.00000000e+00 0.00000000e+00 0.00000000e+00 0.00000000e+00 0.00000000e+00 0.00000000e+00 0.00000000e+00 0.00000000e+00 0.00000000e+00 0.00000000e+00 0.00000000e+00 0.00000000e+00 0.00000000e+00 0.00000000e+00 0.00000000e+00 0.00000000e+00 0.00000000e+00 0.00000000e+00 0.00000000e+00 0.00000000e+00 0.00000000e+00 0.00000000e+00 0.00000000e+00 0.00000000e+00 0.00000000e+00 0.00000000e+00 0.00000000e+00 0.00000000e+00 0.00000000e+00 0.00000000e+00 0.00000000e+00 0.00000000e+00 0.00000000e+00 0.00000000e+00 0.00000000e+00 0.00000000e+00 0.00000000e+00 0.00000000e+00 0.00000000e+00 0.00000000e+00 0.00000000e+00 0.00000000e+00 0.00000000e+00 0.00000000e+00 0.00000000e+00 0.00000000e+00 0.00000000e+00 0.00000000e+00 0.00000000e+00 0.00000000e+00 0.00000000e+00 0.00000000e+00 0.00000000e+00 0.00000000e+00 0.00000000e+00 0.00000000e+00 0.00000000e+00 0.00000000e+00 0.00000000e+00 0.00000000e+00 0.00000000e+00 0.00000000e+00 0.00000000e+00 0.00000000e+00 0.00000000e+00 0.00000000e+00 0.00000000e+00 0.00000000e+00 0.00000000e+00 0.00000000e+00 0.00000000e+00 0.00000000e+00 0.00000000e+00 0.00000000e+00 0.00000000e+00 0.00000000e+00 0.00000000e+00 0.00000000e+00 0.00000000e+00 0.00000000e+00 0.00000000e+00 0.00000000e+00 0.00000000e+00 0.00000000e+00 0.00000000e+00 0.00000000e+00 0.00000000e+00 0.00000000e+00 0.00000000e+00 0.00000000e+00 0.00000000e+00 0.00000000e+00 0.00000000e+00 0.00000000e+00 0.00000000e+00 0.00000000e+00 0.00000000e+00 0.00000000e+00 0.00000000e+00 0.00000000e+00 0.00000000e+00 0.00000000e+00 0.00000000e+00 0.00000000e+00 0.00000000e+00 0.00000000e+00 0.00000000e+00 0.00000000e+00 0.00000000e+00 0.00000000e+00 0.00000000e+00 0.00000000e+00 0.00000000e+00 0.00000000e+00 0.00000000e+00 0.00000000e+00 0.00000000e+00 0.00000000e+00 0.00000000e+00 0.00000000e+00 0.00000000e+00 0.00000000e+00 0.00000000e+00 0.00000000e+00 0.00000000e+00 0.00000000e+00 0.00000000e+00 0.00000000e+00 0.00000000e+00 0.00000000e+00 0.00000000e+00 0.00000000e+00 0.00000000e+00 0.00000000e+00 0.00000000e+00 0.00000000e+00 0.00000000e+00 0.00000000e+00 0.00000000e+00 0.00000000e+00 0.00000000e+00 0.00000000e+00 0.00000000e+00 0.00000000e+00 0.00000000e+00 0.00000000e+00 0.00000000e+00 0.00000000e+00 0.00000000e+00 0.00000000e+00 0.00000000e+00 0.00000000e+00 0.00000000e+00 0.00000000e+00 0.00000000e+00 0.00000000e+00 0.00000000e+00 0.00000000e+00 0.00000000e+00 0.00000000e+00 0.00000000e+00 0.00000000e+00 0.00000000e+00 0.00000000e+00 0.00000000e+00 0.00000000e+00 0.00000000e+00 0.00000000e+00 0.00000000e+00 0.00000000e+00 0.00000000e+00 0.00000000e+00 0.00000000e+00 0.00000000e+00 0.00000000e+00 0.00000000e+00 0.00000000e+00 0.00000000e+00 0.00000000e+00 0.00000000e+00 0.00000000e+00 0.00000000e+00 0.00000000e+00 0.00000000e+00 0.00000000e+00 0.00000000e+00 0.00000000e+00 0.00000000e+00 0.00000000e+00 0.00000000e+00 0.00000000e+00 0.00000000e+00 0.00000000e+00 0.00000000e+00 0.00000000e+00 0.00000000e+00 0.00000000e+00 0.00000000e+00 0.00000000e+00 0.00000000e+00 0.00000000e+00 0.00000000e+00 0.00000000e+00 0.00000000e+00 0.00000000e+00 0.00000000e+00 0.00000000e+00 0.00000000e+00 0.00000000e+00 0.00000000e+00 0.00000000e+00 0.00000000e+00 0.00000000e+00 0.00000000e+00 0.00000000e+00 0.00000000e+00 0.00000000e+00 0.00000000e+00 0.00000000e+00 0.00000000e+00 0.00000000e+00 0.00000000e+00 0.00000000e+00 0.00000000e+00 0.00000000e+00 0.00000000e+00 0.00000000e+00 0.00000000e+00 0.00000000e+00 0.00000000e+00 0.00000000e+00 0.00000000e+00 0.00000000e+00 0.00000000e+00 0.00000000e+00 0.00000000e+00 0.00000000e+00 0.00000000e+00 0.00000000e+00 0.00000000e+00 0.00000000e+00 0.00000000e+00 0.00000000e+00 0.00000000e+00 0.00000000e+00 0.00000000e+00 0.00000000e+00 0.00000000e+00 0.00000000e+00 0.00000000e+00 0.00000000e+00 0.00000000e+00 0.00000000e+00 0.00000000e+00 0.00000000e+00 0.00000000e+00 0.00000000e+00 0.00000000e+00 0.00000000e+00 0.00000000e+00 0.00000000e+00 0.00000000e+00 0.00000000e+00 0.00000000e+00 0.00000000e+00 0.00000000e+00 0.00000000e+00 0.00000000e+00 0.00000000e+00 0.00000000e+00 0.00000000e+00 0.00000000e+00 0.00000000e+00 0.00000000e+00 0.00000000e+00 0.00000000e+00 0.00000000e+00 0.00000000e+00 0.00000000e+00 0.00000000e+00 0.00000000e+00 0.00000000e+00 0.00000000e+00 0.00000000e+00 0.00000000e+00 0.00000000e+00 0.00000000e+00 0.00000000e+00 0.00000000e+00 0.00000000e+00 0.00000000e+00 0.00000000e+00 0.00000000e+00 0.00000000e+00 0.00000000e+00 0.00000000e+00 0.00000000e+00 0.00000000e+00 0.00000000e+00 0.00000000e+00 0.00000000e+00 0.00000000e+00 0.00000000e+00 0.00000000e+00 0.00000000e+00 0.00000000e+00 0.00000000e+00 0.00000000e+00 0.00000000e+00 0.00000000e+00 0.00000000e+00 0.00000000e+00 0.00000000e+00 0.00000000e+00 0.00000000e+00 0.00000000e+00 0.00000000e+00 0.00000000e+00 0.00000000e+00 0.00000000e+00 0.00000000e+00 0.00000000e+00 0.00000000e+00 0.00000000e+00 0.00000000e+00 0.00000000e+00 0.00000000e+00 0.00000000e+00 0.00000000e+00 0.00000000e+00 0.00000000e+00 0.00000000e+00 0.00000000e+00 0.00000000e+00 0.00000000e+00 0.00000000e+00 0.00000000e+00 0.00000000e+00 0.00000000e+00 0.00000000e+00 0.00000000e+00 0.00000000e+00 0.00000000e+00 0.00000000e+00 0.00000000e+00 0.00000000e+00 0.00000000e+00 0.00000000e+00 0.00000000e+00 0.00000000e+00 0.00000000e+00 0.00000000e+00 0.00000000e+00 0.00000000e+00 0.00000000e+00 0.00000000e+00 0.00000000e+00 0.00000000e+00 0.00000000e+00 0.00000000e+00 0.00000000e+00 0.00000000e+00 0.00000000e+00 0.00000000e+00 0.00000000e+00 0.00000000e+00 0.00000000e+00 0.00000000e+00 0.00000000e+00 0.00000000e+00 0.00000000e+00 0.00000000e+00 0.00000000e+00 0.00000000e+00 0.00000000e+00 0.00000000e+00 0.00000000e+00 0.00000000e+00 0.00000000e+00 0.00000000e+00 0.00000000e+00 0.00000000e+00 0.00000000e+00 0.00000000e+00 0.00000000e+00 0.00000000e+00 0.00000000e+00 0.00000000e+00 0.00000000e+00 0.00000000e+00 0.00000000e+00 0.00000000e+00 0.00000000e+00 0.00000000e+00 0.00000000e+00 0.00000000e+00 0.00000000e+00 0.00000000e+00 0.00000000e+00 0.00000000e+00 0.00000000e+00 0.00000000e+00 0.00000000e+00 0.00000000e+00 0.00000000e+00 0.00000000e+00 0.00000000e+00 0.00000000e+00 0.00000000e+00 0.00000000e+00 0.00000000e+00 0.00000000e+00 0.00000000e+00 0.00000000e+00 0.00000000e+00 0.00000000e+00 0.00000000e+00 0.00000000e+00 0.00000000e+00 0.00000000e+00 0.00000000e+00 0.00000000e+00 0.00000000e+00 0.00000000e+00 0.00000000e+00 0.00000000e+00 0.00000000e+00 0.00000000e+00 0.00000000e+00 0.00000000e+00 0.00000000e+00 0.00000000e+00 0.00000000e+00 0.00000000e+00 0.00000000e+00 0.00000000e+00 0.00000000e+00 0.00000000e+00 0.00000000e+00 0.00000000e+00 0.00000000e+00 0.00000000e+00 0.00000000e+00 0.00000000e+00 0.00000000e+00 0.00000000e+00 0.00000000e+00 0.00000000e+00 0.00000000e+00 0.00000000e+00 0.00000000e+00 0.00000000e+00 0.00000000e+00 0.00000000e+00 0.00000000e+00 0.00000000e+00 0.00000000e+00 0.00000000e+00 0.00000000e+00 0.00000000e+00 0.00000000e+00 0.00000000e+00 0.00000000e+00 0.00000000e+00 0.00000000e+00 0.00000000e+00 0.00000000e+00 0.00000000e+00 0.00000000e+00 0.00000000e+00 0.00000000e+00 0.00000000e+00 0.00000000e+00 0.00000000e+00 0.00000000e+00 0.00000000e+00 0.00000000e+00 0.00000000e+00 0.00000000e+00 0.00000000e+00 0.00000000e+00 0.00000000e+00 0.00000000e+00 0.00000000e+00 0.00000000e+00 0.00000000e+00 0.00000000e+00 0.00000000e+00 0.00000000e+00 0.00000000e+00 0.00000000e+00 0.00000000e+00 0.00000000e+00 0.00000000e+00 0.00000000e+00 0.00000000e+00 0.00000000e+00 0.00000000e+00 0.00000000e+00 0.00000000e+00 0.00000000e+00 0.00000000e+00 0.00000000e+00 0.00000000e+00 0.00000000e+00 0.00000000e+00 0.00000000e+00 0.00000000e+00 0.00000000e+00 0.00000000e+00 0.00000000e+00 0.00000000e+00 0.00000000e+00 0.00000000e+00 0.00000000e+00 0.00000000e+00 0.00000000e+00 0.00000000e+00 0.00000000e+00 0.00000000e+00 0.00000000e+00 0.00000000e+00 0.00000000e+00 0.00000000e+00 0.00000000e+00 0.00000000e+00 0.00000000e+00 0.00000000e+00 0.00000000e+00 0.00000000e+00 0.00000000e+00 0.00000000e+00 0.00000000e+00 0.00000000e+00 0.00000000e+00 0.00000000e+00 0.00000000e+00 0.00000000e+00 0.00000000e+00 0.00000000e+00 0.00000000e+00 0.00000000e+00 0.00000000e+00 0.00000000e+00 0.00000000e+00 0.00000000e+00 0.00000000e+00 0.00000000e+00 0.00000000e+00 0.00000000e+00 0.00000000e+00 0.00000000e+00 0.00000000e+00 0.00000000e+00 0.00000000e+00 0.00000000e+00 0.00000000e+00 0.00000000e+00 0.00000000e+00 0.00000000e+00 0.00000000e+00 0.00000000e+00 0.00000000e+00 0.00000000e+00 0.00000000e+00 0.00000000e+00 0.00000000e+00 0.00000000e+00 0.00000000e+00 0.00000000e+00 0.00000000e+00 0.00000000e+00 0.00000000e+00 0.00000000e+00 0.00000000e+00 0.00000000e+00 0.00000000e+00 0.00000000e+00 0.00000000e+00 0.00000000e+00 0.00000000e+00 0.00000000e+00 0.00000000e+00 0.00000000e+00 0.00000000e+00 0.00000000e+00 0.00000000e+00 0.00000000e+00 0.00000000e+00 0.00000000e+00 0.00000000e+00 0.00000000e+00 0.00000000e+00 0.00000000e+00 0.00000000e+00 0.00000000e+00 0.00000000e+00 0.00000000e+00 0.00000000e+00 0.00000000e+00 0.00000000e+00 0.00000000e+00 0.00000000e+00 0.00000000e+00 0.00000000e+00 0.00000000e+00 0.00000000e+00 0.00000000e+00 0.00000000e+00 0.00000000e+00 0.00000000e+00 0.00000000e+00 0.00000000e+00 0.00000000e+00 0.00000000e+00 0.00000000e+00 0.00000000e+00 0.00000000e+00 0.00000000e+00 0.00000000e+00 0.00000000e+00 0.00000000e+00 0.00000000e+00 0.00000000e+00 0.00000000e+00 0.00000000e+00 0.00000000e+00 0.00000000e+00 0.00000000e+00 0.00000000e+00 0.00000000e+00 0.00000000e+00 0.00000000e+00 0.00000000e+00 0.00000000e+00 0.00000000e+00 0.00000000e+00 0.00000000e+00 0.00000000e+00 0.00000000e+00 0.00000000e+00 0.00000000e+00 0.00000000e+00 0.00000000e+00 0.00000000e+00 0.00000000e+00 0.00000000e+00 0.00000000e+00 0.00000000e+00 0.00000000e+00 0.00000000e+00 0.00000000e+00 0.00000000e+00 0.00000000e+00 0.00000000e+00 0.00000000e+00 0.00000000e+00 0.00000000e+00 0.00000000e+00 0.00000000e+00 0.00000000e+00 0.00000000e+00 0.00000000e+00 0.00000000e+00 0.00000000e+00 0.00000000e+00 0.00000000e+00 0.00000000e+00 0.00000000e+00 0.00000000e+00 0.00000000e+00 0.00000000e+00 0.00000000e+00 0.00000000e+00 0.00000000e+00 0.00000000e+00 0.00000000e+00 0.00000000e+00 0.00000000e+00 0.00000000e+00 0.00000000e+00 0.00000000e+00 0.00000000e+00 0.00000000e+00 0.00000000e+00 0.00000000e+00 0.00000000e+00 0.00000000e+00 0.00000000e+00 0.00000000e+00 0.00000000e+00 0.00000000e+00 0.00000000e+00 0.00000000e+00 0.00000000e+00 0.00000000e+00 0.00000000e+00 0.00000000e+00 0.00000000e+00 0.00000000e+00 0.00000000e+00 0.00000000e+00 0.00000000e+00 0.00000000e+00 0.00000000e+00 0.00000000e+00 0.00000000e+00 0.00000000e+00 0.00000000e+00 0.00000000e+00 0.00000000e+00 0.00000000e+00 0.00000000e+00 0.00000000e+00 0.00000000e+00 0.00000000e+00 0.00000000e+00 0.00000000e+00 0.00000000e+00 0.00000000e+00 0.00000000e+00 0.00000000e+00 0.00000000e+00 0.00000000e+00 0.00000000e+00 0.00000000e+00 0.00000000e+00 0.00000000e+00 0.00000000e+00 0.00000000e+00 0.00000000e+00 0.00000000e+00 0.00000000e+00 0.00000000e+00 0.00000000e+00 0.00000000e+00 0.00000000e+00 0.00000000e+00 0.00000000e+00 0.00000000e+00 0.00000000e+00 0.00000000e+00 0.00000000e+00 0.00000000e+00 0.00000000e+00 0.00000000e+00 0.00000000e+00 0.00000000e+00 0.00000000e+00 0.00000000e+00 0.00000000e+00 0.00000000e+00 0.00000000e+00 0.00000000e+00 0.00000000e+00 0.00000000e+00 0.00000000e+00 0.00000000e+00 0.00000000e+00 0.00000000e+00 0.00000000e+00 0.00000000e+00 0.00000000e+00 0.00000000e+00 0.00000000e+00 0.00000000e+00 0.00000000e+00 0.00000000e+00 0.00000000e+00 0.00000000e+00 0.00000000e+00 0.00000000e+00 0.00000000e+00 0.00000000e+00 0.00000000e+00 0.00000000e+00 0.00000000e+00 0.00000000e+00 0.00000000e+00 0.00000000e+00 0.00000000e+00 0.00000000e+00 0.00000000e+00 0.00000000e+00 0.00000000e+00 0.00000000e+00 0.00000000e+00 0.00000000e+00 0.00000000e+00 0.00000000e+00 0.00000000e+00 0.00000000e+00 0.00000000e+00 0.00000000e+00 0.00000000e+00 0.00000000e+00 0.00000000e+00 0.00000000e+00 0.00000000e+00 0.00000000e+00 0.00000000e+00 0.00000000e+00 0.00000000e+00 0.00000000e+00 0.00000000e+00 0.00000000e+00 0.00000000e+00 0.00000000e+00 0.00000000e+00 0.00000000e+00 0.00000000e+00 0.00000000e+00 0.00000000e+00 0.00000000e+00 0.00000000e+00 0.00000000e+00 0.00000000e+00 0.00000000e+00 0.00000000e+00 0.00000000e+00 0.00000000e+00 0.00000000e+00 0.00000000e+00 0.00000000e+00 0.00000000e+00 0.00000000e+00 0.00000000e+00 0.00000000e+00 0.00000000e+00 0.00000000e+00 0.00000000e+00 0.00000000e+00 0.00000000e+00 0.00000000e+00 0.00000000e+00 0.00000000e+00 0.00000000e+00 0.00000000e+00 0.00000000e+00 0.00000000e+00 0.00000000e+00 0.00000000e+00 0.00000000e+00 0.00000000e+00 0.00000000e+00 0.00000000e+00 0.00000000e+00 0.00000000e+00 0.00000000e+00 0.00000000e+00 0.00000000e+00 0.00000000e+00 0.00000000e+00 0.00000000e+00 0.00000000e+00 0.00000000e+00 0.00000000e+00 0.00000000e+00 0.00000000e+00 0.00000000e+00 0.00000000e+00 0.00000000e+00 0.00000000e+00 0.00000000e+00 0.00000000e+00 0.00000000e+00 0.00000000e+00 0.00000000e+00 0.00000000e+00 0.00000000e+00 0.00000000e+00 0.00000000e+00 0.00000000e+00 0.00000000e+00 0.00000000e+00 0.00000000e+00 0.00000000e+00 0.00000000e+00 0.00000000e+00 0.00000000e+00 0.00000000e+00 0.00000000e+00 0.00000000e+00 0.00000000e+00 0.00000000e+00 0.00000000e+00 0.00000000e+00 0.00000000e+00 0.00000000e+00 0.00000000e+00 0.00000000e+00 0.00000000e+00 0.00000000e+00 0.00000000e+00 0.00000000e+00 0.00000000e+00 0.00000000e+00 0.00000000e+00 0.00000000e+00 0.00000000e+00 0.00000000e+00 0.00000000e+00 0.00000000e+00 0.00000000e+00 0.00000000e+00 0.00000000e+00 0.00000000e+00 0.00000000e+00 0.00000000e+00 0.00000000e+00 0.00000000e+00 0.00000000e+00 0.00000000e+00 0.00000000e+00 0.00000000e+00 0.00000000e+00 0.00000000e+00 0.00000000e+00 0.00000000e+00 0.00000000e+00 0.00000000e+00 0.00000000e+00 0.00000000e+00 0.00000000e+00 0.00000000e+00 0.00000000e+00 0.00000000e+00 0.00000000e+00 0.00000000e+00 0.00000000e+00 0.00000000e+00 0.00000000e+00 0.00000000e+00 0.00000000e+00 0.00000000e+00 0.00000000e+00 0.00000000e+00 0.00000000e+00 0.00000000e+00 0.00000000e+00 0.00000000e+00 0.00000000e+00 0.00000000e+00 0.00000000e+00 0.00000000e+00 0.00000000e+00 8.06753672e-01 8.06753672e-01 0.00000000e+00 0.00000000e+00 0.00000000e+00 0.00000000e+00 0.00000000e+00 0.00000000e+00 8.06753672e-01 0.00000000e+00 0.00000000e+00 0.00000000e+00 0.00000000e+00 0.00000000e+00 0.00000000e+00 0.00000000e+00 0.00000000e+00 0.00000000e+00 0.00000000e+00 8.06753672e-01 0.00000000e+00 0.00000000e+00 0.00000000e+00 0.00000000e+00 8.06753672e-01 0.00000000e+00 0.00000000e+00 0.00000000e+00 8.06753672e-01 0.00000000e+00 1.61350734e+00 0.00000000e+00 8.06753672e-01 8.06753672e-01 0.00000000e+00 0.00000000e+00 0.00000000e+00 0.00000000e+00 0.00000000e+00 8.06753672e-01 0.00000000e+00 0.00000000e+00 0.00000000e+00 0.00000000e+00 8.06753672e-01 0.00000000e+00 0.00000000e+00 0.00000000e+00 0.00000000e+00 0.00000000e+00 0.00000000e+00 0.00000000e+00 0.00000000e+00 8.06753672e-01 0.00000000e+00 0.00000000e+00 8.06753672e-01 0.00000000e+00 8.06753672e-01 0.00000000e+00 0.00000000e+00 0.00000000e+00 0.00000000e+00 8.06753672e-01 0.00000000e+00 0.00000000e+00 0.00000000e+00 0.00000000e+00 0.00000000e+00 0.00000000e+00 0.00000000e+00 0.00000000e+00 1.61350734e+00 0.00000000e+00 0.00000000e+00 0.00000000e+00 0.00000000e+00 0.00000000e+00 0.00000000e+00 0.00000000e+00 0.00000000e+00 0.00000000e+00 8.06753672e-01 0.00000000e+00 0.00000000e+00 0.00000000e+00 0.00000000e+00 0.00000000e+00 0.00000000e+00 1.61350734e+00 0.00000000e+00 8.06753672e-01 0.00000000e+00 0.00000000e+00 0.00000000e+00 8.06753672e-01 0.00000000e+00 0.00000000e+00 8.06753672e-01 0.00000000e+00 1.61350734e+00 0.00000000e+00 0.00000000e+00 0.00000000e+00 0.00000000e+00 0.00000000e+00 0.00000000e+00 0.00000000e+00 0.00000000e+00 0.00000000e+00 8.06753672e-01 0.00000000e+00 0.00000000e+00 0.00000000e+00 0.00000000e+00 0.00000000e+00 0.00000000e+00 0.00000000e+00 0.00000000e+00 0.00000000e+00 0.00000000e+00 1.61350734e+00 0.00000000e+00 0.00000000e+00 8.06753672e-01 0.00000000e+00 0.00000000e+00 1.61350734e+00 0.00000000e+00 0.00000000e+00 2.42026102e+00 0.00000000e+00 0.00000000e+00 0.00000000e+00 8.06753672e-01 0.00000000e+00 0.00000000e+00 8.06753672e-01 0.00000000e+00 0.00000000e+00 8.06753672e-01 8.06753672e-01 0.00000000e+00 0.00000000e+00 0.00000000e+00 0.00000000e+00 0.00000000e+00 0.00000000e+00 0.00000000e+00 0.00000000e+00 0.00000000e+00 0.00000000e+00 0.00000000e+00 0.00000000e+00 0.00000000e+00 0.00000000e+00 0.00000000e+00 1.61350734e+00 8.06753672e-01 0.00000000e+00 2.42026102e+00 8.06753672e-01 8.06753672e-01 1.61350734e+00 0.00000000e+00 0.00000000e+00 8.06753672e-01 0.00000000e+00 8.06753672e-01 0.00000000e+00 0.00000000e+00 0.00000000e+00 0.00000000e+00 0.00000000e+00 0.00000000e+00 8.06753672e-01 8.06753672e-01 8.06753672e-01 0.00000000e+00 8.06753672e-01 0.00000000e+00 0.00000000e+00 8.06753672e-01 0.00000000e+00 8.06753672e-01 0.00000000e+00 0.00000000e+00 0.00000000e+00 0.00000000e+00 8.06753672e-01 0.00000000e+00 1.61350734e+00 8.06753672e-01 0.00000000e+00 0.00000000e+00 8.06753672e-01 0.00000000e+00 8.06753672e-01 0.00000000e+00 8.06753672e-01 0.00000000e+00 1.61350734e+00 0.00000000e+00 0.00000000e+00 0.00000000e+00 0.00000000e+00 0.00000000e+00 0.00000000e+00 0.00000000e+00 0.00000000e+00 8.06753672e-01 0.00000000e+00 1.61350734e+00 0.00000000e+00 8.06753672e-01 3.22701469e+00 0.00000000e+00 0.00000000e+00 0.00000000e+00 0.00000000e+00 0.00000000e+00 0.00000000e+00 0.00000000e+00 8.06753672e-01 0.00000000e+00 0.00000000e+00 8.06753672e-01 8.06753672e-01 0.00000000e+00 8.06753672e-01 8.06753672e-01 8.06753672e-01 1.61350734e+00 0.00000000e+00 0.00000000e+00 0.00000000e+00 0.00000000e+00 0.00000000e+00 0.00000000e+00 0.00000000e+00 0.00000000e+00 8.06753672e-01 1.61350734e+00 0.00000000e+00 0.00000000e+00 0.00000000e+00 0.00000000e+00 0.00000000e+00 0.00000000e+00 8.06753672e-01 1.61350734e+00 1.61350734e+00 8.06753672e-01 0.00000000e+00 0.00000000e+00 1.61350734e+00 1.61350734e+00 8.06753672e-01 0.00000000e+00 8.06753672e-01 8.06753672e-01 1.61350734e+00 0.00000000e+00 0.00000000e+00 0.00000000e+00 1.61350734e+00 0.00000000e+00 1.61350734e+00 0.00000000e+00 1.61350734e+00 0.00000000e+00 8.06753672e-01 0.00000000e+00 0.00000000e+00 8.06753672e-01 8.06753672e-01 0.00000000e+00 1.61350734e+00 0.00000000e+00 0.00000000e+00 8.06753672e-01 0.00000000e+00 0.00000000e+00 0.00000000e+00 0.00000000e+00 0.00000000e+00 0.00000000e+00 0.00000000e+00 0.00000000e+00 8.06753672e-01 8.06753672e-01 0.00000000e+00 8.06753672e-01 8.06753672e-01 1.61350734e+00 8.06753672e-01 1.61350734e+00 1.61350734e+00 0.00000000e+00 0.00000000e+00 8.06753672e-01 0.00000000e+00 1.61350734e+00 1.61350734e+00 8.06753672e-01 1.61350734e+00 8.06753672e-01 0.00000000e+00 8.06753672e-01 1.61350734e+00 0.00000000e+00 8.06753672e-01 0.00000000e+00 0.00000000e+00 0.00000000e+00 8.06753672e-01 1.61350734e+00 8.06753672e-01 1.61350734e+00 1.61350734e+00 8.06753672e-01 8.06753672e-01 3.22701469e+00 8.06753672e-01 0.00000000e+00 0.00000000e+00 0.00000000e+00 0.00000000e+00 1.61350734e+00 2.42026102e+00 8.06753672e-01 0.00000000e+00 8.06753672e-01 0.00000000e+00 0.00000000e+00 0.00000000e+00 8.06753672e-01 8.06753672e-01 0.00000000e+00 0.00000000e+00 3.22701469e+00 0.00000000e+00 1.61350734e+00 2.42026102e+00 0.00000000e+00 1.61350734e+00 8.06753672e-01 1.61350734e+00 0.00000000e+00 8.06753672e-01 1.61350734e+00 1.61350734e+00 8.06753672e-01 3.22701469e+00 1.61350734e+00 8.06753672e-01 8.06753672e-01 8.06753672e-01 0.00000000e+00 8.06753672e-01 1.61350734e+00 8.06753672e-01 8.06753672e-01 0.00000000e+00 1.61350734e+00 8.06753672e-01 1.61350734e+00 0.00000000e+00 8.06753672e-01 0.00000000e+00 1.61350734e+00 8.06753672e-01 8.06753672e-01 0.00000000e+00 0.00000000e+00 0.00000000e+00 1.61350734e+00 1.61350734e+00 1.61350734e+00 3.22701469e+00 3.22701469e+00 0.00000000e+00 8.06753672e-01 8.06753672e-01 0.00000000e+00 4.03376836e+00 0.00000000e+00 8.06753672e-01 1.61350734e+00 8.06753672e-01 1.61350734e+00 8.06753672e-01 8.06753672e-01 0.00000000e+00 1.61350734e+00 0.00000000e+00 0.00000000e+00 8.06753672e-01 1.61350734e+00 8.06753672e-01 0.00000000e+00 4.03376836e+00 1.61350734e+00 3.22701469e+00 0.00000000e+00 1.61350734e+00 8.06753672e-01 8.06753672e-01 8.06753672e-01 1.61350734e+00 4.03376836e+00 0.00000000e+00 0.00000000e+00 0.00000000e+00 2.42026102e+00 2.42026102e+00 0.00000000e+00 2.42026102e+00 1.61350734e+00 0.00000000e+00 3.22701469e+00 1.61350734e+00 4.03376836e+00 2.42026102e+00 2.42026102e+00 1.61350734e+00 8.06753672e-01 0.00000000e+00 0.00000000e+00 8.06753672e-01 8.06753672e-01 8.06753672e-01 1.61350734e+00 1.61350734e+00 8.06753672e-01 3.22701469e+00 8.06753672e-01 0.00000000e+00 1.61350734e+00 2.42026102e+00 0.00000000e+00 8.06753672e-01 0.00000000e+00 2.42026102e+00 0.00000000e+00 0.00000000e+00 0.00000000e+00 0.00000000e+00 0.00000000e+00 3.22701469e+00 2.42026102e+00 8.06753672e-01 0.00000000e+00 8.06753672e-01 3.22701469e+00 1.61350734e+00 2.42026102e+00 2.42026102e+00 1.61350734e+00 8.06753672e-01 4.03376836e+00 3.22701469e+00 1.61350734e+00 0.00000000e+00 2.42026102e+00 4.84052203e+00 8.06753672e-01 5.64727570e+00 1.61350734e+00 3.22701469e+00 2.42026102e+00 0.00000000e+00 0.00000000e+00 8.06753672e-01 4.84052203e+00 1.61350734e+00 2.42026102e+00 2.42026102e+00 0.00000000e+00 3.22701469e+00 3.22701469e+00 1.61350734e+00 8.06753672e-01 3.22701469e+00 3.22701469e+00 8.06753672e-01 3.22701469e+00 2.42026102e+00 2.42026102e+00 1.61350734e+00 6.45402937e+00 1.61350734e+00 1.61350734e+00 2.42026102e+00 2.42026102e+00 1.61350734e+00 2.42026102e+00 1.61350734e+00 1.61350734e+00 1.61350734e+00 4.03376836e+00 2.42026102e+00 3.22701469e+00 2.42026102e+00 2.42026102e+00 4.03376836e+00 8.87429039e+00 2.42026102e+00 1.61350734e+00 5.64727570e+00 8.06753672e-01 8.06753672e-01 8.06753672e-01 3.22701469e+00 5.64727570e+00 1.61350734e+00 2.42026102e+00 5.64727570e+00 1.61350734e+00 8.06753672e-01 1.61350734e+00 2.42026102e+00 8.06753672e-01 8.06753672e-01 5.64727570e+00 8.06753672e-01 1.61350734e+00 3.22701469e+00 2.42026102e+00 3.22701469e+00 2.42026102e+00 3.22701469e+00 3.22701469e+00 4.84052203e+00 4.03376836e+00 8.06753672e-01 7.26078305e+00 2.42026102e+00 4.03376836e+00 5.64727570e+00 1.61350734e+00 5.64727570e+00 5.64727570e+00 4.03376836e+00 4.03376836e+00 2.42026102e+00 2.42026102e+00 4.84052203e+00 4.03376836e+00 8.06753672e-01 1.61350734e+00 2.42026102e+00 4.84052203e+00 3.22701469e+00 3.22701469e+00 1.61350734e+00 4.84052203e+00 5.64727570e+00 1.61350734e+00 4.03376836e+00 8.06753672e-01 3.22701469e+00 8.06753672e-01 1.61350734e+00 7.26078305e+00 8.87429039e+00 1.61350734e+00 4.03376836e+00 4.03376836e+00 5.64727570e+00 1.61350734e+00 2.42026102e+00 5.64727570e+00 1.61350734e+00 4.03376836e+00 4.03376836e+00 7.26078305e+00 1.61350734e+00 2.42026102e+00 1.61350734e+00 3.22701469e+00 3.22701469e+00 4.84052203e+00 4.84052203e+00 4.03376836e+00 2.42026102e+00 2.42026102e+00 3.22701469e+00 5.64727570e+00 4.84052203e+00 1.61350734e+00 1.61350734e+00 5.64727570e+00 4.84052203e+00 5.64727570e+00 5.64727570e+00 2.42026102e+00 5.64727570e+00 3.22701469e+00 6.45402937e+00 7.26078305e+00 2.42026102e+00 3.22701469e+00 7.26078305e+00 3.22701469e+00 1.61350734e+00 2.42026102e+00 7.26078305e+00 5.64727570e+00 4.03376836e+00 7.26078305e+00 4.84052203e+00 5.64727570e+00 4.03376836e+00 4.84052203e+00 2.42026102e+00 4.84052203e+00 1.61350734e+00 4.03376836e+00 3.22701469e+00 0.00000000e+00 4.84052203e+00 4.84052203e+00 4.03376836e+00 4.03376836e+00 4.84052203e+00 6.45402937e+00 4.03376836e+00 8.06753672e+00 5.64727570e+00 4.03376836e+00 5.64727570e+00 4.84052203e+00 4.84052203e+00 4.03376836e+00 9.68104406e+00 2.42026102e+00 6.45402937e+00 6.45402937e+00 9.68104406e+00 4.84052203e+00 6.45402937e+00 5.64727570e+00 6.45402937e+00 6.45402937e+00 4.03376836e+00 3.22701469e+00 6.45402937e+00 6.45402937e+00 5.64727570e+00 1.61350734e+00 4.84052203e+00 8.06753672e+00 3.22701469e+00 6.45402937e+00 1.37148124e+01 4.03376836e+00 5.64727570e+00 5.64727570e+00 1.12945514e+01 1.12945514e+01 4.03376836e+00 4.03376836e+00 6.45402937e+00 6.45402937e+00 5.64727570e+00 8.06753672e+00 8.87429039e+00 4.84052203e+00 4.84052203e+00 7.26078305e+00 5.64727570e+00 6.45402937e+00 7.26078305e+00 8.06753672e+00 8.06753672e+00 4.03376836e+00 5.64727570e+00 6.45402937e+00 8.06753672e+00 4.03376836e+00 5.64727570e+00 2.42026102e+00 5.64727570e+00 5.64727570e+00 7.26078305e+00 4.84052203e+00 1.37148124e+01 3.22701469e+00 6.45402937e+00 6.45402937e+00 2.42026102e+00 7.26078305e+00 9.68104406e+00 2.42026102e+00 8.06753672e+00 5.64727570e+00 8.06753672e+00 8.06753672e+00 6.45402937e+00 5.64727570e+00 7.26078305e+00 4.84052203e+00 5.64727570e+00 2.42026102e+00 2.42026102e+00 8.06753672e+00 7.26078305e+00 4.03376836e+00 4.84052203e+00 4.84052203e+00 5.64727570e+00 4.84052203e+00 3.22701469e+00 3.22701469e+00 6.45402937e+00 8.87429039e+00 1.61350734e+00 5.64727570e+00 7.26078305e+00 5.64727570e+00 8.06753672e+00 9.68104406e+00 8.06753672e+00 5.64727570e+00 4.03376836e+00 4.03376836e+00 1.04877977e+01 4.84052203e+00 1.61350734e+00 3.22701469e+00 2.42026102e+00 6.45402937e+00 6.45402937e+00 3.22701469e+00 5.64727570e+00 3.22701469e+00 3.22701469e+00 7.26078305e+00 7.26078305e+00 6.45402937e+00 8.06753672e+00 6.45402937e+00 5.64727570e+00 8.87429039e+00 4.03376836e+00 4.84052203e+00 3.22701469e+00 3.22701469e+00 3.22701469e+00 2.42026102e+00 5.64727570e+00 3.22701469e+00 3.22701469e+00 4.03376836e+00 2.42026102e+00 5.64727570e+00 4.84052203e+00 4.84052203e+00 4.84052203e+00 8.06753672e-01 6.45402937e+00 5.64727570e+00 5.64727570e+00 4.84052203e+00 1.61350734e+00 3.22701469e+00 4.03376836e+00 2.42026102e+00 8.06753672e-01 4.84052203e+00 8.06753672e-01 8.06753672e-01 8.06753672e-01 2.42026102e+00 0.00000000e+00 4.03376836e+00 6.45402937e+00 8.06753672e-01 3.22701469e+00 2.42026102e+00 8.06753672e-01 4.84052203e+00 3.22701469e+00 3.22701469e+00 8.06753672e-01 1.61350734e+00 8.06753672e-01 8.06753672e-01 0.00000000e+00 4.03376836e+00 1.61350734e+00 8.06753672e-01 2.42026102e+00 4.84052203e+00 8.06753672e-01 1.61350734e+00 8.06753672e-01 2.42026102e+00 0.00000000e+00 8.06753672e-01 8.06753672e-01 1.61350734e+00 1.61350734e+00 3.22701469e+00 8.06753672e-01 1.61350734e+00 1.61350734e+00 0.00000000e+00 8.06753672e-01 1.61350734e+00 0.00000000e+00 1.61350734e+00 1.61350734e+00 8.06753672e-01 3.22701469e+00 3.22701469e+00 0.00000000e+00 0.00000000e+00 0.00000000e+00 8.06753672e-01 3.22701469e+00 8.06753672e-01 0.00000000e+00 0.00000000e+00 1.61350734e+00 0.00000000e+00 8.06753672e-01 1.61350734e+00 0.00000000e+00 0.00000000e+00 3.22701469e+00 8.06753672e-01 2.42026102e+00 0.00000000e+00 0.00000000e+00 0.00000000e+00 8.06753672e-01 8.06753672e-01 1.61350734e+00 0.00000000e+00 8.06753672e-01 8.06753672e-01 8.06753672e-01 1.61350734e+00 2.42026102e+00 8.06753672e-01 0.00000000e+00 0.00000000e+00 0.00000000e+00 0.00000000e+00 0.00000000e+00 0.00000000e+00 2.42026102e+00 8.06753672e-01 3.22701469e+00 0.00000000e+00 0.00000000e+00 0.00000000e+00 0.00000000e+00 0.00000000e+00 0.00000000e+00 0.00000000e+00 1.61350734e+00 1.61350734e+00 0.00000000e+00 8.06753672e-01 0.00000000e+00 0.00000000e+00 0.00000000e+00 8.06753672e-01 0.00000000e+00 8.06753672e-01 0.00000000e+00 0.00000000e+00 0.00000000e+00 0.00000000e+00 0.00000000e+00 0.00000000e+00 0.00000000e+00 0.00000000e+00 0.00000000e+00 0.00000000e+00 0.00000000e+00 0.00000000e+00 0.00000000e+00 0.00000000e+00 0.00000000e+00 0.00000000e+00 0.00000000e+00 0.00000000e+00 0.00000000e+00 0.00000000e+00 8.06753672e-01 0.00000000e+00 8.06753672e-01 0.00000000e+00 0.00000000e+00 0.00000000e+00 0.00000000e+00 0.00000000e+00 0.00000000e+00 0.00000000e+00 0.00000000e+00 0.00000000e+00 0.00000000e+00 0.00000000e+00 0.00000000e+00 0.00000000e+00 0.00000000e+00 0.00000000e+00 0.00000000e+00 1.61350734e+00 0.00000000e+00 0.00000000e+00 0.00000000e+00 0.00000000e+00 0.00000000e+00 8.06753672e-01 0.00000000e+00 0.00000000e+00 0.00000000e+00 0.00000000e+00 0.00000000e+00 0.00000000e+00 0.00000000e+00 0.00000000e+00 0.00000000e+00 0.00000000e+00 
      </Histogram>
    </PDF>
    <PDF Name="BDT_PDFBkg" MinNSmooth="0" MaxNSmooth="0" InterpolMethod="2" KDE_type="1" KDE_iter="1" KDE_border="1" KDE_finefactor="1.0000000000000000e+00">
      <Histogram Name="BDT_tr_B_original" NBins="2080" XMin="-7.2629690170288086e-01" XMax="4.6402364969253540e-01" HasEquidistantBins="1">
        3.43114063e-02 0.00000000e+00 0.00000000e+00 0.00000000e+00 0.00000000e+00 0.00000000e+00 0.00000000e+00 0.00000000e+00 0.00000000e+00 0.00000000e+00 0.00000000e+00 0.00000000e+00 0.00000000e+00 0.00000000e+00 0.00000000e+00 0.00000000e+00 0.00000000e+00 0.00000000e+00 0.00000000e+00 0.00000000e+00 0.00000000e+00 0.00000000e+00 0.00000000e+00 0.00000000e+00 0.00000000e+00 0.00000000e+00 3.43114063e-02 1.71557031e-02 0.00000000e+00 1.71557031e-02 0.00000000e+00 1.71557031e-02 0.00000000e+00 1.71557031e-02 0.00000000e+00 0.00000000e+00 0.00000000e+00 0.00000000e+00 1.71557031e-02 1.71557031e-02 1.71557031e-02 0.00000000e+00 1.71557031e-02 1.71557031e-02 6.86228125e-02 3.43114063e-02 0.00000000e+00 1.88712734e-01 0.00000000e+00 1.71557031e-02 0.00000000e+00 0.00000000e+00 0.00000000e+00 1.02934219e-01 2.23024141e-01 3.43114063e-02 1.71557031e-02 0.00000000e+00 6.86228125e-02 0.00000000e+00 0.00000000e+00 0.00000000e+00 8.57785156e-02 1.71557031e-02 5.14671094e-02 3.43114063e-02 3.43114063e-02 0.00000000e+00 1.71557031e-02 8.57785156e-02 1.71557031e-02 1.88712734e-01 1.37245625e-01 2.57335547e-01 3.43114063e-02 3.43114063e-02 8.57785156e-02 2.23024141e-01 1.71557031e-01 3.43114063e-02 5.14671094e-02 1.37245625e-01 1.20089922e-01 6.86228125e-02 1.20089922e-01 1.02934219e-01 1.54401328e-01 3.43114063e-02 5.14671094e-02 6.86228125e-02 5.14671094e-02 1.20089922e-01 8.57785156e-02 6.86228125e-02 1.20089922e-01 3.43114063e-02 8.57785156e-02 1.88712734e-01 1.02934219e-01 2.05868438e-01 1.20089922e-01 1.54401328e-01 8.57785156e-02 1.20089922e-01 1.54401328e-01 1.71557031e-01 1.71557031e-01 1.02934219e-01 5.14671094e-02 1.37245625e-01 6.86228125e-02 1.02934219e-01 2.74491250e-01 1.71557031e-02 6.86228125e-02 3.43114063e-02 4.28892578e-01 2.23024141e-01 2.57335547e-01 2.23024141e-01 1.54401328e-01 1.37245625e-01 2.74491250e-01 1.20089922e-01 2.40179844e-01 5.14671094e-02 1.71557031e-01 2.23024141e-01 2.05868438e-01 2.74491250e-01 1.54401328e-01 3.25958359e-01 4.28892578e-01 2.05868438e-01 3.08802656e-01 2.91646953e-01 2.05868438e-01 3.08802656e-01 1.20089922e-01 4.63203984e-01 4.11736875e-01 1.71557031e-01 3.77425469e-01 4.28892578e-01 1.37245625e-01 8.57785156e-02 3.43114063e-01 2.74491250e-01 1.20089922e-01 2.23024141e-01 3.43114063e-01 1.54401328e-01 1.71557031e-01 1.37245625e-01 1.71557031e-01 6.17605313e-01 2.57335547e-01 2.23024141e-01 2.40179844e-01 2.23024141e-01 3.08802656e-01 4.63203984e-01 2.23024141e-01 6.69072422e-01 2.74491250e-01 3.08802656e-01 4.11736875e-01 2.74491250e-01 2.40179844e-01 2.23024141e-01 2.23024141e-01 1.88712734e-01 5.66138203e-01 3.25958359e-01 4.63203984e-01 3.43114063e-01 1.54401328e-01 4.11736875e-01 4.80359688e-01 4.80359688e-01 3.25958359e-01 5.14671094e-01 3.25958359e-01 4.28892578e-01 5.31826797e-01 4.46048281e-01 1.54401328e-01 3.94581172e-01 2.74491250e-01 7.03383828e-01 5.14671094e-01 4.11736875e-01 3.94581172e-01 7.89162344e-01 4.97515391e-01 3.43114063e-01 3.94581172e-01 4.63203984e-01 4.11736875e-01 4.63203984e-01 4.80359688e-01 4.80359688e-01 3.94581172e-01 3.25958359e-01 7.20539531e-01 3.77425469e-01 4.11736875e-01 3.94581172e-01 5.31826797e-01 6.34761016e-01 5.48982500e-01 6.17605313e-01 4.63203984e-01 5.31826797e-01 4.80359688e-01 6.86228125e-01 4.46048281e-01 5.31826797e-01 5.66138203e-01 3.94581172e-01 4.46048281e-01 6.86228125e-01 4.46048281e-01 6.34761016e-01 5.66138203e-01 5.66138203e-01 5.83293906e-01 7.20539531e-01 6.51916719e-01 5.66138203e-01 6.69072422e-01 6.69072422e-01 6.17605313e-01 3.25958359e-01 5.31826797e-01 7.03383828e-01 7.72006641e-01 5.66138203e-01 3.77425469e-01 6.00449609e-01 6.34761016e-01 8.40629453e-01 6.51916719e-01 1.01218648e+00 8.40629453e-01 6.34761016e-01 7.54850938e-01 7.03383828e-01 7.72006641e-01 6.34761016e-01 6.34761016e-01 6.69072422e-01 7.20539531e-01 5.66138203e-01 7.20539531e-01 6.00449609e-01 6.34761016e-01 6.00449609e-01 8.23473750e-01 6.34761016e-01 6.00449609e-01 1.14943211e+00 9.77875078e-01 8.40629453e-01 9.26407969e-01 8.74940859e-01 1.08080930e+00 1.02934219e+00 7.37695234e-01 9.43563672e-01 1.04649789e+00 7.89162344e-01 8.23473750e-01 9.95030781e-01 8.57785156e-01 7.03383828e-01 8.92096563e-01 7.89162344e-01 8.06318047e-01 7.72006641e-01 8.74940859e-01 1.02934219e+00 1.16658781e+00 7.72006641e-01 8.57785156e-01 1.01218648e+00 8.06318047e-01 8.74940859e-01 9.43563672e-01 1.11512070e+00 8.92096563e-01 1.02934219e+00 9.43563672e-01 1.02934219e+00 1.13227641e+00 1.57832469e+00 6.69072422e-01 1.50970188e+00 1.14943211e+00 1.01218648e+00 1.09796500e+00 1.01218648e+00 1.01218648e+00 1.45823477e+00 7.72006641e-01 8.74940859e-01 1.33814484e+00 8.74940859e-01 7.72006641e-01 1.11512070e+00 1.45823477e+00 9.95030781e-01 1.16658781e+00 1.04649789e+00 9.60719375e-01 9.77875078e-01 1.16658781e+00 1.20089922e+00 1.16658781e+00 1.30383344e+00 1.25236633e+00 1.01218648e+00 1.04649789e+00 1.30383344e+00 1.35530055e+00 1.26952203e+00 1.44107906e+00 1.06365359e+00 1.09796500e+00 1.09796500e+00 1.26952203e+00 1.38961195e+00 1.18374352e+00 1.33814484e+00 1.59548039e+00 9.77875078e-01 1.18374352e+00 1.35530055e+00 1.02934219e+00 1.32098914e+00 1.09796500e+00 1.21805492e+00 1.13227641e+00 1.40676766e+00 1.47539047e+00 1.28667773e+00 1.47539047e+00 1.21805492e+00 1.85281594e+00 1.45823477e+00 1.38961195e+00 1.33814484e+00 1.54401328e+00 1.16658781e+00 1.42392336e+00 1.49254617e+00 1.25236633e+00 1.26952203e+00 1.74988172e+00 1.35530055e+00 1.62979180e+00 1.76703742e+00 1.54401328e+00 1.92143875e+00 1.50970188e+00 1.50970188e+00 1.66410320e+00 1.47539047e+00 1.64694750e+00 2.12730719e+00 1.73272602e+00 1.32098914e+00 1.54401328e+00 1.76703742e+00 1.30383344e+00 1.69841461e+00 1.30383344e+00 1.66410320e+00 1.64694750e+00 1.69841461e+00 1.47539047e+00 1.73272602e+00 1.62979180e+00 1.80134883e+00 1.66410320e+00 1.83566023e+00 1.59548039e+00 1.30383344e+00 1.64694750e+00 1.73272602e+00 1.64694750e+00 1.52685758e+00 1.44107906e+00 1.73272602e+00 1.74988172e+00 1.86997164e+00 1.50970188e+00 2.14446289e+00 1.76703742e+00 1.59548039e+00 2.09299578e+00 1.71557031e+00 1.45823477e+00 1.92143875e+00 1.92143875e+00 1.92143875e+00 1.74988172e+00 1.50970188e+00 2.12730719e+00 1.69841461e+00 1.99006156e+00 1.88712734e+00 1.71557031e+00 1.57832469e+00 1.97290586e+00 1.62979180e+00 1.59548039e+00 1.95575016e+00 1.59548039e+00 1.92143875e+00 1.74988172e+00 1.81850453e+00 2.28170852e+00 2.23024141e+00 1.73272602e+00 1.78419313e+00 1.92143875e+00 1.93859445e+00 2.05868438e+00 1.71557031e+00 2.16161859e+00 2.12730719e+00 2.02437297e+00 2.23024141e+00 2.04152867e+00 2.36748703e+00 1.56116898e+00 2.11015148e+00 1.99006156e+00 1.88712734e+00 2.07584008e+00 1.85281594e+00 1.81850453e+00 1.99006156e+00 1.83566023e+00 2.14446289e+00 2.12730719e+00 2.53904406e+00 2.38464273e+00 2.11015148e+00 1.76703742e+00 2.41895414e+00 2.31601992e+00 2.07584008e+00 2.17877430e+00 2.19593000e+00 2.17877430e+00 1.80134883e+00 1.86997164e+00 2.17877430e+00 2.28170852e+00 2.21308570e+00 1.66410320e+00 2.26455281e+00 2.21308570e+00 2.23024141e+00 2.07584008e+00 2.05868438e+00 1.88712734e+00 2.11015148e+00 2.62482258e+00 2.11015148e+00 2.07584008e+00 2.16161859e+00 2.47042125e+00 1.88712734e+00 1.92143875e+00 2.16161859e+00 2.48757695e+00 2.40179844e+00 2.24739711e+00 2.62482258e+00 2.26455281e+00 2.41895414e+00 2.24739711e+00 2.74491250e+00 2.69344539e+00 2.65913398e+00 2.14446289e+00 2.05868438e+00 2.05868438e+00 2.23024141e+00 2.40179844e+00 2.14446289e+00 2.16161859e+00 2.14446289e+00 2.40179844e+00 2.11015148e+00 2.24739711e+00 2.29886422e+00 2.11015148e+00 2.55619977e+00 2.47042125e+00 2.17877430e+00 2.12730719e+00 2.62482258e+00 2.11015148e+00 2.65913398e+00 2.33317563e+00 2.57335547e+00 2.24739711e+00 2.43610984e+00 2.81353531e+00 2.40179844e+00 2.35033133e+00 2.19593000e+00 2.43610984e+00 2.21308570e+00 2.17877430e+00 2.31601992e+00 1.88712734e+00 2.57335547e+00 2.33317563e+00 2.23024141e+00 2.28170852e+00 2.16161859e+00 1.97290586e+00 2.52188836e+00 2.21308570e+00 2.41895414e+00 2.67628969e+00 2.64197828e+00 3.01940375e+00 2.81353531e+00 2.48757695e+00 2.95078094e+00 2.48757695e+00 2.35033133e+00 2.57335547e+00 2.21308570e+00 2.45326555e+00 2.72775680e+00 2.71060109e+00 2.89931383e+00 2.74491250e+00 2.69344539e+00 2.40179844e+00 2.79637961e+00 2.35033133e+00 2.53904406e+00 2.40179844e+00 2.71060109e+00 2.23024141e+00 2.47042125e+00 2.59051117e+00 2.19593000e+00 2.81353531e+00 2.17877430e+00 2.72775680e+00 2.86500242e+00 2.72775680e+00 2.71060109e+00 2.52188836e+00 2.67628969e+00 2.55619977e+00 2.53904406e+00 2.67628969e+00 2.69344539e+00 2.28170852e+00 2.53904406e+00 2.62482258e+00 2.50473266e+00 2.83069102e+00 2.88215813e+00 2.36748703e+00 2.55619977e+00 2.35033133e+00 2.36748703e+00 2.41895414e+00 3.00224805e+00 2.79637961e+00 2.69344539e+00 2.72775680e+00 2.91646953e+00 2.93362523e+00 2.89931383e+00 2.35033133e+00 3.08802656e+00 2.62482258e+00 2.31601992e+00 2.35033133e+00 2.64197828e+00 2.69344539e+00 2.76206820e+00 2.64197828e+00 2.86500242e+00 2.48757695e+00 2.57335547e+00 2.48757695e+00 2.33317563e+00 2.84784672e+00 3.08802656e+00 2.59051117e+00 2.72775680e+00 2.55619977e+00 2.59051117e+00 2.60766688e+00 2.86500242e+00 2.67628969e+00 2.64197828e+00 2.81353531e+00 2.41895414e+00 3.22527219e+00 2.60766688e+00 2.67628969e+00 2.33317563e+00 2.64197828e+00 2.77922391e+00 2.43610984e+00 2.88215813e+00 2.93362523e+00 2.69344539e+00 2.77922391e+00 2.69344539e+00 2.43610984e+00 2.47042125e+00 2.47042125e+00 2.76206820e+00 2.71060109e+00 3.15664938e+00 2.89931383e+00 3.12233797e+00 2.64197828e+00 2.77922391e+00 2.50473266e+00 2.36748703e+00 2.48757695e+00 2.55619977e+00 3.07087086e+00 2.64197828e+00 3.03655945e+00 2.11015148e+00 2.71060109e+00 2.74491250e+00 2.71060109e+00 2.57335547e+00 2.69344539e+00 2.91646953e+00 2.35033133e+00 2.31601992e+00 2.91646953e+00 2.65913398e+00 2.45326555e+00 2.35033133e+00 2.98509234e+00 2.77922391e+00 3.08802656e+00 2.98509234e+00 2.72775680e+00 2.35033133e+00 3.03655945e+00 2.76206820e+00 2.47042125e+00 2.59051117e+00 2.79637961e+00 2.81353531e+00 2.64197828e+00 2.29886422e+00 2.55619977e+00 2.62482258e+00 2.67628969e+00 2.76206820e+00 2.47042125e+00 2.26455281e+00 2.36748703e+00 3.49976344e+00 2.81353531e+00 3.08802656e+00 3.15664938e+00 2.50473266e+00 2.43610984e+00 2.83069102e+00 2.36748703e+00 2.45326555e+00 2.60766688e+00 1.97290586e+00 2.74491250e+00 2.65913398e+00 2.19593000e+00 2.57335547e+00 2.40179844e+00 2.38464273e+00 2.65913398e+00 2.88215813e+00 2.64197828e+00 2.64197828e+00 3.07087086e+00 2.64197828e+00 2.48757695e+00 2.79637961e+00 2.52188836e+00 2.74491250e+00 2.59051117e+00 2.52188836e+00 2.55619977e+00 2.45326555e+00 2.71060109e+00 2.59051117e+00 2.88215813e+00 2.69344539e+00 1.97290586e+00 2.24739711e+00 2.52188836e+00 2.62482258e+00 2.83069102e+00 2.52188836e+00 2.41895414e+00 2.55619977e+00 2.52188836e+00 2.77922391e+00 2.21308570e+00 2.91646953e+00 2.57335547e+00 2.35033133e+00 2.89931383e+00 2.53904406e+00 2.12730719e+00 2.79637961e+00 2.72775680e+00 2.33317563e+00 2.45326555e+00 2.76206820e+00 2.79637961e+00 2.35033133e+00 2.19593000e+00 2.21308570e+00 2.43610984e+00 2.24739711e+00 2.47042125e+00 2.76206820e+00 2.52188836e+00 2.52188836e+00 2.84784672e+00 2.38464273e+00 2.57335547e+00 2.19593000e+00 2.24739711e+00 2.40179844e+00 2.67628969e+00 2.31601992e+00 2.43610984e+00 2.45326555e+00 2.40179844e+00 2.69344539e+00 2.41895414e+00 2.89931383e+00 2.53904406e+00 2.40179844e+00 2.29886422e+00 2.69344539e+00 2.55619977e+00 2.84784672e+00 2.57335547e+00 2.23024141e+00 2.65913398e+00 2.53904406e+00 2.09299578e+00 2.67628969e+00 2.26455281e+00 2.57335547e+00 2.16161859e+00 2.41895414e+00 2.23024141e+00 2.52188836e+00 1.92143875e+00 2.96793664e+00 2.77922391e+00 2.28170852e+00 2.52188836e+00 1.97290586e+00 2.72775680e+00 2.43610984e+00 2.57335547e+00 1.88712734e+00 2.12730719e+00 2.19593000e+00 2.29886422e+00 2.19593000e+00 2.77922391e+00 2.43610984e+00 2.07584008e+00 2.28170852e+00 2.26455281e+00 2.53904406e+00 2.17877430e+00 2.47042125e+00 2.45326555e+00 2.55619977e+00 2.48757695e+00 2.40179844e+00 2.21308570e+00 1.92143875e+00 1.99006156e+00 2.62482258e+00 2.28170852e+00 2.17877430e+00 2.16161859e+00 2.19593000e+00 2.09299578e+00 2.12730719e+00 2.71060109e+00 2.23024141e+00 2.41895414e+00 1.97290586e+00 2.40179844e+00 2.12730719e+00 2.36748703e+00 2.12730719e+00 2.38464273e+00 2.62482258e+00 2.04152867e+00 2.26455281e+00 2.09299578e+00 1.85281594e+00 2.02437297e+00 2.02437297e+00 1.90428305e+00 2.21308570e+00 1.95575016e+00 2.35033133e+00 2.07584008e+00 2.14446289e+00 1.78419313e+00 1.62979180e+00 1.95575016e+00 2.28170852e+00 1.86997164e+00 2.07584008e+00 1.86997164e+00 2.45326555e+00 1.80134883e+00 2.62482258e+00 2.21308570e+00 2.12730719e+00 1.76703742e+00 2.09299578e+00 2.19593000e+00 2.29886422e+00 1.99006156e+00 1.69841461e+00 2.14446289e+00 1.95575016e+00 2.28170852e+00 1.78419313e+00 1.83566023e+00 2.11015148e+00 1.88712734e+00 1.95575016e+00 1.83566023e+00 2.12730719e+00 1.99006156e+00 1.88712734e+00 2.12730719e+00 1.61263609e+00 1.83566023e+00 1.62979180e+00 1.92143875e+00 1.74988172e+00 1.78419313e+00 2.09299578e+00 2.17877430e+00 2.00721727e+00 2.11015148e+00 1.57832469e+00 1.92143875e+00 2.16161859e+00 2.12730719e+00 1.93859445e+00 1.66410320e+00 1.90428305e+00 1.73272602e+00 1.47539047e+00 1.76703742e+00 1.68125891e+00 1.73272602e+00 1.83566023e+00 1.59548039e+00 2.02437297e+00 2.09299578e+00 1.92143875e+00 2.07584008e+00 1.93859445e+00 1.44107906e+00 1.71557031e+00 1.73272602e+00 1.90428305e+00 1.80134883e+00 1.76703742e+00 1.64694750e+00 1.56116898e+00 1.64694750e+00 2.04152867e+00 2.05868438e+00 1.86997164e+00 1.76703742e+00 1.71557031e+00 2.11015148e+00 1.49254617e+00 1.32098914e+00 1.73272602e+00 1.61263609e+00 1.47539047e+00 2.36748703e+00 1.83566023e+00 1.44107906e+00 1.37245625e+00 1.61263609e+00 1.50970188e+00 1.61263609e+00 1.78419313e+00 1.56116898e+00 1.61263609e+00 1.88712734e+00 1.78419313e+00 1.69841461e+00 1.69841461e+00 1.47539047e+00 1.56116898e+00 1.42392336e+00 1.97290586e+00 1.73272602e+00 1.44107906e+00 1.83566023e+00 1.40676766e+00 1.61263609e+00 1.74988172e+00 1.81850453e+00 1.66410320e+00 1.54401328e+00 1.38961195e+00 1.50970188e+00 1.23521063e+00 1.44107906e+00 1.59548039e+00 1.57832469e+00 1.44107906e+00 1.57832469e+00 1.32098914e+00 1.38961195e+00 1.62979180e+00 1.54401328e+00 1.25236633e+00 1.54401328e+00 1.37245625e+00 1.44107906e+00 1.13227641e+00 1.33814484e+00 9.26407969e-01 1.52685758e+00 1.56116898e+00 1.14943211e+00 1.56116898e+00 1.26952203e+00 1.35530055e+00 1.30383344e+00 1.59548039e+00 9.77875078e-01 1.26952203e+00 1.40676766e+00 1.57832469e+00 1.47539047e+00 1.61263609e+00 1.38961195e+00 1.08080930e+00 1.56116898e+00 1.49254617e+00 1.59548039e+00 1.26952203e+00 1.32098914e+00 1.33814484e+00 9.95030781e-01 1.20089922e+00 1.32098914e+00 1.40676766e+00 1.37245625e+00 1.23521063e+00 1.09796500e+00 1.35530055e+00 1.16658781e+00 1.25236633e+00 1.32098914e+00 1.56116898e+00 1.35530055e+00 1.30383344e+00 1.30383344e+00 1.14943211e+00 1.11512070e+00 1.44107906e+00 1.28667773e+00 1.01218648e+00 1.33814484e+00 8.06318047e-01 1.50970188e+00 1.06365359e+00 9.43563672e-01 1.32098914e+00 1.06365359e+00 1.23521063e+00 1.09796500e+00 1.13227641e+00 9.43563672e-01 1.20089922e+00 9.95030781e-01 1.28667773e+00 1.08080930e+00 1.13227641e+00 1.01218648e+00 1.09796500e+00 9.60719375e-01 1.04649789e+00 1.23521063e+00 1.21805492e+00 1.06365359e+00 1.14943211e+00 1.06365359e+00 9.09252266e-01 9.77875078e-01 7.72006641e-01 1.26952203e+00 9.77875078e-01 9.09252266e-01 9.95030781e-01 1.13227641e+00 8.57785156e-01 1.21805492e+00 7.54850938e-01 7.37695234e-01 1.01218648e+00 1.13227641e+00 1.08080930e+00 1.20089922e+00 9.26407969e-01 8.92096563e-01 9.43563672e-01 8.74940859e-01 9.95030781e-01 1.14943211e+00 1.08080930e+00 1.33814484e+00 8.06318047e-01 1.08080930e+00 8.57785156e-01 1.30383344e+00 9.43563672e-01 8.06318047e-01 1.06365359e+00 7.03383828e-01 7.72006641e-01 8.06318047e-01 1.04649789e+00 9.26407969e-01 8.23473750e-01 8.92096563e-01 9.77875078e-01 9.09252266e-01 9.95030781e-01 8.57785156e-01 1.06365359e+00 7.54850938e-01 1.08080930e+00 7.20539531e-01 6.34761016e-01 8.57785156e-01 1.08080930e+00 8.57785156e-01 8.74940859e-01 6.51916719e-01 9.60719375e-01 7.03383828e-01 7.72006641e-01 7.03383828e-01 7.89162344e-01 6.34761016e-01 9.09252266e-01 8.74940859e-01 8.74940859e-01 9.95030781e-01 6.00449609e-01 7.54850938e-01 9.77875078e-01 8.06318047e-01 7.37695234e-01 8.40629453e-01 8.57785156e-01 9.09252266e-01 7.72006641e-01 6.51916719e-01 8.40629453e-01 8.06318047e-01 6.17605313e-01 7.89162344e-01 6.51916719e-01 5.66138203e-01 5.83293906e-01 7.89162344e-01 7.89162344e-01 6.51916719e-01 5.83293906e-01 6.00449609e-01 7.54850938e-01 6.34761016e-01 6.51916719e-01 5.48982500e-01 6.34761016e-01 6.17605313e-01 7.72006641e-01 8.92096563e-01 7.03383828e-01 7.72006641e-01 5.48982500e-01 8.57785156e-01 6.86228125e-01 7.03383828e-01 4.80359688e-01 4.63203984e-01 5.48982500e-01 5.48982500e-01 6.00449609e-01 6.00449609e-01 4.63203984e-01 5.66138203e-01 5.66138203e-01 4.11736875e-01 3.94581172e-01 6.34761016e-01 6.69072422e-01 3.08802656e-01 4.46048281e-01 6.86228125e-01 2.74491250e-01 3.94581172e-01 4.63203984e-01 4.80359688e-01 6.17605313e-01 5.83293906e-01 6.34761016e-01 4.11736875e-01 5.31826797e-01 2.91646953e-01 8.06318047e-01 5.31826797e-01 3.94581172e-01 4.28892578e-01 4.97515391e-01 4.46048281e-01 4.63203984e-01 5.83293906e-01 5.31826797e-01 5.14671094e-01 6.86228125e-01 4.97515391e-01 4.28892578e-01 3.60269766e-01 2.40179844e-01 4.46048281e-01 4.46048281e-01 3.77425469e-01 3.60269766e-01 3.94581172e-01 3.25958359e-01 4.63203984e-01 4.97515391e-01 5.14671094e-01 3.08802656e-01 4.97515391e-01 5.48982500e-01 3.43114063e-01 4.46048281e-01 3.08802656e-01 2.74491250e-01 3.60269766e-01 3.77425469e-01 3.43114063e-01 5.83293906e-01 2.40179844e-01 5.48982500e-01 4.11736875e-01 3.77425469e-01 3.08802656e-01 4.11736875e-01 1.88712734e-01 3.08802656e-01 4.46048281e-01 4.97515391e-01 3.43114063e-01 3.94581172e-01 4.28892578e-01 2.91646953e-01 3.77425469e-01 2.05868438e-01 3.77425469e-01 4.80359688e-01 3.94581172e-01 2.74491250e-01 2.74491250e-01 2.05868438e-01 4.97515391e-01 2.57335547e-01 4.46048281e-01 2.74491250e-01 3.94581172e-01 2.40179844e-01 2.23024141e-01 3.60269766e-01 3.94581172e-01 2.23024141e-01 3.94581172e-01 2.91646953e-01 2.57335547e-01 2.57335547e-01 4.28892578e-01 2.40179844e-01 4.97515391e-01 1.88712734e-01 3.08802656e-01 1.20089922e-01 2.91646953e-01 2.05868438e-01 2.91646953e-01 4.63203984e-01 2.74491250e-01 2.91646953e-01 2.23024141e-01 1.54401328e-01 1.71557031e-01 1.71557031e-01 8.57785156e-02 2.57335547e-01 2.74491250e-01 2.05868438e-01 1.54401328e-01 2.91646953e-01 1.20089922e-01 1.88712734e-01 1.02934219e-01 1.02934219e-01 2.40179844e-01 1.37245625e-01 1.02934219e-01 2.05868438e-01 1.71557031e-01 8.57785156e-02 1.37245625e-01 1.88712734e-01 2.40179844e-01 2.05868438e-01 2.57335547e-01 1.88712734e-01 1.88712734e-01 1.37245625e-01 2.91646953e-01 2.05868438e-01 2.40179844e-01 2.23024141e-01 2.40179844e-01 2.74491250e-01 1.20089922e-01 1.37245625e-01 1.37245625e-01 2.05868438e-01 3.77425469e-01 2.23024141e-01 1.02934219e-01 1.02934219e-01 1.88712734e-01 2.05868438e-01 2.23024141e-01 8.57785156e-02 1.54401328e-01 1.37245625e-01 1.88712734e-01 1.20089922e-01 1.37245625e-01 1.37245625e-01 1.71557031e-01 1.37245625e-01 1.20089922e-01 1.37245625e-01 5.14671094e-02 5.14671094e-02 1.88712734e-01 1.02934219e-01 5.14671094e-02 3.43114063e-02 2.91646953e-01 2.05868438e-01 1.02934219e-01 1.54401328e-01 3.43114063e-02 1.02934219e-01 1.37245625e-01 1.37245625e-01 3.43114063e-02 2.23024141e-01 1.02934219e-01 1.54401328e-01 1.54401328e-01 5.14671094e-02 1.54401328e-01 8.57785156e-02 1.20089922e-01 2.05868438e-01 1.02934219e-01 6.86228125e-02 1.54401328e-01 1.02934219e-01 8.57785156e-02 1.37245625e-01 1.71557031e-02 5.14671094e-02 3.43114063e-02 1.37245625e-01 6.86228125e-02 3.43114063e-02 1.71557031e-02 1.37245625e-01 5.14671094e-02 5.14671094e-02 1.02934219e-01 6.86228125e-02 3.43114063e-02 6.86228125e-02 5.14671094e-02 1.71557031e-01 3.43114063e-02 1.20089922e-01 1.02934219e-01 5.14671094e-02 1.20089922e-01 6.86228125e-02 1.20089922e-01 1.71557031e-01 1.20089922e-01 5.14671094e-02 5.14671094e-02 3.43114063e-02 1.02934219e-01 6.86228125e-02 6.86228125e-02 5.14671094e-02 5.14671094e-02 5.14671094e-02 6.86228125e-02 1.71557031e-02 1.02934219e-01 1.20089922e-01 1.71557031e-02 1.71557031e-02 5.14671094e-02 1.02934219e-01 3.43114063e-02 6.86228125e-02 6.86228125e-02 6.86228125e-02 5.14671094e-02 5.14671094e-02 3.43114063e-02 3.43114063e-02 1.37245625e-01 0.00000000e+00 1.02934219e-01 3.43114063e-02 5.14671094e-02 1.71557031e-02 0.00000000e+00 0.00000000e+00 3.43114063e-02 1.71557031e-02 1.71557031e-02 1.71557031e-02 6.86228125e-02 0.00000000e+00 1.20089922e-01 1.71557031e-02 1.71557031e-02 1.71557031e-02 3.43114063e-02 1.71557031e-02 1.02934219e-01 5.14671094e-02 1.71557031e-02 1.02934219e-01 3.43114063e-02 3.43114063e-02 3.43114063e-02 1.71557031e-02 1.71557031e-02 3.43114063e-02 1.71557031e-02 1.71557031e-02 3.43114063e-02 1.71557031e-02 1.71557031e-02 6.86228125e-02 0.00000000e+00 3.43114063e-02 0.00000000e+00 0.00000000e+00 1.71557031e-02 1.71557031e-02 0.00000000e+00 1.71557031e-02 6.86228125e-02 1.71557031e-02 5.14671094e-02 1.71557031e-02 0.00000000e+00 0.00000000e+00 5.14671094e-02 3.43114063e-02 1.71557031e-02 0.00000000e+00 5.14671094e-02 1.71557031e-02 6.86228125e-02 6.86228125e-02 5.14671094e-02 1.71557031e-02 3.43114063e-02 0.00000000e+00 3.43114063e-02 0.00000000e+00 1.71557031e-02 1.71557031e-02 1.02934219e-01 0.00000000e+00 3.43114063e-02 8.57785156e-02 6.86228125e-02 3.43114063e-02 1.71557031e-02 0.00000000e+00 3.43114063e-02 5.14671094e-02 0.00000000e+00 6.86228125e-02 1.71557031e-02 1.71557031e-02 3.43114063e-02 1.71557031e-02 1.71557031e-02 0.00000000e+00 0.00000000e+00 0.00000000e+00 5.14671094e-02 0.00000000e+00 0.00000000e+00 3.43114063e-02 1.71557031e-02 5.14671094e-02 1.71557031e-02 1.71557031e-02 5.14671094e-02 0.00000000e+00 1.71557031e-02 0.00000000e+00 0.00000000e+00 1.71557031e-02 1.71557031e-02 0.00000000e+00 3.43114063e-02 1.71557031e-02 0.00000000e+00 3.43114063e-02 3.43114063e-02 1.71557031e-02 0.00000000e+00 0.00000000e+00 0.00000000e+00 0.00000000e+00 0.00000000e+00 0.00000000e+00 0.00000000e+00 3.43114063e-02 0.00000000e+00 1.71557031e-02 5.14671094e-02 1.71557031e-02 0.00000000e+00 1.71557031e-02 0.00000000e+00 0.00000000e+00 1.71557031e-02 0.00000000e+00 0.00000000e+00 0.00000000e+00 1.71557031e-02 0.00000000e+00 0.00000000e+00 0.00000000e+00 1.71557031e-02 1.71557031e-02 0.00000000e+00 0.00000000e+00 3.43114063e-02 0.00000000e+00 3.43114063e-02 5.14671094e-02 0.00000000e+00 0.00000000e+00 3.43114063e-02 5.14671094e-02 0.00000000e+00 0.00000000e+00 0.00000000e+00 0.00000000e+00 1.71557031e-02 3.43114063e-02 3.43114063e-02 0.00000000e+00 0.00000000e+00 0.00000000e+00 1.71557031e-02 0.00000000e+00 0.00000000e+00 0.00000000e+00 0.00000000e+00 0.00000000e+00 0.00000000e+00 0.00000000e+00 0.00000000e+00 3.43114063e-02 0.00000000e+00 0.00000000e+00 0.00000000e+00 0.00000000e+00 1.71557031e-02 0.00000000e+00 0.00000000e+00 0.00000000e+00 0.00000000e+00 1.71557031e-02 1.71557031e-02 0.00000000e+00 0.00000000e+00 0.00000000e+00 0.00000000e+00 0.00000000e+00 1.71557031e-02 0.00000000e+00 0.00000000e+00 0.00000000e+00 0.00000000e+00 0.00000000e+00 0.00000000e+00 0.00000000e+00 1.71557031e-02 0.00000000e+00 0.00000000e+00 0.00000000e+00 0.00000000e+00 0.00000000e+00 0.00000000e+00 0.00000000e+00 0.00000000e+00 1.71557031e-02 0.00000000e+00 0.00000000e+00 0.00000000e+00 0.00000000e+00 0.00000000e+00 1.71557031e-02 0.00000000e+00 0.00000000e+00 0.00000000e+00 0.00000000e+00 0.00000000e+00 1.71557031e-02 0.00000000e+00 1.71557031e-02 0.00000000e+00 0.00000000e+00 0.00000000e+00 0.00000000e+00 0.00000000e+00 0.00000000e+00 1.71557031e-02 0.00000000e+00 0.00000000e+00 0.00000000e+00 0.00000000e+00 0.00000000e+00 0.00000000e+00 1.71557031e-02 0.00000000e+00 0.00000000e+00 0.00000000e+00 0.00000000e+00 0.00000000e+00 0.00000000e+00 0.00000000e+00 0.00000000e+00 0.00000000e+00 0.00000000e+00 0.00000000e+00 0.00000000e+00 3.43114063e-02 0.00000000e+00 0.00000000e+00 0.00000000e+00 0.00000000e+00 0.00000000e+00 0.00000000e+00 0.00000000e+00 0.00000000e+00 0.00000000e+00 0.00000000e+00 0.00000000e+00 1.71557031e-02 0.00000000e+00 0.00000000e+00 0.00000000e+00 1.71557031e-02 0.00000000e+00 0.00000000e+00 1.71557031e-02 1.71557031e-02 0.00000000e+00 0.00000000e+00 1.71557031e-02 0.00000000e+00 0.00000000e+00 0.00000000e+00 0.00000000e+00 0.00000000e+00 0.00000000e+00 0.00000000e+00 0.00000000e+00 0.00000000e+00 1.71557031e-02 0.00000000e+00 0.00000000e+00 0.00000000e+00 0.00000000e+00 0.00000000e+00 0.00000000e+00 0.00000000e+00 0.00000000e+00 0.00000000e+00 0.00000000e+00 0.00000000e+00 5.14671094e-02 0.00000000e+00 0.00000000e+00 0.00000000e+00 0.00000000e+00 0.00000000e+00 1.71557031e-02 0.00000000e+00 0.00000000e+00 0.00000000e+00 0.00000000e+00 0.00000000e+00 0.00000000e+00 0.00000000e+00 0.00000000e+00 0.00000000e+00 0.00000000e+00 1.71557031e-02 0.00000000e+00 0.00000000e+00 0.00000000e+00 0.00000000e+00 0.00000000e+00 0.00000000e+00 0.00000000e+00 0.00000000e+00 0.00000000e+00 0.00000000e+00 0.00000000e+00 0.00000000e+00 0.00000000e+00 0.00000000e+00 0.00000000e+00 1.71557031e-02 0.00000000e+00 0.00000000e+00 0.00000000e+00 0.00000000e+00 0.00000000e+00 0.00000000e+00 0.00000000e+00 0.00000000e+00 1.71557031e-02 0.00000000e+00 0.00000000e+00 0.00000000e+00 1.71557031e-02 0.00000000e+00 0.00000000e+00 0.00000000e+00 0.00000000e+00 0.00000000e+00 0.00000000e+00 0.00000000e+00 0.00000000e+00 0.00000000e+00 0.00000000e+00 0.00000000e+00 0.00000000e+00 0.00000000e+00 0.00000000e+00 0.00000000e+00 0.00000000e+00 0.00000000e+00 0.00000000e+00 0.00000000e+00 0.00000000e+00 1.71557031e-02 0.00000000e+00 0.00000000e+00 0.00000000e+00 0.00000000e+00 0.00000000e+00 1.71557031e-02 0.00000000e+00 0.00000000e+00 0.00000000e+00 0.00000000e+00 0.00000000e+00 0.00000000e+00 0.00000000e+00 0.00000000e+00 0.00000000e+00 0.00000000e+00 0.00000000e+00 0.00000000e+00 0.00000000e+00 0.00000000e+00 0.00000000e+00 0.00000000e+00 0.00000000e+00 0.00000000e+00 0.00000000e+00 0.00000000e+00 0.00000000e+00 0.00000000e+00 0.00000000e+00 0.00000000e+00 0.00000000e+00 0.00000000e+00 0.00000000e+00 0.00000000e+00 0.00000000e+00 0.00000000e+00 0.00000000e+00 0.00000000e+00 0.00000000e+00 0.00000000e+00 0.00000000e+00 0.00000000e+00 0.00000000e+00 0.00000000e+00 0.00000000e+00 0.00000000e+00 0.00000000e+00 0.00000000e+00 0.00000000e+00 0.00000000e+00 0.00000000e+00 0.00000000e+00 0.00000000e+00 0.00000000e+00 0.00000000e+00 0.00000000e+00 0.00000000e+00 0.00000000e+00 0.00000000e+00 0.00000000e+00 0.00000000e+00 0.00000000e+00 0.00000000e+00 0.00000000e+00 0.00000000e+00 0.00000000e+00 0.00000000e+00 0.00000000e+00 0.00000000e+00 0.00000000e+00 0.00000000e+00 0.00000000e+00 0.00000000e+00 0.00000000e+00 0.00000000e+00 0.00000000e+00 0.00000000e+00 0.00000000e+00 0.00000000e+00 0.00000000e+00 0.00000000e+00 0.00000000e+00 0.00000000e+00 0.00000000e+00 0.00000000e+00 0.00000000e+00 0.00000000e+00 0.00000000e+00 0.00000000e+00 0.00000000e+00 0.00000000e+00 0.00000000e+00 0.00000000e+00 0.00000000e+00 0.00000000e+00 0.00000000e+00 0.00000000e+00 0.00000000e+00 0.00000000e+00 0.00000000e+00 0.00000000e+00 0.00000000e+00 0.00000000e+00 0.00000000e+00 0.00000000e+00 0.00000000e+00 0.00000000e+00 0.00000000e+00 0.00000000e+00 0.00000000e+00 0.00000000e+00 0.00000000e+00 0.00000000e+00 0.00000000e+00 0.00000000e+00 0.00000000e+00 0.00000000e+00 0.00000000e+00 0.00000000e+00 0.00000000e+00 0.00000000e+00 0.00000000e+00 0.00000000e+00 0.00000000e+00 0.00000000e+00 0.00000000e+00 0.00000000e+00 0.00000000e+00 0.00000000e+00 0.00000000e+00 0.00000000e+00 0.00000000e+00 0.00000000e+00 0.00000000e+00 0.00000000e+00 0.00000000e+00 0.00000000e+00 0.00000000e+00 0.00000000e+00 0.00000000e+00 0.00000000e+00 0.00000000e+00 0.00000000e+00 0.00000000e+00 0.00000000e+00 0.00000000e+00 0.00000000e+00 0.00000000e+00 0.00000000e+00 0.00000000e+00 0.00000000e+00 0.00000000e+00 0.00000000e+00 0.00000000e+00 0.00000000e+00 0.00000000e+00 0.00000000e+00 0.00000000e+00 0.00000000e+00 0.00000000e+00 0.00000000e+00 0.00000000e+00 0.00000000e+00 0.00000000e+00 0.00000000e+00 0.00000000e+00 0.00000000e+00 0.00000000e+00 0.00000000e+00 0.00000000e+00 0.00000000e+00 0.00000000e+00 0.00000000e+00 0.00000000e+00 0.00000000e+00 0.00000000e+00 0.00000000e+00 0.00000000e+00 0.00000000e+00 0.00000000e+00 0.00000000e+00 0.00000000e+00 0.00000000e+00 0.00000000e+00 0.00000000e+00 0.00000000e+00 0.00000000e+00 0.00000000e+00 0.00000000e+00 0.00000000e+00 0.00000000e+00 0.00000000e+00 0.00000000e+00 0.00000000e+00 0.00000000e+00 0.00000000e+00 0.00000000e+00 0.00000000e+00 0.00000000e+00 0.00000000e+00 0.00000000e+00 0.00000000e+00 0.00000000e+00 0.00000000e+00 0.00000000e+00 0.00000000e+00 0.00000000e+00 0.00000000e+00 0.00000000e+00 0.00000000e+00 0.00000000e+00 0.00000000e+00 0.00000000e+00 0.00000000e+00 0.00000000e+00 0.00000000e+00 0.00000000e+00 0.00000000e+00 0.00000000e+00 0.00000000e+00 0.00000000e+00 0.00000000e+00 0.00000000e+00 0.00000000e+00 0.00000000e+00 0.00000000e+00 0.00000000e+00 0.00000000e+00 0.00000000e+00 0.00000000e+00 0.00000000e+00 0.00000000e+00 0.00000000e+00 0.00000000e+00 0.00000000e+00 0.00000000e+00 0.00000000e+00 0.00000000e+00 0.00000000e+00 0.00000000e+00 0.00000000e+00 0.00000000e+00 0.00000000e+00 0.00000000e+00 0.00000000e+00 0.00000000e+00 0.00000000e+00 0.00000000e+00 0.00000000e+00 0.00000000e+00 0.00000000e+00 0.00000000e+00 0.00000000e+00 0.00000000e+00 0.00000000e+00 0.00000000e+00 0.00000000e+00 0.00000000e+00 0.00000000e+00 0.00000000e+00 0.00000000e+00 0.00000000e+00 0.00000000e+00 0.00000000e+00 0.00000000e+00 0.00000000e+00 0.00000000e+00 0.00000000e+00 0.00000000e+00 0.00000000e+00 0.00000000e+00 0.00000000e+00 0.00000000e+00 0.00000000e+00 0.00000000e+00 0.00000000e+00 0.00000000e+00 0.00000000e+00 0.00000000e+00 0.00000000e+00 0.00000000e+00 0.00000000e+00 0.00000000e+00 0.00000000e+00 0.00000000e+00 0.00000000e+00 0.00000000e+00 0.00000000e+00 0.00000000e+00 0.00000000e+00 0.00000000e+00 0.00000000e+00 0.00000000e+00 0.00000000e+00 0.00000000e+00 0.00000000e+00 0.00000000e+00 0.00000000e+00 0.00000000e+00 0.00000000e+00 0.00000000e+00 0.00000000e+00 0.00000000e+00 0.00000000e+00 0.00000000e+00 0.00000000e+00 0.00000000e+00 0.00000000e+00 0.00000000e+00 0.00000000e+00 0.00000000e+00 0.00000000e+00 0.00000000e+00 0.00000000e+00 0.00000000e+00 0.00000000e+00 0.00000000e+00 0.00000000e+00 0.00000000e+00 0.00000000e+00 0.00000000e+00 0.00000000e+00 0.00000000e+00 0.00000000e+00 0.00000000e+00 0.00000000e+00 0.00000000e+00 0.00000000e+00 0.00000000e+00 0.00000000e+00 0.00000000e+00 0.00000000e+00 0.00000000e+00 0.00000000e+00 0.00000000e+00 0.00000000e+00 0.00000000e+00 0.00000000e+00 0.00000000e+00 0.00000000e+00 0.00000000e+00 0.00000000e+00 0.00000000e+00 0.00000000e+00 0.00000000e+00 0.00000000e+00 0.00000000e+00 0.00000000e+00 0.00000000e+00 0.00000000e+00 0.00000000e+00 0.00000000e+00 0.00000000e+00 0.00000000e+00 0.00000000e+00 0.00000000e+00 0.00000000e+00 0.00000000e+00 0.00000000e+00 0.00000000e+00 0.00000000e+00 
      </Histogram>
    </PDF>
  </MVAPdfs>
  <Weights NTrees="400" AnalysisType="0">
    <BinaryTree type="DecisionTree" boostWeight="1.2446905358555251e+00" itree="0">
      <Node pos="s" depth="0" NCoef="0" IVar="6" Cut="1.0871173143386841e+00" cType="1" res="-9.9000000000000000e+01" rms="0.0000000000000000e+00" purity="5.0000000000000000e-01" nType="0">
        <Node pos="l" depth="1" NCoef="0" IVar="5" Cut="4.5263175964355469e+00" cType="1" res="-9.9000000000000000e+01" rms="0.0000000000000000e+00" purity="8.8312035799026489e-01" nType="0">
          <Node pos="l" depth="2" NCoef="0" IVar="-1" Cut="0.0000000000000000e+00" cType="1" res="-9.9000000000000000e+01" rms="0.0000000000000000e+00" purity="9.3010681867599487e-01" nType="1"/>
          <Node pos="r" depth="2" NCoef="0" IVar="-1" Cut="0.0000000000000000e+00" cType="1" res="-9.9000000000000000e+01" rms="0.0000000000000000e+00" purity="4.2493563890457153e-01" nType="-1"/>
        </Node>
        <Node pos="r" depth="1" NCoef="0" IVar="-1" Cut="1.5426204204559326e+00" cType="1" res="-9.9000000000000000e+01" rms="0.0000000000000000e+00" purity="4.5386239886283875e-02" nType="-1"/>
      </Node>
    </BinaryTree>
    <BinaryTree type="DecisionTree" boostWeight="1.0539697407021049e+00" itree="1">
      <Node pos="s" depth="0" NCoef="0" IVar="0" Cut="1.1176706552505493e+00" cType="1" res="-9.9000000000000000e+01" rms="0.0000000000000000e+00" purity="5.0810921192169189e-01" nType="0">
        <Node pos="l" depth="1" NCoef="0" IVar="-1" Cut="0.0000000000000000e+00" cType="1" res="-9.9000000000000000e+01" rms="0.0000000000000000e+00" purity="9.2930161952972412e-01" nType="1"/>
        <Node pos="r" depth="1" NCoef="0" IVar="2" Cut="4.2544619140625000e+03" cType="0" res="-9.9000000000000000e+01" rms="0.0000000000000000e+00" purity="1.5450303256511688e-01" nType="0">
          <Node pos="l" depth="2" NCoef="0" IVar="-1" Cut="0.0000000000000000e+00" cType="1" res="-9.9000000000000000e+01" rms="0.0000000000000000e+00" purity="5.4975742101669312e-01" nType="1"/>
          <Node pos="r" depth="2" NCoef="0" IVar="-1" Cut="0.0000000000000000e+00" cType="1" res="-9.9000000000000000e+01" rms="0.0000000000000000e+00" purity="8.6629062891006470e-02" nType="-1"/>
        </Node>
      </Node>
    </BinaryTree>
    <BinaryTree type="DecisionTree" boostWeight="1.0254116981844481e+00" itree="2">
      <Node pos="s" depth="0" NCoef="0" IVar="6" Cut="1.3603855371475220e+00" cType="1" res="-9.9000000000000000e+01" rms="0.0000000000000000e+00" purity="4.8502591252326965e-01" nType="0">
        <Node pos="l" depth="1" NCoef="0" IVar="0" Cut="2.1212594509124756e+00" cType="1" res="-9.9000000000000000e+01" rms="0.0000000000000000e+00" purity="7.4625724554061890e-01" nType="0">
          <Node pos="l" depth="2" NCoef="0" IVar="-1" Cut="0.0000000000000000e+00" cType="1" res="-9.9000000000000000e+01" rms="0.0000000000000000e+00" purity="8.9762973785400391e-01" nType="1"/>
          <Node pos="r" depth="2" NCoef="0" IVar="-1" Cut="0.0000000000000000e+00" cType="1" res="-9.9000000000000000e+01" rms="0.0000000000000000e+00" purity="2.1207751333713531e-01" nType="-1"/>
        </Node>
        <Node pos="r" depth="1" NCoef="0" IVar="-1" Cut="7.1302773437500000e+03" cType="1" res="-9.9000000000000000e+01" rms="0.0000000000000000e+00" purity="9.5126084983348846e-02" nType="-1"/>
      </Node>
    </BinaryTree>
    <BinaryTree type="DecisionTree" boostWeight="8.7664753728936584e-01" itree="3">
      <Node pos="s" depth="0" NCoef="0" IVar="4" Cut="7.1302773437500000e+03" cType="1" res="-9.9000000000000000e+01" rms="0.0000000000000000e+00" purity="5.0125741958618164e-01" nType="0">
        <Node pos="l" depth="1" NCoef="0" IVar="4" Cut="5.1647119140625000e+03" cType="0" res="-9.9000000000000000e+01" rms="0.0000000000000000e+00" purity="6.9251906871795654e-01" nType="0">
          <Node pos="l" depth="2" NCoef="0" IVar="-1" Cut="0.0000000000000000e+00" cType="1" res="-9.9000000000000000e+01" rms="0.0000000000000000e+00" purity="8.2618039846420288e-01" nType="1"/>
          <Node pos="r" depth="2" NCoef="0" IVar="-1" Cut="0.0000000000000000e+00" cType="1" res="-9.9000000000000000e+01" rms="0.0000000000000000e+00" purity="1.2731480598449707e-01" nType="-1"/>
        </Node>
        <Node pos="r" depth="1" NCoef="0" IVar="-1" Cut="8.4203222656250000e+03" cType="1" res="-9.9000000000000000e+01" rms="0.0000000000000000e+00" purity="1.1248002201318741e-01" nType="-1"/>
      </Node>
    </BinaryTree>
    <BinaryTree type="DecisionTree" boostWeight="5.5336459280209205e-01" itree="4">
      <Node pos="s" depth="0" NCoef="0" IVar="1" Cut="1.5442806482315063e+00" cType="0" res="-9.9000000000000000e+01" rms="0.0000000000000000e+00" purity="4.7732645273208618e-01" nType="0">
        <Node pos="l" depth="1" NCoef="0" IVar="0" Cut="1.5310415029525757e+00" cType="1" res="-9.9000000000000000e+01" rms="0.0000000000000000e+00" purity="6.2689471244812012e-01" nType="0">
          <Node pos="l" depth="2" NCoef="0" IVar="-1" Cut="0.0000000000000000e+00" cType="1" res="-9.9000000000000000e+01" rms="0.0000000000000000e+00" purity="8.6073058843612671e-01" nType="1"/>
          <Node pos="r" depth="2" NCoef="0" IVar="-1" Cut="0.0000000000000000e+00" cType="1" res="-9.9000000000000000e+01" rms="0.0000000000000000e+00" purity="4.2982667684555054e-01" nType="-1"/>
        </Node>
        <Node pos="r" depth="1" NCoef="0" IVar="-1" Cut="1.4252392053604126e+00" cType="1" res="-9.9000000000000000e+01" rms="0.0000000000000000e+00" purity="1.3878796994686127e-01" nType="-1"/>
      </Node>
    </BinaryTree>
    <BinaryTree type="DecisionTree" boostWeight="5.4750135704331604e-01" itree="5">
      <Node pos="s" depth="0" NCoef="0" IVar="1" Cut="1.1429697275161743e+00" cType="0" res="-9.9000000000000000e+01" rms="0.0000000000000000e+00" purity="5.3083837032318115e-01" nType="0">
        <Node pos="l" depth="1" NCoef="0" IVar="4" Cut="8.4201748046875000e+03" cType="1" res="-9.9000000000000000e+01" rms="0.0000000000000000e+00" purity="6.3144570589065552e-01" nType="0">
          <Node pos="l" depth="2" NCoef="0" IVar="-1" Cut="0.0000000000000000e+00" cType="1" res="-9.9000000000000000e+01" rms="0.0000000000000000e+00" purity="6.9519865512847900e-01" nType="1"/>
          <Node pos="r" depth="2" NCoef="0" IVar="-1" Cut="0.0000000000000000e+00" cType="1" res="-9.9000000000000000e+01" rms="0.0000000000000000e+00" purity="1.8688693642616272e-01" nType="-1"/>
        </Node>
        <Node pos="r" depth="1" NCoef="0" IVar="-1" Cut="6.8429738283157349e-01" cType="0" res="-9.9000000000000000e+01" rms="0.0000000000000000e+00" purity="7.0822574198246002e-02" nType="-1"/>
      </Node>
    </BinaryTree>
    <BinaryTree type="DecisionTree" boostWeight="3.7330224033890658e-01" itree="6">
      <Node pos="s" depth="0" NCoef="0" IVar="6" Cut="8.1384921073913574e-01" cType="1" res="-9.9000000000000000e+01" rms="0.0000000000000000e+00" purity="4.6851298213005066e-01" nType="0">
        <Node pos="l" depth="1" NCoef="0" IVar="-1" Cut="2.5432403087615967e+00" cType="0" res="-9.9000000000000000e+01" rms="0.0000000000000000e+00" purity="6.6576486825942993e-01" nType="1"/>
        <Node pos="r" depth="1" NCoef="0" IVar="-1" Cut="1.0407137870788574e+00" cType="0" res="-9.9000000000000000e+01" rms="0.0000000000000000e+00" purity="3.1147164106369019e-01" nType="-1"/>
      </Node>
    </BinaryTree>
    <BinaryTree type="DecisionTree" boostWeight="3.7646261294236283e-01" itree="7">
      <Node pos="s" depth="0" NCoef="0" IVar="7" Cut="9.6837800741195679e-01" cType="0" res="-9.9000000000000000e+01" rms="0.0000000000000000e+00" purity="4.7750222682952881e-01" nType="0">
        <Node pos="l" depth="1" NCoef="0" IVar="1" Cut="7.4165886640548706e-01" cType="0" res="-9.9000000000000000e+01" rms="0.0000000000000000e+00" purity="5.6313508749008179e-01" nType="0">
          <Node pos="l" depth="2" NCoef="0" IVar="-1" Cut="0.0000000000000000e+00" cType="1" res="-9.9000000000000000e+01" rms="0.0000000000000000e+00" purity="6.0908156633377075e-01" nType="1"/>
          <Node pos="r" depth="2" NCoef="0" IVar="-1" Cut="0.0000000000000000e+00" cType="1" res="-9.9000000000000000e+01" rms="0.0000000000000000e+00" purity="3.2822459936141968e-02" nType="-1"/>
        </Node>
        <Node pos="r" depth="1" NCoef="0" IVar="-1" Cut="1.3106787204742432e+00" cType="1" res="-9.9000000000000000e+01" rms="0.0000000000000000e+00" purity="1.6745768487453461e-01" nType="-1"/>
      </Node>
    </BinaryTree>
    <BinaryTree type="DecisionTree" boostWeight="3.2337637936241165e-01" itree="8">
      <Node pos="s" depth="0" NCoef="0" IVar="0" Cut="1.1176706552505493e+00" cType="1" res="-9.9000000000000000e+01" rms="0.0000000000000000e+00" purity="4.3180590867996216e-01" nType="0">
        <Node pos="l" depth="1" NCoef="0" IVar="-1" Cut="0.0000000000000000e+00" cType="1" res="-9.9000000000000000e+01" rms="0.0000000000000000e+00" purity="6.5066784620285034e-01" nType="1"/>
        <Node pos="r" depth="1" NCoef="0" IVar="-1" Cut="1.5442806482315063e+00" cType="0" res="-9.9000000000000000e+01" rms="0.0000000000000000e+00" purity="3.4140422940254211e-01" nType="-1"/>
      </Node>
    </BinaryTree>
    <BinaryTree type="DecisionTree" boostWeight="4.0527885458658996e-01" itree="9">
      <Node pos="s" depth="0" NCoef="0" IVar="4" Cut="4.9804482421875000e+03" cType="0" res="-9.9000000000000000e+01" rms="0.0000000000000000e+00" purity="4.6325597167015076e-01" nType="0">
        <Node pos="l" depth="1" NCoef="0" IVar="1" Cut="1.5442806482315063e+00" cType="0" res="-9.9000000000000000e+01" rms="0.0000000000000000e+00" purity="5.2176642417907715e-01" nType="0">
          <Node pos="l" depth="2" NCoef="0" IVar="-1" Cut="0.0000000000000000e+00" cType="1" res="-9.9000000000000000e+01" rms="0.0000000000000000e+00" purity="6.2226635217666626e-01" nType="1"/>
          <Node pos="r" depth="2" NCoef="0" IVar="-1" Cut="0.0000000000000000e+00" cType="1" res="-9.9000000000000000e+01" rms="0.0000000000000000e+00" purity="2.2756104171276093e-01" nType="-1"/>
        </Node>
        <Node pos="r" depth="1" NCoef="0" IVar="-1" Cut="0.0000000000000000e+00" cType="1" res="-9.9000000000000000e+01" rms="0.0000000000000000e+00" purity="1.2361390143632889e-01" nType="-1"/>
      </Node>
    </BinaryTree>
    <BinaryTree type="DecisionTree" boostWeight="2.5895364504848967e-01" itree="10">
      <Node pos="s" depth="0" NCoef="0" IVar="6" Cut="2.7267260551452637e+00" cType="1" res="-9.9000000000000000e+01" rms="0.0000000000000000e+00" purity="4.3077951669692993e-01" nType="0">
        <Node pos="l" depth="1" NCoef="0" IVar="4" Cut="5.4103583984375000e+03" cType="0" res="-9.9000000000000000e+01" rms="0.0000000000000000e+00" purity="4.7256252169609070e-01" nType="0">
          <Node pos="l" depth="2" NCoef="0" IVar="-1" Cut="0.0000000000000000e+00" cType="1" res="-9.9000000000000000e+01" rms="0.0000000000000000e+00" purity="5.4185485839843750e-01" nType="1"/>
          <Node pos="r" depth="2" NCoef="0" IVar="-1" Cut="0.0000000000000000e+00" cType="1" res="-9.9000000000000000e+01" rms="0.0000000000000000e+00" purity="2.4744065105915070e-01" nType="-1"/>
        </Node>
        <Node pos="r" depth="1" NCoef="0" IVar="-1" Cut="0.0000000000000000e+00" cType="1" res="-9.9000000000000000e+01" rms="0.0000000000000000e+00" purity="6.5507456660270691e-02" nType="-1"/>
      </Node>
    </BinaryTree>
    <BinaryTree type="DecisionTree" boostWeight="3.4212977797344407e-01" itree="11">
      <Node pos="s" depth="0" NCoef="0" IVar="6" Cut="1.6336536407470703e+00" cType="1" res="-9.9000000000000000e+01" rms="0.0000000000000000e+00" purity="4.0366855263710022e-01" nType="0">
        <Node pos="l" depth="1" NCoef="0" IVar="0" Cut="2.4998216629028320e+00" cType="1" res="-9.9000000000000000e+01" rms="0.0000000000000000e+00" purity="4.9311080574989319e-01" nType="0">
          <Node pos="l" depth="2" NCoef="0" IVar="-1" Cut="0.0000000000000000e+00" cType="1" res="-9.9000000000000000e+01" rms="0.0000000000000000e+00" purity="5.7173991203308105e-01" nType="1"/>
          <Node pos="r" depth="2" NCoef="0" IVar="-1" Cut="0.0000000000000000e+00" cType="1" res="-9.9000000000000000e+01" rms="0.0000000000000000e+00" purity="2.4159045517444611e-01" nType="-1"/>
        </Node>
        <Node pos="r" depth="1" NCoef="0" IVar="-1" Cut="3.8720264434814453e+00" cType="1" res="-9.9000000000000000e+01" rms="0.0000000000000000e+00" purity="2.5436785817146301e-01" nType="-1"/>
      </Node>
    </BinaryTree>
    <BinaryTree type="DecisionTree" boostWeight="3.3689726139571585e-01" itree="12">
      <Node pos="s" depth="0" NCoef="0" IVar="7" Cut="1.0977475643157959e+00" cType="0" res="-9.9000000000000000e+01" rms="0.0000000000000000e+00" purity="4.0220555663108826e-01" nType="0">
        <Node pos="l" depth="1" NCoef="0" IVar="5" Cut="3.5943458080291748e+00" cType="1" res="-9.9000000000000000e+01" rms="0.0000000000000000e+00" purity="4.8494401574134827e-01" nType="0">
          <Node pos="l" depth="2" NCoef="0" IVar="-1" Cut="0.0000000000000000e+00" cType="1" res="-9.9000000000000000e+01" rms="0.0000000000000000e+00" purity="5.9582018852233887e-01" nType="1"/>
          <Node pos="r" depth="2" NCoef="0" IVar="-1" Cut="0.0000000000000000e+00" cType="1" res="-9.9000000000000000e+01" rms="0.0000000000000000e+00" purity="3.6468142271041870e-01" nType="-1"/>
        </Node>
        <Node pos="r" depth="1" NCoef="0" IVar="-1" Cut="2.8304968261718750e+03" cType="0" res="-9.9000000000000000e+01" rms="0.0000000000000000e+00" purity="2.5026011466979980e-01" nType="-1"/>
      </Node>
    </BinaryTree>
    <BinaryTree type="DecisionTree" boostWeight="2.8878115819348082e-01" itree="13">
      <Node pos="s" depth="0" NCoef="0" IVar="1" Cut="2.7482130527496338e+00" cType="0" res="-9.9000000000000000e+01" rms="0.0000000000000000e+00" purity="4.2538464069366455e-01" nType="0">
        <Node pos="l" depth="1" NCoef="0" IVar="-1" Cut="0.0000000000000000e+00" cType="1" res="-9.9000000000000000e+01" rms="0.0000000000000000e+00" purity="6.6410958766937256e-01" nType="1"/>
        <Node pos="r" depth="1" NCoef="0" IVar="-1" Cut="3.8644347190856934e+00" cType="1" res="-9.9000000000000000e+01" rms="0.0000000000000000e+00" purity="3.6542230844497681e-01" nType="-1"/>
      </Node>
    </BinaryTree>
    <BinaryTree type="DecisionTree" boostWeight="1.8665083051942050e-01" itree="14">
      <Node pos="s" depth="0" NCoef="0" IVar="1" Cut="7.4165886640548706e-01" cType="0" res="-9.9000000000000000e+01" rms="0.0000000000000000e+00" purity="4.6696409583091736e-01" nType="0">
        <Node pos="l" depth="1" NCoef="0" IVar="5" Cut="4.8910384178161621e+00" cType="1" res="-9.9000000000000000e+01" rms="0.0000000000000000e+00" purity="4.9949377775192261e-01" nType="0">
          <Node pos="l" depth="2" NCoef="0" IVar="-1" Cut="0.0000000000000000e+00" cType="1" res="-9.9000000000000000e+01" rms="0.0000000000000000e+00" purity="5.3506255149841309e-01" nType="1"/>
          <Node pos="r" depth="2" NCoef="0" IVar="-1" Cut="0.0000000000000000e+00" cType="1" res="-9.9000000000000000e+01" rms="0.0000000000000000e+00" purity="1.4061218500137329e-01" nType="-1"/>
        </Node>
        <Node pos="r" depth="1" NCoef="0" IVar="-1" Cut="0.0000000000000000e+00" cType="1" res="-9.9000000000000000e+01" rms="0.0000000000000000e+00" purity="4.6452391892671585e-02" nType="-1"/>
      </Node>
    </BinaryTree>
    <BinaryTree type="DecisionTree" boostWeight="1.3324407757244791e-01" itree="15">
      <Node pos="s" depth="0" NCoef="0" IVar="-1" Cut="7.4165886640548706e-01" cType="0" res="-9.9000000000000000e+01" rms="0.0000000000000000e+00" purity="4.3376946449279785e-01" nType="-1"/>
    </BinaryTree>
    <BinaryTree type="DecisionTree" boostWeight="1.7299483125067924e-01" itree="16">
      <Node pos="s" depth="0" NCoef="0" IVar="1" Cut="7.4165886640548706e-01" cType="0" res="-9.9000000000000000e+01" rms="0.0000000000000000e+00" purity="4.6673816442489624e-01" nType="0">
        <Node pos="l" depth="1" NCoef="0" IVar="4" Cut="4.5504829101562500e+03" cType="0" res="-9.9000000000000000e+01" rms="0.0000000000000000e+00" purity="4.9412029981613159e-01" nType="0">
          <Node pos="l" depth="2" NCoef="0" IVar="-1" Cut="0.0000000000000000e+00" cType="1" res="-9.9000000000000000e+01" rms="0.0000000000000000e+00" purity="5.3121602535247803e-01" nType="1"/>
          <Node pos="r" depth="2" NCoef="0" IVar="-1" Cut="0.0000000000000000e+00" cType="1" res="-9.9000000000000000e+01" rms="0.0000000000000000e+00" purity="1.7478477954864502e-01" nType="-1"/>
        </Node>
        <Node pos="r" depth="1" NCoef="0" IVar="-1" Cut="0.0000000000000000e+00" cType="1" res="-9.9000000000000000e+01" rms="0.0000000000000000e+00" purity="6.2863305211067200e-02" nType="-1"/>
      </Node>
    </BinaryTree>
    <BinaryTree type="DecisionTree" boostWeight="1.2759329844929335e-01" itree="17">
      <Node pos="s" depth="0" NCoef="0" IVar="-1" Cut="2.7267260551452637e+00" cType="1" res="-9.9000000000000000e+01" rms="0.0000000000000000e+00" purity="4.3654733896255493e-01" nType="-1"/>
    </BinaryTree>
    <BinaryTree type="DecisionTree" boostWeight="1.4610532195660603e-01" itree="18">
      <Node pos="s" depth="0" NCoef="0" IVar="6" Cut="2.7267260551452637e+00" cType="1" res="-9.9000000000000000e+01" rms="0.0000000000000000e+00" purity="4.6814486384391785e-01" nType="0">
        <Node pos="l" depth="1" NCoef="0" IVar="7" Cut="8.3900845050811768e-01" cType="0" res="-9.9000000000000000e+01" rms="0.0000000000000000e+00" purity="4.9700191617012024e-01" nType="0">
          <Node pos="l" depth="2" NCoef="0" IVar="-1" Cut="0.0000000000000000e+00" cType="1" res="-9.9000000000000000e+01" rms="0.0000000000000000e+00" purity="5.2383083105087280e-01" nType="1"/>
          <Node pos="r" depth="2" NCoef="0" IVar="-1" Cut="0.0000000000000000e+00" cType="1" res="-9.9000000000000000e+01" rms="0.0000000000000000e+00" purity="1.6079728305339813e-01" nType="-1"/>
        </Node>
        <Node pos="r" depth="1" NCoef="0" IVar="-1" Cut="0.0000000000000000e+00" cType="1" res="-9.9000000000000000e+01" rms="0.0000000000000000e+00" purity="1.2857408821582794e-01" nType="-1"/>
      </Node>
    </BinaryTree>
    <BinaryTree type="DecisionTree" boostWeight="2.4279107424762467e-01" itree="19">
      <Node pos="s" depth="0" NCoef="0" IVar="4" Cut="8.4201748046875000e+03" cType="1" res="-9.9000000000000000e+01" rms="0.0000000000000000e+00" purity="4.4174581766128540e-01" nType="0">
        <Node pos="l" depth="1" NCoef="0" IVar="4" Cut="5.3489589843750000e+03" cType="0" res="-9.9000000000000000e+01" rms="0.0000000000000000e+00" purity="4.8141586780548096e-01" nType="0">
          <Node pos="l" depth="2" NCoef="0" IVar="-1" Cut="0.0000000000000000e+00" cType="1" res="-9.9000000000000000e+01" rms="0.0000000000000000e+00" purity="5.4620027542114258e-01" nType="1"/>
          <Node pos="r" depth="2" NCoef="0" IVar="-1" Cut="0.0000000000000000e+00" cType="1" res="-9.9000000000000000e+01" rms="0.0000000000000000e+00" purity="2.7719974517822266e-01" nType="-1"/>
        </Node>
        <Node pos="r" depth="1" NCoef="0" IVar="3" Cut="5.3469066406250000e+04" cType="0" res="-9.9000000000000000e+01" rms="0.0000000000000000e+00" purity="2.1686261892318726e-01" nType="0">
          <Node pos="l" depth="2" NCoef="0" IVar="-1" Cut="0.0000000000000000e+00" cType="1" res="-9.9000000000000000e+01" rms="0.0000000000000000e+00" purity="5.1073670387268066e-01" nType="1"/>
          <Node pos="r" depth="2" NCoef="0" IVar="-1" Cut="0.0000000000000000e+00" cType="1" res="-9.9000000000000000e+01" rms="0.0000000000000000e+00" purity="4.6354155987501144e-02" nType="-1"/>
        </Node>
      </Node>
    </BinaryTree>
    <BinaryTree type="DecisionTree" boostWeight="1.7146853461367240e-01" itree="20">
      <Node pos="s" depth="0" NCoef="0" IVar="-1" Cut="7.4165886640548706e-01" cType="0" res="-9.9000000000000000e+01" rms="0.0000000000000000e+00" purity="4.1509619355201721e-01" nType="-1"/>
    </BinaryTree>
    <BinaryTree type="DecisionTree" boostWeight="1.1725589373736765e-01" itree="21">
      <Node pos="s" depth="0" NCoef="0" IVar="1" Cut="7.4165886640548706e-01" cType="0" res="-9.9000000000000000e+01" rms="0.0000000000000000e+00" purity="4.5723760128021240e-01" nType="0">
        <Node pos="l" depth="1" NCoef="0" IVar="5" Cut="4.8910384178161621e+00" cType="1" res="-9.9000000000000000e+01" rms="0.0000000000000000e+00" purity="4.8018258810043335e-01" nType="0">
          <Node pos="l" depth="2" NCoef="0" IVar="-1" Cut="0.0000000000000000e+00" cType="1" res="-9.9000000000000000e+01" rms="0.0000000000000000e+00" purity="5.0905972719192505e-01" nType="1"/>
          <Node pos="r" depth="2" NCoef="0" IVar="-1" Cut="0.0000000000000000e+00" cType="1" res="-9.9000000000000000e+01" rms="0.0000000000000000e+00" purity="1.7764988541603088e-01" nType="-1"/>
        </Node>
        <Node pos="r" depth="1" NCoef="0" IVar="-1" Cut="0.0000000000000000e+00" cType="1" res="-9.9000000000000000e+01" rms="0.0000000000000000e+00" purity="7.7402867376804352e-02" nType="-1"/>
      </Node>
    </BinaryTree>
    <BinaryTree type="DecisionTree" boostWeight="1.2938642397102837e-01" itree="22">
      <Node pos="s" depth="0" NCoef="0" IVar="-1" Cut="2.7267260551452637e+00" cType="1" res="-9.9000000000000000e+01" rms="0.0000000000000000e+00" purity="4.3566539883613586e-01" nType="-1"/>
    </BinaryTree>
    <BinaryTree type="DecisionTree" boostWeight="1.2226384273599106e-01" itree="23">
      <Node pos="s" depth="0" NCoef="0" IVar="6" Cut="2.7267260551452637e+00" cType="1" res="-9.9000000000000000e+01" rms="0.0000000000000000e+00" purity="4.6769845485687256e-01" nType="0">
        <Node pos="l" depth="1" NCoef="0" IVar="0" Cut="3.1877844333648682e+00" cType="1" res="-9.9000000000000000e+01" rms="0.0000000000000000e+00" purity="4.9300402402877808e-01" nType="0">
          <Node pos="l" depth="2" NCoef="0" IVar="-1" Cut="0.0000000000000000e+00" cType="1" res="-9.9000000000000000e+01" rms="0.0000000000000000e+00" purity="5.1655828952789307e-01" nType="1"/>
          <Node pos="r" depth="2" NCoef="0" IVar="-1" Cut="0.0000000000000000e+00" cType="1" res="-9.9000000000000000e+01" rms="0.0000000000000000e+00" purity="1.7970448732376099e-01" nType="-1"/>
        </Node>
        <Node pos="r" depth="1" NCoef="0" IVar="-1" Cut="0.0000000000000000e+00" cType="1" res="-9.9000000000000000e+01" rms="0.0000000000000000e+00" purity="1.5013739466667175e-01" nType="-1"/>
      </Node>
    </BinaryTree>
    <BinaryTree type="DecisionTree" boostWeight="2.1295224225489567e-01" itree="24">
      <Node pos="s" depth="0" NCoef="0" IVar="1" Cut="7.4165886640548706e-01" cType="0" res="-9.9000000000000000e+01" rms="0.0000000000000000e+00" purity="4.4522410631179810e-01" nType="0">
        <Node pos="l" depth="1" NCoef="0" IVar="1" Cut="2.6526792049407959e+00" cType="0" res="-9.9000000000000000e+01" rms="0.0000000000000000e+00" purity="4.6563231945037842e-01" nType="0">
          <Node pos="l" depth="2" NCoef="0" IVar="-1" Cut="0.0000000000000000e+00" cType="1" res="-9.9000000000000000e+01" rms="0.0000000000000000e+00" purity="6.0700178146362305e-01" nType="1"/>
          <Node pos="r" depth="2" NCoef="0" IVar="-1" Cut="0.0000000000000000e+00" cType="1" res="-9.9000000000000000e+01" rms="0.0000000000000000e+00" purity="4.1911339759826660e-01" nType="-1"/>
        </Node>
        <Node pos="r" depth="1" NCoef="0" IVar="-1" Cut="0.0000000000000000e+00" cType="1" res="-9.9000000000000000e+01" rms="0.0000000000000000e+00" purity="8.8253974914550781e-02" nType="-1"/>
      </Node>
    </BinaryTree>
    <BinaryTree type="DecisionTree" boostWeight="2.3654869165877360e-01" itree="25">
      <Node pos="s" depth="0" NCoef="0" IVar="5" Cut="3.8876013755798340e+00" cType="1" res="-9.9000000000000000e+01" rms="0.0000000000000000e+00" purity="4.7281411290168762e-01" nType="0">
        <Node pos="l" depth="1" NCoef="0" IVar="1" Cut="1.1163978576660156e+00" cType="0" res="-9.9000000000000000e+01" rms="0.0000000000000000e+00" purity="5.4069733619689941e-01" nType="0">
          <Node pos="l" depth="2" NCoef="0" IVar="-1" Cut="0.0000000000000000e+00" cType="1" res="-9.9000000000000000e+01" rms="0.0000000000000000e+00" purity="5.7677501440048218e-01" nType="1"/>
          <Node pos="r" depth="2" NCoef="0" IVar="-1" Cut="0.0000000000000000e+00" cType="1" res="-9.9000000000000000e+01" rms="0.0000000000000000e+00" purity="2.7074417471885681e-01" nType="-1"/>
        </Node>
        <Node pos="r" depth="1" NCoef="0" IVar="-1" Cut="6.3234125976562500e+03" cType="1" res="-9.9000000000000000e+01" rms="0.0000000000000000e+00" purity="3.4303689002990723e-01" nType="-1"/>
      </Node>
    </BinaryTree>
    <BinaryTree type="DecisionTree" boostWeight="2.0220384326273266e-01" itree="26">
      <Node pos="s" depth="0" NCoef="0" IVar="4" Cut="8.4201748046875000e+03" cType="1" res="-9.9000000000000000e+01" rms="0.0000000000000000e+00" purity="4.6246826648712158e-01" nType="0">
        <Node pos="l" depth="1" NCoef="0" IVar="0" Cut="2.4490458965301514e+00" cType="1" res="-9.9000000000000000e+01" rms="0.0000000000000000e+00" purity="4.9460521340370178e-01" nType="0">
          <Node pos="l" depth="2" NCoef="0" IVar="-1" Cut="0.0000000000000000e+00" cType="1" res="-9.9000000000000000e+01" rms="0.0000000000000000e+00" purity="5.4595005512237549e-01" nType="1"/>
          <Node pos="r" depth="2" NCoef="0" IVar="-1" Cut="0.0000000000000000e+00" cType="1" res="-9.9000000000000000e+01" rms="0.0000000000000000e+00" purity="3.2033020257949829e-01" nType="-1"/>
        </Node>
        <Node pos="r" depth="1" NCoef="0" IVar="3" Cut="5.3469066406250000e+04" cType="0" res="-9.9000000000000000e+01" rms="0.0000000000000000e+00" purity="2.5204333662986755e-01" nType="0">
          <Node pos="l" depth="2" NCoef="0" IVar="-1" Cut="0.0000000000000000e+00" cType="1" res="-9.9000000000000000e+01" rms="0.0000000000000000e+00" purity="5.0574547052383423e-01" nType="1"/>
          <Node pos="r" depth="2" NCoef="0" IVar="-1" Cut="0.0000000000000000e+00" cType="1" res="-9.9000000000000000e+01" rms="0.0000000000000000e+00" purity="7.1389622986316681e-02" nType="-1"/>
        </Node>
      </Node>
    </BinaryTree>
    <BinaryTree type="DecisionTree" boostWeight="1.9858948003912030e-01" itree="27">
      <Node pos="s" depth="0" NCoef="0" IVar="6" Cut="5.4058110713958740e-01" cType="1" res="-9.9000000000000000e+01" rms="0.0000000000000000e+00" purity="4.3854275345802307e-01" nType="0">
        <Node pos="l" depth="1" NCoef="0" IVar="-1" Cut="0.0000000000000000e+00" cType="1" res="-9.9000000000000000e+01" rms="0.0000000000000000e+00" purity="5.5319166183471680e-01" nType="1"/>
        <Node pos="r" depth="1" NCoef="0" IVar="-1" Cut="9.6664094924926758e-01" cType="0" res="-9.9000000000000000e+01" rms="0.0000000000000000e+00" purity="3.7853071093559265e-01" nType="-1"/>
      </Node>
    </BinaryTree>
    <BinaryTree type="DecisionTree" boostWeight="1.4807211643450441e-01" itree="28">
      <Node pos="s" depth="0" NCoef="0" IVar="7" Cut="9.6837800741195679e-01" cType="0" res="-9.9000000000000000e+01" rms="0.0000000000000000e+00" purity="4.5311284065246582e-01" nType="0">
        <Node pos="l" depth="1" NCoef="0" IVar="4" Cut="8.4369189453125000e+03" cType="1" res="-9.9000000000000000e+01" rms="0.0000000000000000e+00" purity="4.9059405922889709e-01" nType="0">
          <Node pos="l" depth="2" NCoef="0" IVar="-1" Cut="0.0000000000000000e+00" cType="1" res="-9.9000000000000000e+01" rms="0.0000000000000000e+00" purity="5.1826411485671997e-01" nType="1"/>
          <Node pos="r" depth="2" NCoef="0" IVar="-1" Cut="0.0000000000000000e+00" cType="1" res="-9.9000000000000000e+01" rms="0.0000000000000000e+00" purity="2.8152096271514893e-01" nType="-1"/>
        </Node>
        <Node pos="r" depth="1" NCoef="0" IVar="-1" Cut="1.3106787204742432e+00" cType="1" res="-9.9000000000000000e+01" rms="0.0000000000000000e+00" purity="2.7645501494407654e-01" nType="-1"/>
      </Node>
    </BinaryTree>
    <BinaryTree type="DecisionTree" boostWeight="1.2967703584335552e-01" itree="29">
      <Node pos="s" depth="0" NCoef="0" IVar="-1" Cut="2.7267260551452637e+00" cType="1" res="-9.9000000000000000e+01" rms="0.0000000000000000e+00" purity="4.3552249670028687e-01" nType="-1"/>
    </BinaryTree>
    <BinaryTree type="DecisionTree" boostWeight="1.1000899460916762e-01" itree="30">
      <Node pos="s" depth="0" NCoef="0" IVar="6" Cut="2.7267260551452637e+00" cType="1" res="-9.9000000000000000e+01" rms="0.0000000000000000e+00" purity="4.6762609481811523e-01" nType="0">
        <Node pos="l" depth="1" NCoef="0" IVar="4" Cut="4.5504409179687500e+03" cType="0" res="-9.9000000000000000e+01" rms="0.0000000000000000e+00" purity="4.8677629232406616e-01" nType="0">
          <Node pos="l" depth="2" NCoef="0" IVar="-1" Cut="0.0000000000000000e+00" cType="1" res="-9.9000000000000000e+01" rms="0.0000000000000000e+00" purity="5.1345956325531006e-01" nType="1"/>
          <Node pos="r" depth="2" NCoef="0" IVar="-1" Cut="0.0000000000000000e+00" cType="1" res="-9.9000000000000000e+01" rms="0.0000000000000000e+00" purity="2.6975435018539429e-01" nType="-1"/>
        </Node>
        <Node pos="r" depth="1" NCoef="0" IVar="-1" Cut="0.0000000000000000e+00" cType="1" res="-9.9000000000000000e+01" rms="0.0000000000000000e+00" purity="1.9287160038948059e-01" nType="-1"/>
      </Node>
    </BinaryTree>
    <BinaryTree type="DecisionTree" boostWeight="2.2270910751357140e-01" itree="31">
      <Node pos="s" depth="0" NCoef="0" IVar="5" Cut="4.8576898574829102e+00" cType="1" res="-9.9000000000000000e+01" rms="0.0000000000000000e+00" purity="4.4904950261116028e-01" nType="0">
        <Node pos="l" depth="1" NCoef="0" IVar="1" Cut="2.6393427848815918e+00" cType="0" res="-9.9000000000000000e+01" rms="0.0000000000000000e+00" purity="4.6939039230346680e-01" nType="0">
          <Node pos="l" depth="2" NCoef="0" IVar="-1" Cut="0.0000000000000000e+00" cType="1" res="-9.9000000000000000e+01" rms="0.0000000000000000e+00" purity="6.6212838888168335e-01" nType="1"/>
          <Node pos="r" depth="2" NCoef="0" IVar="-1" Cut="0.0000000000000000e+00" cType="1" res="-9.9000000000000000e+01" rms="0.0000000000000000e+00" purity="4.2246323823928833e-01" nType="-1"/>
        </Node>
        <Node pos="r" depth="1" NCoef="0" IVar="-1" Cut="0.0000000000000000e+00" cType="1" res="-9.9000000000000000e+01" rms="0.0000000000000000e+00" purity="2.0537501573562622e-01" nType="-1"/>
      </Node>
    </BinaryTree>
    <BinaryTree type="DecisionTree" boostWeight="2.0404755072857050e-01" itree="32">
      <Node pos="s" depth="0" NCoef="0" IVar="5" Cut="3.5642385482788086e+00" cType="1" res="-9.9000000000000000e+01" rms="0.0000000000000000e+00" purity="4.8406979441642761e-01" nType="0">
        <Node pos="l" depth="1" NCoef="0" IVar="4" Cut="5.8402631835937500e+03" cType="0" res="-9.9000000000000000e+01" rms="0.0000000000000000e+00" purity="5.5221885442733765e-01" nType="0">
          <Node pos="l" depth="2" NCoef="0" IVar="-1" Cut="0.0000000000000000e+00" cType="1" res="-9.9000000000000000e+01" rms="0.0000000000000000e+00" purity="6.0832643508911133e-01" nType="1"/>
          <Node pos="r" depth="2" NCoef="0" IVar="-1" Cut="0.0000000000000000e+00" cType="1" res="-9.9000000000000000e+01" rms="0.0000000000000000e+00" purity="4.5470687747001648e-01" nType="-1"/>
        </Node>
        <Node pos="r" depth="1" NCoef="0" IVar="4" Cut="6.3234125976562500e+03" cType="1" res="-9.9000000000000000e+01" rms="0.0000000000000000e+00" purity="4.0119791030883789e-01" nType="0">
          <Node pos="l" depth="2" NCoef="0" IVar="-1" Cut="0.0000000000000000e+00" cType="1" res="-9.9000000000000000e+01" rms="0.0000000000000000e+00" purity="5.1519823074340820e-01" nType="1"/>
